<?xml version="1.0"?>
<opencv_storage>
<my_svm type_id="opencv-ml-svm">
  <svm_type>C_SVC</svm_type>
  <kernel><type>RBF</type>
    <gamma>8.9999999999999997e-02</gamma></kernel>
  <C>10.</C>
  <term_criteria><epsilon>1.1920928955078125e-07</epsilon>
    <iterations>2147483647</iterations></term_criteria>
  <var_all>324</var_all>
  <var_count>324</var_count>
  <class_count>22</class_count>
  <class_labels type_id="opencv-matrix">
    <rows>1</rows>
    <cols>22</cols>
    <dt>i</dt>
    <data>
      0 1 2 3 4 5 6 7 8 9 10 11 12 13 14 15 16 18 19 20 21 22</data></class_labels>
  <sv_total>110</sv_total>
  <support_vectors>
    <_>
      2.95326952e-02 8.98772851e-02 2.84945160e-01 5.47575008e-04
      8.41603875e-02 0. 0. 0. 2.95326952e-02 3.00119519e-01
      1.64862752e-01 3.16654891e-01 7.30099855e-04 7.11124539e-02 0. 0.
      0. 3.00119519e-01 1.18130771e-02 1.76134422e-01 3.16654891e-01
      4.89831567e-02 3.16654891e-01 3.97165865e-03 0. 0. 1.18130771e-02
      1.95231125e-01 2.70159721e-01 3.16654891e-01 4.54729274e-02
      3.16654891e-01 1.58866309e-03 0. 0. 1.95231125e-01 2.79086620e-01
      3.63238081e-02 1.11602724e-01 9.95424707e-05 4.94332612e-03 0.
      5.12355715e-02 4.90612127e-02 2.79086620e-01 2.79086620e-01 0. 0.
      0. 7.07154581e-03 0. 2.79086620e-01 2.56908208e-01 2.79086620e-01
      2.79086620e-01 5.09619787e-02 1.69946998e-01 5.04065258e-03
      4.64537144e-02 0. 5.81106544e-02 6.20051287e-02 2.79086620e-01
      2.79086620e-01 2.55477950e-02 7.64486864e-02 0. 9.03579444e-02 0.
      2.79086620e-01 2.79086620e-01 2.79086620e-01 1.77169770e-01 0. 0.
      0. 6.52083308e-02 0. 3.29287171e-01 2.41329268e-01 1.84126958e-01
      3.29938382e-02 0. 0. 0. 6.53328151e-02 0. 1.15331374e-01
      3.85418013e-02 3.29938382e-02 2.46341586e-01 8.76468197e-02
      2.62272388e-01 0. 3.29287171e-01 0. 3.29287171e-01 3.29287171e-01
      2.55617857e-01 6.43969029e-02 4.19491194e-02 1.25527546e-01 0.
      3.29287171e-01 0. 2.63590127e-01 8.80873427e-02 6.43969029e-02 0.
      4.51062657e-02 1.70610979e-01 6.13972098e-02 3.44615370e-01
      2.58246623e-02 1.59011811e-01 5.17714322e-02 0. 1.27160642e-02
      5.78288995e-02 2.20560417e-01 5.22549301e-02 3.44615370e-01
      1.03298640e-02 2.28582963e-01 7.29695559e-02 1.27160642e-02
      1.27912592e-03 0. 0. 1.37708467e-02 3.04207891e-01 4.20878194e-02
      3.44615370e-01 2.19391957e-01 1.15127368e-02 7.12120831e-02 0. 0.
      9.93461162e-03 2.23982751e-01 1.07063167e-01 3.44615370e-01
      3.44615370e-01 1.30062938e-01 2.99774650e-02 1.25692133e-02
      5.16359694e-02 7.24992715e-03 5.44104353e-02 0. 5.77988364e-02
      2.48536859e-02 3.57305557e-02 6.34349138e-02 1.70793667e-01
      3.77980620e-01 7.73061439e-02 1.45205587e-01 0. 1.23037912e-01
      6.12560175e-02 6.11879639e-02 1.72506452e-01 8.10830146e-02
      2.41602719e-01 1.54312421e-03 8.02074894e-02 5.42875826e-02
      3.77980620e-01 2.76343197e-01 2.34582514e-01 1.32607713e-01
      3.77980620e-01 3.77980620e-01 1.94654033e-01 1.58031896e-01 0.
      6.01210408e-02 6.19193614e-02 8.06576014e-02 5.85825630e-02
      2.89493859e-01 3.49600941e-01 5.53115904e-02 3.49600941e-01 0.
      1.65133312e-01 6.18178137e-02 4.69407663e-02 1.58627126e-02
      1.07092381e-01 3.02357703e-01 0. 3.49600941e-01 0. 5.35605960e-02
      1.78990364e-02 1.37567595e-02 5.12228347e-02 3.49600941e-01
      3.49600941e-01 1.39278114e-01 2.24926814e-01 0. 0. 0.
      4.13625361e-03 5.26488293e-03 9.49626043e-02 2.38906458e-01 0.
      1.28603116e-01 0. 0. 0. 0. 6.90526329e-03 0. 0. 0. 6.76855221e-02
      3.24208997e-02 4.26158756e-01 2.49503240e-01 3.81033197e-02
      2.59439737e-01 0. 0. 0. 1.52709469e-01 1.68304265e-01
      4.26158756e-01 4.26158756e-01 4.26158756e-01 2.76210485e-03 0. 0.
      0. 0. 0. 6.27591182e-03 1.03384107e-02 7.96178076e-03
      1.10438481e-01 0. 0. 0. 2.09392123e-02 0. 1.94575399e-01
      9.97599587e-02 1.42458022e-01 3.17973286e-01 9.95458215e-02
      2.93080926e-01 1.03373241e-04 7.21013695e-02 4.28443328e-02
      3.17973286e-01 3.17973286e-01 3.17973286e-01 2.32992411e-01
      3.17973286e-01 3.17973286e-01 1.18536830e-01 8.89690146e-02 0.
      9.23066363e-02 8.93030986e-02 2.13726610e-01 1.67549789e-01
      1.87018756e-02 5.56363463e-02 0. 1.16196005e-02 0. 1.19103074e-01
      6.11104779e-02 1.86516240e-01 1.26443729e-01 6.06554113e-02
      1.64213434e-01 1.48908887e-02 9.01073590e-03 0. 1.98259838e-02
      1.63681358e-02 1.30213439e-01 1.88024655e-01 5.29130399e-01
      5.29130399e-01 4.17653233e-01 3.32534611e-01 0. 0. 0.
      8.89689475e-02 6.50397036e-03 6.69246763e-02 1.44355252e-01 0.
      6.29031137e-02 0. 0. 0. 0. 6.67266995e-02 9.38606784e-02
      2.36879215e-01 5.25863916e-02 2.38126386e-02 0. 0. 0.
      6.67266995e-02 0. 0. 0. 0. 0. 0. 0. 0. 0.</_>
    <_>
      0. 4.71501760e-02 1.50985867e-01 6.67515490e-03 1.01086073e-01 0.
      0. 0. 0. 0. 3.38483751e-01 3.38483751e-01 8.90020560e-03
      3.38483751e-01 0. 0. 0. 0. 3.51575352e-02 1.25179142e-01
      3.38483751e-01 1.66878868e-02 2.90417790e-01 0. 7.39755929e-02
      2.44198423e-02 2.23718807e-02 4.43014577e-02 3.38483751e-01
      3.38483751e-01 2.22505145e-02 3.38483751e-01 0. 2.08597571e-01
      6.66914135e-02 2.72539277e-02 1.39787123e-02 4.03127968e-01
      4.03127968e-01 2.43759668e-03 4.03127968e-01 0. 0. 0.
      1.39787123e-02 7.44228959e-02 1.04027480e-01 3.12127352e-01 0.
      6.04983978e-02 0. 1.48507163e-01 4.96285036e-02 7.44228959e-02
      1.19841145e-02 2.27882400e-01 4.03127968e-01 6.09399239e-03
      3.59449446e-01 0. 1.22244567e-01 3.79370004e-02 7.31512206e-03 0.
      4.12378320e-03 1.23399161e-02 0. 1.03247622e-02 0. 0. 0. 0.
      1.97313465e-02 1.08785694e-03 3.25527019e-03 0. 2.39015296e-01 0.
      4.00832027e-01 1.92710355e-01 1.97313465e-02 0. 0. 0. 0.
      4.00832027e-01 0. 4.00832027e-01 3.04709166e-01 0. 1.33320587e-02
      1.84067395e-02 5.50799668e-02 0. 2.65070379e-01 0. 9.05323178e-02
      3.02543193e-02 1.33320587e-02 1.77760758e-02 3.43658626e-02
      1.02835655e-01 0. 4.00832027e-01 0. 2.50820577e-01 8.38198960e-02
      1.77760758e-02 8.08253139e-02 7.15860724e-02 1.89776659e-01
      4.50921245e-03 2.98462868e-01 0. 2.43639350e-01 8.54638070e-02
      7.06517994e-02 9.52337831e-02 1.26200289e-01 2.97579139e-01
      6.01228233e-03 2.98462868e-01 3.39743420e-02 2.98462868e-01
      2.54070282e-01 8.71734768e-02 3.95974331e-02 4.60618315e-03
      1.37834568e-02 0. 1.60072476e-01 0. 1.77306861e-01 7.90852308e-02
      4.35559116e-02 1.53051496e-01 3.45463678e-03 1.03375902e-02 0.
      2.98462868e-01 1.70720443e-01 2.98462868e-01 2.98462868e-01
      1.91355646e-01 5.15741445e-02 3.94418053e-02 8.04686770e-02
      9.62388411e-04 2.10606888e-01 3.01972143e-02 2.63006151e-01
      1.05303705e-01 4.16289642e-02 9.01181847e-02 8.11558664e-02
      1.92582935e-01 0. 0. 0. 0. 3.17013660e-03 7.28376508e-02
      3.03575814e-01 5.72257861e-02 9.81125906e-02 0. 2.13314101e-01
      1.51740462e-01 3.03575814e-01 2.73868561e-01 3.03575814e-01
      3.03575814e-01 3.03575814e-01 3.03575814e-01 0. 0. 0. 0.
      1.90208126e-02 3.03575814e-01 5.90399168e-02 1.77669808e-01
      3.49531740e-01 0. 9.07778218e-02 0. 4.68785921e-03 1.56660029e-03
      5.72558492e-02 6.86670691e-02 1.93229035e-01 3.49531740e-01 0.
      3.49531740e-01 0. 1.17196497e-02 3.91650107e-03 6.86670691e-02
      2.05425307e-01 3.49531740e-01 3.49531740e-01 0. 5.65805240e-03 0.
      0. 0. 1.94720939e-01 8.24890062e-02 2.47184455e-01 3.49531740e-01
      0. 1.22882932e-01 0. 0. 0. 8.24890062e-02 0. 0. 0. 0.
      1.79028496e-01 0. 1.23321429e-01 8.93890262e-02 9.66961589e-03
      3.91370416e-01 0. 0. 0. 3.91370416e-01 3.91370416e-01
      3.91370416e-01 3.91370416e-01 3.91370416e-01 0. 0. 0. 0. 0. 0. 0.
      0. 0. 1.04216181e-01 0. 0. 0. 0. 0. 0. 0. 1.04216181e-01
      3.64031166e-01 5.57622761e-02 1.02873601e-01 0. 6.89601749e-02
      1.55445993e-01 2.84592867e-01 2.21022323e-01 3.64031166e-01
      3.64031166e-01 3.64031166e-01 3.64031166e-01 0. 0. 0. 0.
      1.66433752e-02 3.64031166e-01 8.94155800e-02 0. 0. 0. 0. 0. 0. 0.
      8.94155800e-02 7.91453570e-02 0. 0. 0. 0. 0. 0. 0. 7.91453570e-02
      4.26234782e-01 4.26234782e-01 4.26234782e-01 0. 0. 0. 0. 0.
      4.26234782e-01 1.31416127e-01 2.25722596e-01 4.26234782e-01 0. 0.
      0. 0. 0. 1.31416127e-01 3.05827204e-02 0. 0. 0. 0. 0. 0. 0.
      3.05827204e-02 0. 0. 0. 0. 0. 0. 0. 0. 0.</_>
    <_>
      3.40288207e-02 1.25785042e-02 3.76396775e-02 0. 0. 0. 0. 0.
      3.40288207e-02 1.37345582e-01 1.26520498e-02 3.78597602e-02 0. 0.
      0. 1.82654727e-02 1.60997659e-02 1.41702160e-01 1.60181195e-01
      3.39793891e-01 3.39793891e-01 3.12845521e-02 2.55425330e-02 0. 0.
      2.08583958e-02 1.67096511e-01 3.39793891e-01 2.95197606e-01
      3.39793891e-01 2.28057783e-02 7.62886088e-03 0. 3.39793891e-01
      3.39793891e-01 3.39793891e-01 1.06539801e-01 1.34932587e-03
      4.03769733e-03 0. 0. 0. 4.67328764e-02 3.56911160e-02
      1.31179810e-01 8.42213351e-03 0. 0. 0. 0. 0. 1.51798241e-02
      1.01696672e-02 2.69021392e-02 3.85693103e-01 4.59235497e-02
      9.91845801e-02 0. 1.26816342e-02 7.80258211e-04 3.95922154e-01
      3.95922154e-01 3.95922154e-01 3.73715274e-02 0. 0. 0.
      7.60897771e-02 4.68154810e-03 3.95922154e-01 3.79680485e-01
      1.53724954e-01 0. 0. 0. 0. 0. 0. 0. 0. 0. 0. 0. 0. 0. 0. 0. 0. 0.
      0. 0. 0. 0. 0. 5.75163782e-01 4.26180102e-02 5.75163782e-01
      5.75163782e-01 0. 0. 0. 0. 0. 0. 0. 0. 0. 0. 9.32663754e-02
      3.57657880e-01 3.57657880e-01 4.47935425e-02 1.41572356e-01 0. 0.
      1.44109046e-02 9.80441049e-02 1.89993858e-01 2.46810347e-01
      3.57657880e-01 1.57563388e-02 1.14395237e-02 0. 2.58596450e-01
      2.55122423e-01 2.41438270e-01 1.32849431e-02 1.36724323e-01
      3.57657880e-01 5.35759404e-02 3.57657880e-01 0. 1.99699849e-02
      6.67363498e-03 1.32849431e-02 2.40033027e-02 3.37749980e-02
      5.89673221e-02 0. 4.36376734e-03 0. 2.05426589e-02 6.86499616e-03
      2.40033027e-02 9.38585252e-02 1.88635066e-02 3.35650072e-02 0.
      8.75829980e-02 1.03150848e-02 3.24376345e-01 3.24376345e-01
      1.44786447e-01 1.08747128e-02 0. 0. 0. 3.09465498e-01
      4.55445573e-02 3.24376345e-01 2.66407341e-01 3.56092341e-02
      1.33880284e-02 4.95638251e-02 1.29013300e-01 3.35658994e-03
      1.71474785e-01 1.75848026e-02 2.48602882e-01 7.18329325e-02
      1.33880284e-02 2.97364895e-03 1.17338866e-01 3.24376345e-01
      4.47545340e-03 3.24376345e-01 8.37141946e-02 3.24376345e-01
      1.38720021e-01 2.97364895e-03 0. 0. 0. 0. 4.24535602e-01
      7.72996917e-02 4.24535602e-01 1.75683662e-01 0. 0. 0. 0. 0. 0. 0.
      0. 0. 0. 0. 1.44749254e-01 4.16810662e-01 2.72663613e-03
      4.24535602e-01 1.46983013e-01 4.24535602e-01 1.47317141e-01 0. 0.
      0. 0. 0. 0. 0. 0. 0. 0. 9.27254558e-02 3.31624551e-03
      9.92343295e-03 1.03353951e-02 2.93939173e-01 0. 2.93939173e-01
      1.35051489e-01 1.06843919e-01 1.08678900e-01 1.10346273e-01
      1.49371043e-01 0. 3.21045140e-04 0. 8.56193751e-02 3.15329917e-02
      1.12062469e-01 2.93939173e-01 0. 0. 0. 9.19813737e-02 0.
      2.93939173e-01 2.93939173e-01 2.93939173e-01 2.93939173e-01
      2.05753669e-01 2.93939173e-01 0. 0. 0. 2.32294232e-01
      9.51513872e-02 2.93939173e-01 7.71527737e-02 2.71971732e-01
      3.15345436e-01 1.36772916e-02 8.72145370e-02 3.32561787e-03
      3.56044210e-02 8.68177321e-03 5.14488071e-02 3.70108970e-02
      3.09931427e-01 3.15345436e-01 1.82363857e-02 3.15345436e-01
      1.69647019e-02 8.47559497e-02 2.02824492e-02 1.77329220e-02
      2.63446778e-01 3.15345436e-01 3.15345436e-01 1.07554914e-02
      1.83592532e-02 0. 1.11778071e-02 3.73543613e-03 2.29174823e-01
      7.93245807e-02 2.51994222e-01 3.15345436e-01 1.43406522e-02
      8.44324455e-02 0. 0. 0. 5.36206216e-02 0. 4.55861777e-01
      4.55861777e-01 1.83426943e-02 4.55861777e-01 5.05754873e-02
      1.67252928e-01 4.15701456e-02 0. 0. 0. 0. 0. 0. 0. 0. 0. 0. 0.
      2.35853404e-01 4.55861777e-01 1.44242514e-02 2.75274396e-01 0. 0.
      0. 0. 0. 0. 0. 0. 0. 0. 0. 0. 0.</_>
    <_>
      4.25761864e-02 1.14315879e-02 2.68372353e-02 0. 0. 0. 0. 0.
      4.10815664e-02 1.52202293e-01 1.96794700e-02 4.90612350e-02 0. 0.
      0. 2.91938279e-02 9.75608919e-03 1.43234581e-01 3.23155433e-01
      2.44223475e-01 3.30205649e-01 1.79710444e-02 2.37950042e-01 0. 0.
      0. 2.60200053e-01 3.30205649e-01 3.26717943e-01 3.30205649e-01
      1.34782828e-02 4.79169786e-02 0. 2.77207106e-01 1.84377521e-01
      3.30205649e-01 1.12625048e-01 4.39610379e-03 1.15552722e-02 0. 0.
      0. 5.99017106e-02 2.00181510e-02 1.08048007e-01 1.49500705e-02 0.
      0. 0. 0. 0. 1.70481801e-02 5.69721730e-03 1.49500705e-02
      3.95347238e-01 1.02790736e-01 6.93316087e-02 0. 0. 0.
      3.95347238e-01 3.95347238e-01 3.95347238e-01 7.98361525e-02 0. 0.
      0. 0. 0. 3.95347238e-01 3.95347238e-01 8.50678235e-02 0. 0. 0. 0.
      0. 0. 0. 0. 0. 0. 0. 0. 0. 0. 0. 0. 0. 0. 0. 0. 0. 0. 0. 0.
      7.04615593e-01 7.04615593e-01 0. 0. 0. 0. 0. 0. 0. 0. 0. 0.
      1.75344437e-01 2.25928053e-01 3.19171160e-01 3.38444561e-02
      3.19171160e-01 0. 0. 0. 1.17355615e-01 3.19171160e-01
      2.00262174e-01 3.10191035e-01 2.53833383e-02 1.09527133e-01 0.
      1.63009644e-01 1.09572850e-01 3.19171160e-01 2.15813871e-02
      5.97247072e-02 1.78718626e-01 1.35377785e-02 3.19171160e-01 0.
      2.75271803e-01 9.19911638e-02 1.29575105e-02 9.21004936e-02
      2.97511015e-02 8.90264362e-02 1.01533337e-02 1.84233680e-01 0.
      1.49403140e-01 4.99279946e-02 8.06019977e-02 1.69379324e-01
      3.11823916e-02 1.33707756e-02 0. 2.59607378e-03 0. 3.53453010e-01
      2.66895115e-01 1.62838638e-01 1.78185105e-02 0. 0. 0.
      5.47965057e-02 0. 3.53453010e-01 3.53453010e-01 1.96051393e-02
      6.66263625e-02 2.05958523e-02 6.16306402e-02 0. 1.55764353e-02 0.
      2.19711706e-01 7.34238178e-02 6.55621663e-02 3.34502608e-02
      1.07529640e-01 3.21769178e-01 0. 3.07728261e-01 0. 3.53453010e-01
      2.94197142e-01 3.34502608e-02 0. 0. 0. 0. 1.64040476e-01 0.
      3.95748526e-01 3.04272890e-01 0. 0. 0. 0. 0. 3.22447941e-02 0.
      1.86205935e-02 6.22269046e-03 0. 4.46788641e-03 1.83225527e-01
      3.95748526e-01 0. 3.95748526e-01 0. 3.95748526e-01 3.95748526e-01
      4.46788641e-03 0. 1.10661639e-02 3.31140533e-02 0. 2.28676766e-01
      0. 6.65397048e-02 2.22364571e-02 0. 7.17609897e-02 0. 0. 0.
      2.97552019e-01 0. 2.97552019e-01 2.66444921e-01 7.17609897e-02
      2.97552019e-01 3.78835462e-02 1.13361962e-01 0. 6.28487766e-02 0.
      2.97552019e-01 1.37713000e-01 2.97552019e-01 1.33484915e-01 0. 0.
      0. 4.29898985e-02 0. 2.97552019e-01 1.74769089e-01 1.33484915e-01
      2.97552019e-01 3.12277339e-02 9.34452191e-02 0. 0. 0.
      2.88457006e-01 9.63973850e-02 2.97552019e-01 2.85427719e-01
      1.07863046e-01 2.85427719e-01 0. 7.84084760e-03 0. 2.06092279e-02
      6.88725058e-03 2.85427719e-01 1.97199315e-01 2.85427719e-01
      2.85427719e-01 0. 2.06280917e-01 0. 1.56884670e-01 5.24281561e-02
      1.97199315e-01 2.85427719e-01 8.96591842e-02 2.68293947e-01 0. 0.
      0. 7.05407187e-03 2.35735276e-03 2.85427719e-01 2.01792449e-01
      1.54902548e-01 2.85427719e-01 0. 5.32782683e-03 0. 0. 0.
      2.01792449e-01 8.16879869e-02 4.13017273e-01 4.13017273e-01 0.
      4.13017273e-01 0. 3.94794703e-01 1.31933630e-01 8.16879869e-02 0.
      2.75181439e-02 8.23444575e-02 0. 2.30904475e-01 0. 3.24685462e-02
      1.08504472e-02 0. 9.45947990e-02 2.11196199e-01 4.13017273e-01 0.
      3.92648876e-02 0. 0. 0. 9.45947990e-02 0. 7.83173461e-03
      2.34354474e-02 0. 1.57059543e-02 0. 0. 0. 0.</_>
    <_>
      5.73531631e-03 5.86068956e-03 1.75374169e-02 0. 0. 0. 0. 0.
      5.73531631e-03 1.33897975e-01 6.75512776e-02 1.65083438e-01 0. 0.
      0. 0. 0. 1.24047823e-01 1.43382913e-02 1.84410527e-01
      4.20428008e-01 8.38033389e-03 1.24261327e-01 0. 0. 0.
      1.43382913e-02 4.20428008e-01 4.20428008e-01 4.20428008e-01
      1.11737773e-02 1.16989665e-01 0. 0. 0. 3.99349958e-01
      2.13816375e-01 3.27751264e-02 8.16062763e-02 2.18868302e-03 0. 0.
      6.53784862e-03 3.58765409e-03 2.16195285e-01 1.90107256e-01
      2.14223680e-03 1.56255867e-02 1.31320944e-02 5.80723584e-02 0.
      3.92270759e-02 2.15259157e-02 2.15202674e-01 3.06400657e-01
      2.34791711e-01 3.06400657e-01 3.81084718e-02 4.61521111e-02 0.
      8.64578560e-02 3.23997475e-02 3.06400657e-01 3.06400657e-01
      1.10579431e-01 3.06400657e-01 1.66971490e-01 3.06400657e-01 0.
      1.91551998e-01 8.50556120e-02 3.06400657e-01 1.93787038e-01 0.
      2.49975584e-02 3.56227122e-02 2.78952777e-01 0. 1.06409140e-01
      5.83921745e-02 2.32000768e-01 0. 0. 0. 0. 0. 0. 0. 0. 0.
      3.27176839e-01 1.67675227e-01 3.62330884e-01 3.62330884e-01
      3.62330884e-01 0. 3.46894294e-01 1.73006266e-01 3.62330884e-01 0.
      0. 0. 0. 0. 0. 0. 0. 0. 6.49011880e-03 1.23796463e-01
      2.89866656e-01 3.39077786e-02 2.52388895e-01 0. 9.51641798e-03
      3.18022794e-03 1.42429667e-02 9.16410759e-02 2.86450535e-01
      2.89866656e-01 4.90651429e-02 2.47107327e-01 0. 1.26885548e-02
      4.24030283e-03 9.90220383e-02 3.74058597e-02 4.59788628e-02
      1.60642952e-01 5.41153029e-02 2.89866656e-01 1.15237618e-02
      2.18767852e-01 8.64616036e-02 8.67777765e-02 1.40608475e-01
      2.20916495e-01 2.89866656e-01 7.72934332e-02 2.89866656e-01
      1.53650139e-02 2.89866656e-01 1.86326921e-01 2.09264532e-01
      1.91010192e-01 2.15002239e-01 3.13201636e-01 8.37193951e-02
      1.89402401e-01 0. 4.66275774e-02 1.62483491e-02 1.93724230e-01
      1.11700930e-01 1.71359777e-01 3.13201636e-01 1.74480975e-01
      2.85273224e-01 0. 7.43171871e-02 2.88328752e-02 1.23619281e-01
      8.33280981e-02 3.13201636e-01 3.13201636e-01 8.28917399e-02
      2.39425421e-01 2.12767953e-03 5.20400926e-02 5.21800965e-02
      8.59803334e-02 4.63174749e-03 1.66449517e-01 3.13201636e-01
      9.55110565e-02 2.11448595e-01 0. 0. 0. 2.24991306e-03
      9.15287957e-02 3.38819623e-01 3.97432864e-01 3.97432864e-01
      3.97432864e-01 0. 1.75435767e-01 7.78994560e-02 1.23783819e-01 0.
      0. 0. 0. 0. 0. 0. 0. 0. 0. 1.26610219e-01 3.97432864e-01
      1.80925220e-01 3.74311775e-01 0. 0. 0. 0. 0. 0. 0. 0. 0. 0. 0. 0.
      0. 9.43948030e-02 5.82222920e-03 1.74222626e-02 2.82087065e-02
      2.71051913e-01 2.48751193e-02 3.23978662e-01 2.00610846e-01
      1.57261416e-01 3.23978662e-01 3.23978662e-01 3.23978662e-01
      3.96096371e-02 2.20971137e-01 3.31668220e-02 3.23978662e-01
      3.23978662e-01 3.23978662e-01 2.38061771e-02 0. 0. 0. 0. 0.
      3.65545899e-02 1.22159012e-02 2.38061771e-02 1.62116468e-01
      1.22281620e-02 3.65911834e-02 0. 0. 0. 6.53822422e-02
      2.18495987e-02 1.62116468e-01 3.98713261e-01 3.98713261e-01
      3.98713261e-01 3.77671495e-02 1.66840568e-01 5.82116377e-03
      1.72393247e-01 1.52791321e-01 3.98713261e-01 2.58186646e-02
      2.18901813e-01 3.98713261e-01 3.58556323e-02 1.59107506e-01 0. 0.
      0. 1.93021540e-02 1.32185191e-01 2.70551872e-02 8.09591115e-02 0.
      0. 0. 1.62999779e-02 5.44716697e-03 1.32185191e-01 7.72086065e-03
      7.69997621e-03 2.30411775e-02 0. 0. 0. 0. 0. 7.72086065e-03 0.
      1.34080678e-01 6.23606145e-01 4.45002198e-01 6.23606145e-01 0. 0.
      0. 0. 0. 0. 0. 0. 0. 0. 0. 0. 0. 0. 0. 0. 0. 0. 0. 0. 0. 0. 0. 0.
      0. 0. 0. 0. 0. 0. 0.</_>
    <_>
      0. 0. 0. 0. 0. 0. 0. 0. 0. 0. 0. 0. 0. 0. 0. 0. 0. 0. 0. 0. 0. 0.
      0. 0. 0. 0. 0. 5.75688422e-01 0. 0. 0. 5.75688422e-01 0. 0. 0.
      5.75688422e-01 0. 0. 0. 0. 0. 0. 0. 0. 0. 0. 0. 0. 0. 0. 0. 0. 0.
      0. 4.03108835e-01 0. 0. 0. 3.45921725e-01 0. 2.59020269e-01
      8.65602493e-02 4.03108835e-01 4.03108835e-01 0. 0. 0.
      1.38368651e-01 0. 3.45360309e-01 1.15413651e-01 4.03108835e-01 0.
      0. 0. 0. 0. 0. 0. 0. 0. 0. 0. 0. 0. 0. 0. 0. 0. 0. 4.97964680e-01
      0. 0. 0. 0. 0. 5.32412492e-02 1.77923366e-02 4.97964680e-01
      4.97964680e-01 0. 0. 0. 0. 0. 0. 0. 4.97964680e-01 0. 0. 0. 0. 0.
      0. 0. 0. 0. 3.64450514e-01 0. 0. 0. 3.64450514e-01 0.
      2.54120350e-01 8.49225670e-02 3.64450514e-01 0. 0. 0. 0. 0. 0. 0.
      0. 0. 3.64450514e-01 0. 0. 0. 3.64450514e-01 0. 3.38827133e-01
      1.13230072e-01 3.64450514e-01 2.37083420e-01 0. 0. 0.
      2.29035199e-01 0. 1.92559347e-01 6.43500388e-02 2.37083420e-01
      3.27976406e-01 0. 0. 0. 9.16140750e-02 0. 2.00582594e-01
      6.70312941e-02 3.27976406e-01 2.82598943e-01 0. 0. 0.
      2.30374396e-01 0. 2.00582638e-01 6.70312643e-02 2.82598943e-01
      3.27976406e-01 0. 0. 0. 9.21497494e-02 0. 1.92559302e-01
      6.43500090e-02 3.27976406e-01 3.47925991e-01 0. 0. 0. 0. 0.
      1.48976231e-02 4.97853709e-03 3.47925991e-01 3.47925991e-01 0. 0.
      0. 9.98929814e-02 0. 0. 0. 3.47925991e-01 3.47925991e-01 0. 0. 0.
      0. 0. 1.11732157e-02 3.73390224e-03 3.47925991e-01 3.47925991e-01
      0. 0. 0. 1.33190632e-01 0. 0. 0. 3.47925991e-01 0. 0. 0. 0. 0. 0.
      0. 0. 0. 4.87528801e-01 0. 0. 0. 4.87528801e-01 0. 4.87528801e-01
      2.10697070e-01 4.87528801e-01 0. 0. 0. 0. 0. 0. 0. 0. 0. 0. 0. 0.
      0. 0. 0. 0. 0. 0. 4.66908276e-01 0. 0. 0. 2.11548746e-01 0.
      2.02758536e-01 6.77583441e-02 4.66908276e-01 4.66908276e-01 0. 0.
      0. 8.46194923e-02 0. 1.52068883e-01 5.08187525e-02 4.66908276e-01
      0. 0. 0. 0. 0. 0. 0. 0. 0. 0. 0. 0. 0. 0. 0. 0. 0. 0.
      4.88409132e-01 0. 0. 0. 0. 0. 0. 0. 4.88409132e-01 4.88409132e-01
      0. 0. 0. 2.02355787e-01 0. 0. 0. 4.88409132e-01 0. 0. 0. 0. 0. 0.
      0. 0. 0. 0. 0. 0. 0. 0. 0. 0. 0. 0.</_>
    <_>
      0. 0. 0. 0. 0. 0. 0. 0. 0. 0. 0. 0. 0. 0. 0. 0. 0. 0.
      4.98753130e-01 0. 0. 0. 0. 0. 0. 0. 4.98753130e-01 4.98753130e-01
      0. 0. 0. 0. 0. 0. 0. 4.98753130e-01 0. 0. 0. 0. 0. 0. 0. 0. 0. 0.
      0. 0. 0. 0. 0. 0. 0. 0. 4.98753130e-01 0. 0. 0. 0. 0. 0. 0.
      4.98753130e-01 4.98753130e-01 0. 0. 0. 0. 0. 0. 0. 4.98753130e-01
      0. 0. 0. 0. 0. 0. 0. 0. 0. 0. 0. 0. 0. 0. 0. 0. 0. 0.
      4.98753130e-01 0. 0. 0. 0. 0. 0. 0. 4.98753130e-01 4.98753130e-01
      0. 0. 0. 0. 0. 0. 0. 4.98753130e-01 2.41842657e-01 0. 0. 0.
      2.12003216e-01 0. 0. 0. 2.41842657e-01 3.55893195e-01 0. 0. 0.
      1.20035507e-01 0. 0. 0. 3.55893195e-01 3.22456867e-01 0. 0. 0.
      2.82670915e-01 0. 0. 0. 3.22456867e-01 3.55893195e-01 0. 0. 0.
      1.60047308e-01 0. 0. 0. 3.55893195e-01 3.52929503e-01 0. 0. 0. 0.
      0. 0. 0. 3.52929503e-01 3.52929503e-01 0. 0. 0. 0. 0. 0. 0.
      3.52929503e-01 3.52929503e-01 0. 0. 0. 0. 0. 0. 0. 3.52929503e-01
      3.52929503e-01 0. 0. 0. 0. 0. 0. 0. 3.52929503e-01 3.21435660e-01
      0. 0. 0. 6.67111948e-02 0. 0. 0. 3.21435660e-01 3.21435660e-01 0.
      0. 0. 2.38388941e-01 0. 0. 0. 3.21435660e-01 3.21435660e-01 0. 0.
      0. 8.89482498e-02 0. 0. 0. 3.21435660e-01 3.21435660e-01 0. 0. 0.
      3.17851871e-01 0. 0. 0. 3.21435660e-01 4.45277512e-01 0. 0. 0.
      3.91553968e-01 0. 0. 0. 4.45277512e-01 4.45277512e-01 0. 0. 0.
      2.21696526e-01 0. 0. 0. 4.45277512e-01 0. 0. 0. 0. 0. 0. 0. 0. 0.
      0. 0. 0. 0. 0. 0. 0. 0. 0. 4.98753130e-01 0. 0. 0. 0. 0. 0. 0.
      4.98753130e-01 4.98753130e-01 0. 0. 0. 0. 0. 0. 0. 4.98753130e-01
      0. 0. 0. 0. 0. 0. 0. 0. 0. 0. 0. 0. 0. 0. 0. 0. 0. 0.
      4.42088038e-01 0. 0. 0. 1.35554150e-01 0. 0. 0. 4.42088038e-01
      4.42088038e-01 0. 0. 0. 4.42088038e-01 0. 0. 0. 4.42088038e-01 0.
      0. 0. 0. 0. 0. 0. 0. 0. 0. 0. 0. 0. 0. 0. 0. 0. 0.</_>
    <_>
      0. 0. 0. 0. 0. 0. 0. 0. 0. 0. 0. 0. 0. 0. 0. 0. 0. 0.
      3.64165634e-01 0. 0. 0. 3.64165634e-01 0. 3.64165634e-01
      1.25090778e-01 3.64165634e-01 3.64165634e-01 0. 0. 0.
      1.82671234e-01 0. 3.64165634e-01 1.37945786e-01 3.64165634e-01 0.
      0. 0. 0. 0. 0. 0. 0. 0. 0. 0. 0. 0. 0. 0. 0. 0. 0. 4.32726383e-01
      4.83230166e-02 1.44600898e-01 0. 0. 0. 2.82656830e-02
      9.44591966e-03 4.32726383e-01 4.32726383e-01 1.80879220e-01
      4.32726383e-01 0. 0. 0. 4.80508916e-02 1.60578061e-02
      4.32726383e-01 0. 0. 0. 0. 0. 0. 0. 0. 0. 0. 0. 0. 0. 0. 0. 0. 0.
      0. 4.32693779e-01 1.02965347e-01 3.08111161e-01 0. 2.49781117e-01
      0. 2.24344462e-01 7.49721676e-02 4.32693779e-01 3.51253808e-01
      2.87118964e-02 8.59166160e-02 0. 3.33041489e-01 0. 1.68258324e-01
      5.62291183e-02 3.51253808e-01 3.18521291e-01 0. 0. 0.
      2.80821502e-01 0. 2.38232702e-01 7.96132684e-02 2.91538000e-01
      3.26171160e-01 0. 0. 0. 1.12328596e-01 0. 2.43089721e-01
      8.12364370e-02 3.26171160e-01 2.22514823e-01 0. 0. 0.
      1.59000188e-01 0. 1.40025377e-01 4.67940606e-02 2.11721525e-01
      3.26171160e-01 0. 0. 0. 6.36000633e-02 0. 1.30785093e-01
      4.37061340e-02 3.26171160e-01 3.35055083e-01 2.27810498e-02
      6.81695938e-02 0. 0. 0. 1.33253690e-02 4.45311563e-03
      3.35055083e-01 3.35055083e-01 8.82519037e-02 2.64083266e-01 0. 0.
      0. 2.26527620e-02 7.57017499e-03 3.35055083e-01 3.35055083e-01
      9.11242049e-03 2.72678360e-02 0. 0. 0. 5.33014676e-03
      1.78124604e-03 3.35055083e-01 3.35055083e-01 3.76965143e-02
      1.12802297e-01 0. 0. 0. 9.06110369e-03 3.02806986e-03
      3.35055083e-01 3.65575463e-01 8.50621983e-02 2.54538029e-01 0.
      2.02174425e-01 0. 1.44053370e-01 4.81402315e-02 3.65575463e-01
      2.37739354e-01 3.26466300e-02 9.76907834e-02 0. 2.69565880e-01 0.
      1.08040042e-01 3.61051746e-02 2.37739354e-01 3.65575463e-01
      4.92599718e-02 1.47404239e-01 0. 1.14470482e-01 0. 5.76213486e-02
      1.92560907e-02 3.65575463e-01 1.48690552e-01 2.44849660e-02
      7.32680783e-02 0. 1.52627274e-01 0. 4.32160050e-02 1.44420667e-02
      1.48690552e-01 4.98753130e-01 0. 0. 0. 0. 0. 0. 0. 4.98753130e-01
      4.98753130e-01 0. 0. 0. 0. 0. 0. 0. 4.98753130e-01 0. 0. 0. 0. 0.
      0. 0. 0. 0. 0. 0. 0. 0. 0. 0. 0. 0. 0. 4.98753130e-01 0. 0. 0. 0.
      0. 0. 0. 4.98753130e-01 4.98753130e-01 0. 0. 0. 0. 0. 0. 0.
      4.98753130e-01 0. 0. 0. 0. 0. 0. 0. 0. 0. 0. 0. 0. 0. 0. 0. 0. 0.
      0. 5.40493011e-01 0. 0. 0. 0. 0. 0. 0. 5.40493011e-01
      4.52955335e-01 0. 0. 0. 0. 0. 0. 0. 4.52955335e-01 0. 0. 0. 0. 0.
      0. 0. 0. 0. 0. 0. 0. 0. 0. 0. 0. 0. 0.</_>
    <_>
      0. 0. 0. 0. 0. 0. 0. 0. 0. 0. 0. 0. 0. 0. 0. 0. 0. 0.
      4.35544491e-01 0. 0. 0. 1.81028545e-01 0. 0. 0. 4.35544491e-01
      4.35544491e-01 2.93799013e-01 3.43167692e-01 0. 0. 0. 0. 0.
      4.35544491e-01 0. 0. 0. 0. 0. 0. 0. 0. 0. 0. 0. 0. 0. 0. 0. 0. 0.
      0. 4.37156647e-01 2.09875181e-01 3.26374292e-01 0. 0. 0. 0. 0.
      4.37156647e-01 4.37156647e-01 9.30318013e-02 2.01835766e-01 0.
      1.76774457e-01 0. 0. 0. 4.37156647e-01 0. 0. 0. 0. 0. 0. 0. 0. 0.
      0. 0. 0. 0. 0. 0. 0. 0. 0. 5.32647192e-01 5.84579259e-02
      1.24059170e-01 0. 5.32647192e-01 0. 0. 0. 5.32647192e-01
      9.98353362e-02 0. 0. 0. 3.23727310e-01 0. 0. 0. 9.98353362e-02
      3.51157993e-01 0. 0. 0. 1.65849477e-01 0. 0. 0. 3.51157993e-01
      3.51157993e-01 1.52001947e-01 1.77543715e-01 0. 0. 0. 0. 0.
      3.51157993e-01 2.90317863e-01 0. 0. 0. 6.63397908e-02 0. 0. 0.
      2.90317863e-01 3.51157993e-01 2.53336597e-02 2.95906179e-02 0. 0.
      0. 0. 0. 3.51157993e-01 3.53028923e-01 1.78442538e-01
      2.98427552e-01 0. 0. 0. 0. 0. 3.53028923e-01 3.53028923e-01
      1.12770900e-01 2.48901203e-01 0. 1.30523503e-01 0. 0. 0.
      3.53028923e-01 3.21691602e-01 4.23262306e-02 8.05315077e-02 0. 0.
      0. 0. 0. 2.87748486e-01 2.08853111e-01 4.24241573e-02
      9.50207636e-02 0. 2.17539165e-02 0. 0. 0. 1.89382881e-01
      4.58883256e-01 9.69547927e-02 2.05757096e-01 0. 4.58883256e-01 0.
      0. 0. 4.58883256e-01 8.33676159e-02 0. 0. 0. 3.03205490e-01 0. 0.
      0. 8.33676159e-02 2.85588115e-01 3.87819186e-02 8.23028311e-02 0.
      1.77560702e-01 0. 0. 0. 2.85588115e-01 1.79492477e-02 0. 0. 0.
      5.05342335e-02 0. 0. 0. 1.79492477e-02 0. 0. 0. 0. 0. 0. 0. 0. 0.
      0. 0. 0. 0. 0. 0. 0. 0. 0. 0. 0. 0. 0. 0. 0. 0. 0. 0. 0. 0. 0. 0.
      0. 0. 0. 0. 0. 0. 0. 0. 0. 0. 0. 0. 0. 0. 0. 0. 0. 0. 0. 0. 0. 0.
      0. 0. 0. 0. 0. 0. 0. 0. 0. 0. 0. 0. 0. 0. 0. 0. 0. 0. 0. 0. 0. 0.
      0. 0. 0. 0. 0. 0. 0. 0. 0. 0. 0. 0. 0. 0. 0. 0. 0. 0. 0. 0. 0. 0.
      0. 0. 0. 0. 0. 0. 0. 0. 0. 0. 0.</_>
    <_>
      0. 0. 0. 0. 0. 0. 0. 0. 0. 0. 0. 0. 0. 0. 0. 0. 0. 0.
      2.11288422e-01 0. 0. 0. 3.83345455e-01 0. 0. 0. 2.11288422e-01
      5.02904236e-01 0. 0. 0. 5.02904236e-01 0. 0. 0. 5.02904236e-01 0.
      0. 0. 0. 0. 0. 0. 0. 0. 0. 0. 0. 0. 0. 0. 0. 0. 0. 4.97969240e-01
      0. 0. 0. 5.59733994e-02 0. 0. 0. 4.97969240e-01 4.97969240e-01 0.
      0. 0. 0. 0. 0. 0. 4.97969240e-01 0. 0. 0. 0. 0. 0. 0. 0. 0. 0. 0.
      0. 0. 0. 0. 0. 0. 0. 4.65872258e-01 0. 0. 0. 8.99513811e-02 0.
      1.48978949e-01 4.97862734e-02 4.65872258e-01 4.65872258e-01 0. 0.
      0. 2.24878460e-01 0. 1.98638558e-01 6.63816929e-02 4.65872258e-01
      1.29994065e-01 0. 0. 0. 2.44750246e-01 0. 0. 0. 1.29994065e-01
      3.68768930e-01 0. 0. 0. 3.68768930e-01 0. 8.00701678e-02
      1.23639636e-01 3.68768930e-01 1.02224179e-01 0. 0. 0.
      1.83562696e-01 0. 0. 0. 1.02224179e-01 3.68768930e-01 0. 0. 0.
      3.28323781e-01 0. 1.06760211e-01 1.64852813e-01 3.68768930e-01
      3.44924062e-01 0. 0. 0. 2.66126990e-02 0. 6.30145520e-02
      9.30592194e-02 3.44924062e-01 3.44924062e-01 0. 0. 0. 0. 0.
      2.78970115e-02 4.80709895e-02 3.44924062e-01 3.44924062e-01 0. 0.
      0. 1.99595205e-02 0. 8.40193927e-02 1.24078937e-01 3.44924062e-01
      3.44924062e-01 0. 0. 0. 0. 0. 3.71960104e-02 6.40946478e-02
      3.44924062e-01 3.63131464e-01 1.91326607e-02 5.72519973e-02 0.
      7.88151547e-02 0. 7.32829645e-02 2.44899429e-02 3.63131464e-01
      2.79754639e-01 2.55102087e-02 7.63359740e-02 0. 1.97037905e-01 0.
      9.77106094e-02 3.26532535e-02 2.79754639e-01 3.63131464e-01
      2.55102087e-02 7.63359740e-02 0. 7.92759955e-02 0. 5.49622178e-02
      1.83674563e-02 3.63131464e-01 2.89621264e-01 3.40136066e-02
      1.01781294e-01 0. 1.98189974e-01 0. 7.32829422e-02 2.44899355e-02
      2.89621264e-01 2.22415581e-01 0. 0. 0. 0. 0. 0. 0. 2.22415581e-01
      5.12494266e-01 0. 0. 0. 0. 0. 3.30932319e-01 5.11006236e-01
      5.12494266e-01 0. 0. 0. 0. 0. 0. 0. 0. 0. 0. 0. 0. 0. 0. 0. 0. 0.
      0. 4.66954321e-01 0. 0. 0. 0. 0. 1.76373675e-01 2.60466784e-01
      4.66954321e-01 4.66954321e-01 0. 0. 0. 0. 0. 7.80819431e-02
      1.34547606e-01 4.66954321e-01 0. 0. 0. 0. 0. 0. 0. 0. 0. 0. 0. 0.
      0. 0. 0. 0. 0. 0. 4.69580024e-01 4.69850935e-02 1.40596777e-01 0.
      8.48903507e-02 0. 0. 0. 4.69580024e-01 4.69580024e-01
      6.26467839e-02 1.87462345e-01 0. 2.12225884e-01 0. 0. 0.
      4.69580024e-01 0. 0. 0. 0. 0. 0. 0. 0. 0. 0. 0. 0. 0. 0. 0. 0. 0.
      0.</_>
    <_>
      0. 0. 0. 0. 0. 0. 0. 0. 0. 0. 0. 0. 0. 0. 0. 0. 0. 0.
      1.20944172e-01 4.31044474e-02 2.13746697e-01 0. 3.31853658e-01 0.
      0. 0. 1.20944172e-01 4.46374655e-01 1.07761137e-01 4.46374655e-01
      0. 4.46374655e-01 0. 0. 0. 4.46374655e-01 0. 0. 0. 0. 0. 0. 0. 0.
      0. 2.56600622e-02 0. 0. 0. 0. 0. 0. 0. 2.56600622e-02
      3.02063942e-01 2.42324602e-02 1.20164119e-01 0. 3.65094274e-01 0.
      0. 0. 3.02063942e-01 3.65094274e-01 2.35622570e-01 3.65094274e-01
      0. 3.65094274e-01 0. 2.60668486e-01 8.71110559e-02 3.65094274e-01
      3.09823267e-02 0. 0. 0. 0. 0. 0. 0. 3.09823267e-02 1.23929279e-02
      0. 0. 0. 0. 0. 0. 0. 1.23929279e-02 3.47086519e-01 1.44933745e-01
      3.47086519e-01 0. 3.47086519e-01 0. 3.47086519e-01 1.86250687e-01
      3.47086519e-01 1.89110607e-01 2.07554121e-02 6.21081106e-02 0.
      3.47086519e-01 0. 3.47086519e-01 1.39687985e-01 1.89110607e-01
      1.71381682e-02 2.09036991e-02 9.52001065e-02 1.27854636e-02
      2.64916807e-01 0. 0. 0. 1.71381682e-02 1.02828965e-01
      5.68876006e-02 2.51850039e-01 5.03527112e-02 4.13685471e-01 0. 0.
      0. 1.02828965e-01 3.54437204e-03 1.96831487e-02 7.49504268e-02
      2.49270350e-02 4.13685471e-01 1.32663026e-02 7.48113245e-02
      2.50006430e-02 3.54437204e-03 7.19570816e-02 1.03779569e-01
      3.50675046e-01 1.08290225e-01 4.13685471e-01 7.95977786e-02
      3.50372046e-01 1.17088340e-01 7.19570816e-02 3.64396609e-02
      2.71336138e-02 1.11207098e-01 1.23806912e-02 3.39142442e-01 0. 0.
      0. 3.64396609e-02 1.00028381e-01 1.45476550e-01 3.39142442e-01
      1.10924605e-03 2.51824111e-01 0. 2.72420608e-02 9.10384208e-03
      1.00028381e-01 6.24398105e-02 1.91084579e-01 3.39142442e-01
      2.80342214e-02 3.39142442e-01 2.33763456e-02 1.05118811e-01
      3.51289175e-02 6.24398105e-02 7.80439004e-02 3.39142442e-01
      3.39142442e-01 6.65547280e-03 3.39142442e-01 0. 2.41929223e-03
      8.08487064e-04 7.80439004e-02 1.88431516e-01 1.42194241e-01
      3.51600021e-01 3.36793065e-03 3.51600021e-01 0. 1.46468252e-01
      4.89472374e-02 1.88431516e-01 5.99213056e-02 1.29072098e-02
      3.86232585e-02 1.34717196e-03 3.51600021e-01 0. 1.09851167e-01
      3.67104262e-02 5.99213056e-02 9.26687941e-02 2.65434355e-01
      3.51600021e-01 2.02075765e-02 3.51600021e-01 0. 1.30074415e-02
      4.34686989e-03 9.26687941e-02 2.32081767e-02 4.87468652e-02
      1.59849450e-01 8.08302965e-03 3.51600021e-01 0. 9.75557975e-03
      3.26015195e-03 2.32081767e-02 1.52642336e-02 6.09044591e-03
      1.82248671e-02 9.28802695e-03 3.26624632e-01 1.80325620e-02
      2.30862543e-01 7.71502405e-02 1.52642336e-02 3.26624632e-01
      9.81262848e-02 2.93630719e-01 4.31483760e-02 3.26624632e-01
      1.08195327e-01 3.26624632e-01 3.26624632e-01 3.26624632e-01
      1.14481738e-02 0. 0. 0. 1.94473695e-02 0. 6.57040849e-02
      2.19571590e-02 1.14481738e-02 2.22938463e-01 1.14348019e-02
      3.42172273e-02 0. 2.59298217e-02 0. 2.68102050e-01 8.95950571e-02
      2.22938463e-01 2.42927358e-01 2.61708230e-01 3.40416282e-01
      9.91846900e-03 1.87741190e-01 2.73499191e-02 2.53978968e-01
      8.48754421e-02 2.42927358e-01 7.05832019e-02 3.40416282e-01
      3.40416282e-01 6.73244335e-03 3.40416282e-01 1.55143896e-02
      1.34453801e-02 8.05134326e-03 7.20963925e-02 1.52924225e-01
      4.07386832e-02 1.21905342e-01 0. 2.09030858e-03 0. 6.17315993e-02
      2.06296369e-02 1.52924225e-01 7.43070692e-02 4.71118279e-02
      1.61381066e-01 1.40106147e-02 3.40416282e-01 2.91636661e-02
      2.23294813e-02 4.83080409e-02 8.33862349e-02 4.75291954e-03
      2.26406381e-01 3.64566177e-01 2.49765478e-02 3.64566177e-01
      8.04206878e-02 6.96957186e-02 2.35685650e-02 9.18246992e-03
      5.95069083e-04 8.51965994e-02 2.93511450e-01 1.42271183e-02
      3.64566177e-01 6.03155084e-02 5.22717871e-02 9.42742545e-03
      2.36688857e-03 1.03913128e-01 3.17110866e-02 1.91694215e-01
      7.26256892e-02 3.64566177e-01 1.51173338e-01 1.15747534e-01
      1.41411334e-01 1.30490407e-01 5.29801212e-02 1.85173247e-02
      1.23940386e-01 5.44692613e-02 3.52933735e-01 1.13380000e-01
      8.68106410e-02 5.65645248e-02 6.36110306e-02</_>
    <_>
      1.66226774e-01 0. 0. 0. 4.23430502e-01 1.18757047e-01
      1.53882295e-01 3.18916291e-02 1.66226774e-01 0. 0. 0. 0.
      6.36175796e-02 1.53969675e-02 2.35414729e-02 5.31527121e-03 0.
      9.41170305e-02 0. 0. 0. 4.23430502e-01 4.23283964e-01
      4.23430502e-01 1.50327697e-01 9.41170305e-02 0. 0. 0. 0.
      3.58914137e-01 3.37140262e-02 9.66649354e-02 1.32881794e-02 0. 0.
      0. 0. 0. 0. 0. 0. 0. 0. 4.82885204e-02 7.97572285e-02
      2.38664061e-01 0. 2.34489247e-01 0. 0. 0. 4.82885204e-02
      7.12397695e-03 3.67250629e-02 9.43354890e-02 5.02982661e-02
      1.80239454e-02 0. 0. 0. 0. 1.22545257e-01 5.57635427e-01
      5.57635427e-01 1.51616335e-01 4.38200772e-01 0. 0. 0.
      7.98014104e-02 9.83072296e-02 6.87456653e-02 2.05713272e-01 0.
      3.41952652e-01 0. 6.05015941e-02 2.02186238e-02 9.83072296e-02
      9.21417475e-02 3.51108536e-02 1.05065078e-01 0. 3.57715726e-01 0.
      8.06687772e-02 2.69581582e-02 9.21417475e-02 1.28935963e-01
      3.52363616e-01 3.57715726e-01 4.57409285e-02 3.57715726e-01 0.
      4.53761928e-02 1.51639655e-02 1.22927338e-01 9.95600224e-02
      8.72828811e-02 2.61183321e-01 2.68190466e-02 3.57715726e-01 0.
      6.05015829e-02 2.02186164e-02 9.95600224e-02 0. 0. 0. 0.
      3.16551030e-01 1.62707105e-01 3.16551030e-01 7.21655861e-02 0.
      1.14851957e-02 1.63054373e-02 2.82003209e-02 3.39643704e-03
      1.69716001e-01 3.16353180e-02 7.62178749e-02 1.62459146e-02
      2.05740845e-03 6.76836744e-02 3.74214142e-03 7.25511415e-03 0.
      3.16551030e-01 1.26200974e-01 3.16551030e-01 2.72342831e-01
      9.50665325e-02 2.77090400e-01 2.06711590e-01 3.16551030e-01
      2.03786157e-02 1.34801850e-01 4.71116789e-02 3.16551030e-01
      1.59228176e-01 2.39563689e-01 3.93806361e-02 8.67752582e-02
      1.98786184e-01 4.44529802e-02 2.67800577e-02 0. 0. 0.
      1.15079582e-02 7.71599114e-02 3.69631648e-01 3.69631648e-01
      1.10011682e-01 1.30104229e-01 0. 0. 0. 2.14145668e-02
      1.58161804e-01 3.59413266e-01 3.69631648e-01 8.89059231e-02
      3.81404944e-02 0. 1.52908890e-02 5.86252939e-03 8.39162320e-02
      7.88037106e-02 3.27091426e-01 3.69631648e-01 1.01804107e-01
      2.60721773e-01 0. 0. 0. 2.30583660e-02 4.58328091e-02
      2.95560449e-01 3.49610060e-01 1.11647904e-01 3.49610060e-01 0. 0.
      0. 2.64918488e-02 1.82340592e-02 5.47212064e-02 2.10990101e-01
      7.56691620e-02 3.49610060e-01 0. 0. 0. 1.82340592e-02
      1.74462404e-02 1.27036363e-01 3.49610060e-01 1.40315101e-01
      3.49610060e-01 0. 0. 0. 2.94052134e-03 0. 4.26631644e-02
      2.16593474e-01 1.47463650e-01 3.49610060e-01 0. 0. 0. 0.
      1.63594201e-01 1.05995815e-02 2.42696702e-02 0. 1.79629400e-01
      3.01002860e-02 3.30716759e-01 2.95279801e-01 2.15322718e-01
      3.30716759e-01 2.75681287e-01 3.30716759e-01 1.22769205e-02
      4.54019196e-02 1.20401131e-02 3.30716759e-01 2.11704120e-01
      3.30716759e-01 6.84789643e-02 3.65905068e-03 9.70786624e-03 0. 0.
      0. 1.15861520e-01 4.01841328e-02 7.71003962e-02 1.95131257e-01
      4.81407307e-02 1.36606663e-01 0. 0. 0. 9.99715552e-02
      3.53624001e-02 1.90736830e-01 3.49429995e-01 3.75637531e-01
      3.75637531e-01 7.45852962e-02 1.68569386e-02 0. 4.18402404e-02
      1.62919872e-02 2.65141636e-01 3.11395787e-02 1.93720162e-01
      3.75637531e-01 5.79258315e-02 3.75637531e-01 0. 0. 0.
      2.01355480e-02 1.07297681e-01 5.28742336e-02 1.53617322e-01 0. 0.
      0. 9.00830794e-03 3.39536741e-03 9.78346318e-02 1.31001072e-02
      5.42162312e-03 1.62235014e-02 0. 3.75637531e-01 0. 0. 0.
      1.31001072e-02 7.48064718e-04 2.57623866e-02 1.06250763e-01
      9.59708840e-02 4.86562639e-01 0. 0. 0. 7.48064718e-04 0.
      2.13351063e-02 9.63282660e-02 1.24317676e-01 4.86562639e-01 0. 0.
      0. 0. 2.40920149e-02 0. 0. 0. 4.86562639e-01 0. 0. 0.
      2.40920149e-02 1.80690102e-02 0. 0. 0. 4.86562639e-01 0. 0. 0.
      1.80690102e-02</_>
    <_>
      1.27107233e-01 2.01531015e-02 9.09949839e-02 0. 2.56452590e-01
      2.21616477e-02 8.71668905e-02 2.91297194e-02 1.27107233e-01
      3.61750461e-02 3.35885002e-03 1.51658300e-02 0. 9.66798291e-02
      3.69360764e-03 3.48667577e-02 1.16518876e-02 3.61750461e-02
      1.69476286e-01 5.03827557e-02 2.27487475e-01 0. 4.74401951e-01
      2.56441772e-01 4.55352068e-01 7.28242993e-02 1.69476286e-01
      4.82333899e-02 1.14225931e-02 4.69679311e-02 0. 4.74401951e-01
      4.27402966e-02 1.26739368e-01 2.91297194e-02 4.82333899e-02 0.
      2.29849201e-03 6.87796436e-03 0. 0. 0. 0. 0. 0. 1.20243713e-01
      1.45970374e-01 2.48106956e-01 3.03400541e-03 1.83623135e-01
      6.22060709e-02 7.08307102e-02 0. 5.45247830e-02 0. 1.07315436e-01
      3.21128607e-01 0. 8.37211311e-02 0. 0. 0. 0. 2.05390140e-01
      4.60596889e-01 4.60596889e-01 3.55214290e-02 4.60596889e-01
      1.21476695e-01 1.08483955e-01 0. 1.56100944e-01 1.66159570e-01
      1.22563951e-01 1.98133290e-01 1.03268512e-02 2.12733462e-01
      1.23709284e-01 1.81844071e-01 0. 9.48240981e-02 4.67978343e-02
      1.40777137e-02 2.97509916e-02 7.74513790e-03 9.50066000e-02
      6.37917072e-02 1.09482393e-01 0. 3.49085927e-02 2.46313140e-01
      3.33029568e-01 3.33029568e-01 1.20904371e-01 3.33029568e-01
      2.25323722e-01 2.90257007e-01 0. 1.92811549e-01 5.35795800e-02
      1.37080988e-02 1.80688411e-01 9.06782672e-02 3.33029568e-01
      1.11005537e-01 1.81825206e-01 0. 4.46626469e-02 9.55674611e-03
      6.10482227e-03 2.59291306e-02 0. 3.06931168e-01 8.71346071e-02
      3.06931168e-01 6.17424957e-02 1.58058330e-02 2.34979205e-02
      5.22267632e-02 1.85288355e-01 7.83287548e-03 3.06931168e-01
      3.21038701e-02 1.36802524e-01 4.11793105e-02 3.91206406e-02
      5.49460500e-02 6.44314010e-03 1.92803331e-02 0. 3.06931168e-01
      4.99897674e-02 3.06931168e-01 1.93618298e-01 9.24405605e-02
      1.60631731e-01 2.41553307e-01 3.06931168e-01 2.64462940e-02
      1.95622236e-01 6.07830733e-02 3.06931168e-01 1.44587561e-01
      2.54368037e-01 2.34155525e-02 1.68913722e-01 3.33644331e-01
      1.59492474e-02 3.23998220e-02 2.06994149e-03 1.55897741e-03
      8.68211442e-04 2.62655020e-02 3.18591297e-02 3.33644331e-01
      3.33644331e-01 1.78662669e-02 3.33644331e-01 8.91007856e-03
      6.33769343e-03 0. 3.18591297e-02 8.03278387e-02 3.28024238e-01
      3.33644331e-01 3.04194987e-02 3.34802903e-02 6.17534341e-03
      1.16038425e-02 5.20926667e-03 9.74275023e-02 2.00799201e-02
      2.38942713e-01 3.33644331e-01 1.39877070e-02 3.33644331e-01 0. 0.
      0. 2.00799201e-02 6.40201196e-02 2.23169237e-01 4.20841843e-01
      5.71052246e-02 4.20841843e-01 3.55876684e-02 4.04219441e-02 0.
      6.40201196e-02 1.06700202e-02 7.88235571e-04 7.75254071e-02
      4.28289101e-02 4.20841843e-01 1.68459285e-02 2.63895541e-02 0.
      1.06700202e-02 0. 7.34323338e-02 1.77899703e-01 0. 4.20841843e-01
      0. 0. 0. 0. 0. 0. 0. 0. 4.20841843e-01 0. 0. 0. 0. 2.30166003e-01
      8.60727672e-03 2.57562567e-02 0. 2.60387599e-01 4.56520766e-02
      3.30882013e-01 2.32783541e-01 2.80254275e-01 3.30882013e-01
      3.30882013e-01 3.30882013e-01 2.99867038e-02 1.66188642e-01
      6.08694330e-02 3.30882013e-01 1.79926664e-01 3.30882013e-01
      3.83610018e-02 0. 0. 0. 0. 0. 0. 0. 3.83610018e-02 8.92373249e-02
      0. 0. 0. 0. 0. 0. 0. 8.92373249e-02 1.61251843e-01 3.22457433e-01
      3.71751040e-01 2.15711296e-02 3.53803113e-02 5.71514806e-03
      1.62397474e-02 6.34251116e-03 1.82071447e-01 2.07740199e-02
      1.75276801e-01 3.71751040e-01 5.43118594e-03 3.71751040e-01 0. 0.
      0. 2.07740199e-02 2.09208112e-02 0. 0. 0. 3.08416113e-02 0. 0. 0.
      2.09208112e-02 5.47871180e-02 2.97630697e-01 3.71751040e-01
      1.16073228e-01 3.71751040e-01 0. 0. 0. 4.00917679e-02 0.
      8.33140612e-02 2.37904727e-01 0. 4.00892496e-01 0. 0. 0. 0. 0.
      1.93952899e-02 5.80379702e-02 0. 4.00892496e-01 0. 0. 0. 0.
      3.65418494e-02 3.02490860e-01 4.00892496e-01 6.41545951e-02
      4.00892496e-01 0. 0. 0. 2.21590344e-02 2.39713560e-03
      6.68238997e-02 1.79356188e-01 0. 3.89575183e-01 0. 0. 0. 0.</_>
    <_>
      0. 0. 0. 0. 0. 0. 0. 0. 0. 0. 0. 0. 0. 0. 0. 0. 0. 0.
      4.56673682e-01 1.01483196e-01 3.03676426e-01 0. 4.56673682e-01 0.
      4.56673682e-01 1.70953855e-01 4.56673682e-01 0. 0. 0. 0.
      1.71731561e-01 0. 0. 0. 0. 0. 0. 0. 0. 0. 0. 0. 0. 0. 0. 0. 0. 0.
      0. 0. 0. 0. 0. 0. 0. 0. 0. 0. 0. 0. 0. 0. 4.83770132e-01
      4.83770132e-01 4.83770132e-01 0. 1.00970522e-01 0. 2.09601089e-01
      7.00451806e-02 4.83770132e-01 0. 0. 0. 0. 0. 0. 0. 0. 0. 0. 0. 0.
      0. 0. 0. 0. 0. 0. 3.21134627e-01 3.10310543e-01 3.21134627e-01 0.
      3.21134627e-01 0. 2.87920564e-01 9.62182358e-02 3.21134627e-01
      3.11269820e-01 6.87789842e-02 2.05812946e-01 0. 3.21134627e-01 0.
      2.15940386e-01 7.21636713e-02 3.11269820e-01 8.88709947e-02
      2.67509446e-02 8.00490230e-02 0. 5.10450900e-01 0. 1.51208326e-01
      5.05312830e-02 8.88709947e-02 0. 0. 0. 0. 1.04824930e-01 0. 0. 0.
      0. 6.59906538e-03 4.53378493e-03 1.33415041e-02 0. 5.10450900e-01
      0. 5.10450900e-01 2.09832758e-01 0. 5.12036942e-02 1.04528651e-01
      2.45758727e-01 5.43335732e-03 1.54215962e-01 0. 1.05235226e-01
      2.73644291e-02 6.62230747e-03 0. 1.89557504e-02 5.67228161e-02 0.
      0. 0. 0. 0. 0. 5.07840924e-02 2.05531016e-01 4.17608798e-01 0.
      4.30322699e-02 0. 1.73657034e-02 5.80332847e-03 5.07840924e-02
      3.36330719e-02 2.67043471e-01 4.17608798e-01 6.75201789e-02
      3.05141397e-02 0. 0. 0. 9.67999268e-03 1.60774916e-01
      4.17608798e-01 4.17608798e-01 8.58189762e-02 3.37900877e-01 0.
      6.94628106e-03 2.32133106e-03 1.40013516e-01 1.20103583e-01
      1.81361824e-01 3.54507118e-01 0. 3.07405204e-01 0. 7.17258975e-02
      2.39695963e-02 1.20103583e-01 5.57659715e-02 2.66832449e-02
      7.98464194e-02 0. 3.17387193e-01 0. 5.37944250e-02 1.79771967e-02
      5.57659715e-02 1.46194384e-01 3.54507118e-01 3.54507118e-01
      1.14157489e-02 3.54507118e-01 0. 2.86903586e-02 9.58783738e-03
      1.43116310e-01 2.81914975e-02 6.63780794e-02 1.98628023e-01 0.
      3.54507118e-01 0. 2.15177648e-02 7.19087711e-03 2.81914975e-02
      2.87105516e-02 1.38836773e-02 4.11086679e-02 0. 2.78845519e-01 0.
      3.06594849e-01 2.76630282e-01 1.59241185e-02 1.31089807e-01
      1.84293285e-01 3.06594849e-01 4.00399975e-02 7.20396191e-02 0.
      2.79895693e-01 9.41170380e-02 4.18008491e-02 1.05134495e-01
      2.10562702e-02 6.26809001e-02 0. 2.01800391e-02 0. 3.06594849e-01
      2.27715030e-01 9.55446661e-02 2.50481963e-01 1.86460480e-01
      3.06594849e-01 4.72454727e-02 5.27055115e-02 0. 3.06594849e-01
      1.05602890e-01 1.79777697e-01 1.23700149e-01 3.39163184e-01
      3.39163184e-01 1.15592115e-01 1.09364480e-01 0. 5.02481544e-03
      4.07133717e-03 4.33655642e-02 2.59170443e-01 3.39163184e-01
      3.39163184e-01 1.04415216e-01 3.34443271e-01 0. 0. 0.
      2.21646339e-01 1.35604694e-01 1.91206366e-01 3.39163184e-01
      5.98406158e-02 7.59197846e-02 0. 6.69975253e-03 5.42844879e-03
      7.34137893e-02 1.31040692e-01 7.23777711e-02 1.65550247e-01
      2.38324516e-02 8.26622620e-02 0. 0. 0. 1.13490187e-01
      3.56202722e-01 3.56202722e-01 3.56202722e-01 2.86115017e-02
      3.56202722e-01 0. 0. 0. 3.56202722e-01 4.37366925e-02
      1.08305216e-01 3.24089438e-01 0. 3.56202722e-01 0. 0. 0.
      4.37366925e-02 1.98403910e-01 4.71047238e-02 1.24792725e-01
      6.16012793e-03 1.06509879e-01 0. 0. 0. 1.96961775e-01
      3.01837791e-02 1.66425351e-02 4.98006307e-02 0. 4.28838916e-02 0.
      0. 0. 3.01837791e-02</_>
    <_>
      1.22160241e-01 4.07229289e-02 1.21858403e-01 0. 2.35887319e-01 0.
      7.87038505e-02 2.63015106e-02 1.22160241e-01 6.91667199e-02
      2.03614738e-02 6.09291941e-02 0. 1.45403996e-01 0. 5.90278842e-02
      1.97261330e-02 6.91667199e-02 1.62880301e-01 2.08941072e-01
      4.06564146e-01 0. 4.06564146e-01 0. 1.96759656e-01 6.57537803e-02
      1.62880301e-01 9.22222733e-02 1.31253988e-01 3.92760813e-01 0.
      4.06564146e-01 0. 1.47569716e-01 4.93153371e-02 9.22222733e-02 0.
      0. 0. 0. 3.58292937e-01 0. 0. 0. 0. 0. 0. 0. 0. 0. 0. 0. 0. 0. 0.
      0. 0. 0. 5.16025007e-01 0. 0. 0. 0. 0. 2.12104365e-01
      5.16025007e-01 1.50462329e-01 5.16025007e-01 0. 0. 0. 0.
      5.49968407e-02 1.73877012e-02 1.50876027e-02 4.33848379e-03
      2.14488164e-01 3.80376820e-03 3.08628045e-02 8.02031439e-03
      2.45470777e-02 1.47448316e-01 3.75869125e-02 2.01167986e-02
      1.08462106e-02 4.63502079e-01 2.28225980e-02 1.85176730e-01
      4.81218696e-02 7.13238940e-02 4.03671116e-02 8.89764875e-02
      2.56495416e-01 2.86198445e-02 4.63502079e-01 5.07169031e-03
      3.11481152e-02 6.01523556e-03 1.75297875e-02 9.59041491e-02
      1.17370605e-01 2.89129883e-01 1.05065390e-01 4.63502079e-01
      3.04301288e-02 1.86888620e-01 3.60913984e-02 3.88108343e-02
      1.19336788e-02 5.24909198e-02 2.29248852e-01 7.55990483e-03
      3.77155870e-01 0. 2.55276039e-02 8.53089988e-03 1.19336788e-02
      6.75680814e-03 3.60660665e-02 1.19952455e-01 1.25998375e-03
      3.77155870e-01 0. 1.91457029e-02 6.39817398e-03 6.75680814e-03
      8.38716552e-02 0. 2.57918894e-01 2.70149168e-02 3.77155870e-01
      1.34441713e-02 2.41884470e-01 3.79394181e-02 8.38716552e-02
      2.54240155e-01 7.38264695e-02 2.63903201e-01 4.50248597e-03
      3.77155870e-01 2.24069506e-03 9.10582617e-02 2.32810825e-02
      2.54240155e-01 1.22245857e-02 4.87487111e-03 1.45874731e-02 0.
      1.04929600e-02 0. 0. 0. 1.22245857e-02 3.85621712e-02
      1.57675594e-01 3.29263836e-01 2.30546333e-02 4.19885553e-02 0. 0.
      0. 3.85621712e-02 2.86210209e-01 2.20200077e-01 3.96067142e-01 0.
      0. 0. 0. 0. 2.86210209e-01 2.94079691e-01 3.96067142e-01
      3.96067142e-01 3.07395328e-02 3.72888823e-03 0. 0. 0.
      2.94079691e-01 3.86499725e-02 1.74216405e-01 3.26896876e-01
      4.42057475e-02 2.96541274e-01 3.77926655e-04 1.36276800e-03 0.
      3.86499725e-02 4.20760885e-02 9.82383341e-02 3.18003505e-01
      1.03790857e-01 3.26896876e-01 2.26755929e-03 8.17660615e-03 0.
      4.20760885e-02 9.48158056e-02 2.99309164e-01 3.26896876e-01
      4.47392948e-02 2.95859575e-01 0. 0. 0. 9.48158056e-02
      4.74855863e-02 9.68281403e-02 3.26896876e-01 5.51889725e-02
      3.26896876e-01 0. 0. 0. 4.74855863e-02 2.62480170e-01 0.
      1.07718930e-01 1.12826871e-02 3.03480119e-01 2.86142863e-02
      3.03480119e-01 8.18982273e-02 2.62480170e-01 3.03480119e-01
      1.38268918e-01 3.03480119e-01 1.88044761e-03 2.56845564e-01
      4.76904726e-03 1.83824241e-01 4.62150685e-02 3.03480119e-01
      1.49300486e-01 0. 0. 0. 2.91499123e-02 8.14369973e-03
      1.48935318e-01 2.37887725e-02 1.49300486e-01 2.97062427e-01
      3.34565975e-02 1.00114658e-01 0. 6.27604593e-03 1.35728321e-03
      4.81431372e-02 1.17581375e-02 2.97062427e-01 3.50515872e-01
      2.99476236e-01 3.50515872e-01 0. 0. 0. 0. 0. 3.50515872e-01
      3.02387387e-01 3.50515872e-01 3.50515872e-01 5.42957988e-03 0. 0.
      0. 0. 3.02387387e-01 1.67095676e-01 5.64109161e-02 1.68802500e-01
      0. 0. 0. 0. 0. 1.67095676e-01 5.93742244e-02 3.30184773e-02
      9.88036022e-02 0. 6.46339655e-02 0. 0. 0. 5.93742244e-02
      7.77374581e-02 1.48866281e-01 3.64035577e-01 9.94197000e-03
      3.64035577e-01 0. 0. 0. 7.77374581e-02 1.14949141e-02
      3.29180285e-02 1.29286855e-01 8.73088371e-03 3.64035577e-01 0. 0.
      0. 1.14949141e-02 5.92681160e-03 1.10653460e-01 3.31116885e-01 0.
      3.64035577e-01 0. 0. 0. 5.92681160e-03 0. 1.63687065e-01
      3.64035577e-01 0. 3.64035577e-01 0. 0. 0. 0.</_>
    <_>
      0. 0. 0. 0. 0. 0. 0. 0. 0. 0. 0. 0. 0. 0. 0. 0. 0. 0.
      3.31441492e-01 1.87494755e-01 2.51393437e-01 0. 3.31441492e-01
      4.01516557e-02 3.31441492e-01 0. 3.31441492e-01 3.31441492e-01
      1.33774877e-01 3.31441492e-01 0. 3.31441492e-01 0. 0. 0.
      3.31441492e-01 0. 0. 0. 0. 0. 0. 0. 0. 0. 0. 0. 0. 0. 0. 0. 0. 0.
      0. 3.92639220e-01 8.45044926e-02 2.52869666e-01 0. 3.92639220e-01
      0. 0. 0. 3.92639220e-01 3.92639220e-01 0. 0. 0. 3.92639220e-01 0.
      0. 0. 3.92639220e-01 0. 0. 0. 0. 0. 0. 0. 0. 0. 0. 0. 0. 0. 0. 0.
      0. 0. 0. 4.07416642e-01 0. 0. 0. 4.07416642e-01 0. 0. 0.
      4.07416642e-01 4.07416642e-01 0. 0. 0. 4.07416642e-01 0. 0. 0.
      4.07416642e-01 3.77521515e-02 3.73440534e-02 7.72810578e-02 0.
      3.66737217e-01 1.99263021e-02 4.26674187e-02 0. 3.77521515e-02
      8.32123458e-02 5.18251620e-02 1.55080661e-01 0. 3.66737217e-01 0.
      0. 0. 8.32123458e-02 1.02273360e-01 1.59462497e-01 3.66737217e-01
      0. 3.66737217e-01 5.79914115e-02 1.22468427e-01 3.38326171e-02
      1.02273360e-01 1.38379723e-01 1.79409474e-01 3.66737217e-01 0.
      3.66737217e-01 0. 0. 0. 1.38379723e-01 1.02023885e-01
      3.44181210e-02 1.02992147e-01 0. 4.40154284e-01 0. 0. 0.
      1.02023885e-01 4.51062880e-02 6.32628892e-03 1.89306699e-02
      1.81392103e-03 2.72310883e-01 0. 0. 0. 4.51062880e-02
      1.11252479e-01 6.65424913e-02 1.96630731e-01 0. 4.40154284e-01 0.
      0. 0. 1.11252479e-01 1.28373662e-02 2.03052714e-01 4.40154284e-01
      4.53480240e-03 4.40154284e-01 0. 0. 0. 1.28373662e-02
      1.13155276e-01 8.96228012e-03 2.68185604e-02 2.56973179e-03
      3.84946793e-01 0. 0. 0. 1.13155276e-01 8.48664567e-02
      3.58491112e-03 1.07274214e-02 1.02789269e-03 3.84946793e-01 0. 0.
      0. 8.48664567e-02 3.22042853e-02 2.63777554e-01 3.84946793e-01
      6.42432971e-03 3.84946793e-01 0. 0. 0. 3.22042853e-02
      2.41532121e-02 1.16931334e-01 3.57415468e-01 2.56973179e-03
      3.84946793e-01 0. 0. 0. 2.41532121e-02 2.18142152e-01
      1.62469625e-01 3.15536946e-01 0. 3.15536946e-01 2.02727430e-02
      1.56207249e-01 5.02302609e-02 2.18142152e-01 1.57283545e-01
      1.54698536e-01 3.15536946e-01 0. 3.15536946e-01 0. 6.21830449e-02
      2.07805187e-02 1.57283545e-01 1.29044190e-01 2.98051517e-02
      8.69562179e-02 0. 1.54758647e-01 0. 5.18115647e-02 1.69859398e-02
      1.29044190e-01 2.65257418e-01 2.78010760e-02 7.87200406e-02 0.
      3.15536946e-01 0. 2.24540576e-01 7.50376135e-02 2.65257418e-01
      8.17564055e-02 3.43163833e-02 1.00071833e-01 0. 3.12939823e-01 0.
      3.93365510e-02 1.31456098e-02 8.17564055e-02 6.00502379e-02
      2.32583970e-01 3.12939823e-01 3.91404988e-04 1.86612949e-01 0. 0.
      0. 6.00502379e-02 3.12939823e-01 6.33599013e-02 1.88369572e-01 0.
      2.40296468e-01 0. 1.26976773e-01 4.24334779e-02 3.12939823e-01
      2.88569123e-01 3.12939823e-01 3.12939823e-01 0. 7.18678683e-02 0.
      0. 0. 2.88569123e-01 2.05400400e-02 3.72519851e-01 3.72519851e-01
      1.38047244e-03 3.72519851e-01 0. 0. 0. 2.05400400e-02 0.
      1.21792756e-01 3.69511783e-01 5.52188954e-04 3.31741244e-01 0. 0.
      0. 0. 9.85855982e-02 3.22377503e-01 3.72519851e-01 0.
      1.87040776e-01 0. 0. 0. 9.85855982e-02 0. 3.90391126e-02
      1.16819493e-01 0. 7.35039338e-02 0. 0. 0. 0.</_>
    <_>
      6.48394078e-02 0. 0. 0. 0. 0. 0. 0. 6.48394078e-02 0. 0. 0. 0. 0.
      0. 0. 0. 0. 3.89036298e-01 3.42657954e-01 4.19314623e-01
      7.03706816e-02 4.19314623e-01 1.30941495e-02 0. 0. 3.89036298e-01
      6.96270987e-02 5.01107424e-02 1.49950460e-01 0. 4.19314623e-01 0.
      0. 0. 6.96270987e-02 0. 0. 0. 0. 0. 0. 0. 0. 0. 0. 0. 0. 0. 0. 0.
      0. 0. 0. 3.26173365e-01 1.10796161e-01 3.31544369e-01 0.
      3.49934131e-01 0. 1.95348814e-01 6.52823076e-02 3.26173365e-01
      3.49934131e-01 7.35649988e-02 2.20134556e-01 0. 3.49934131e-01 0.
      2.60465026e-01 8.70430693e-02 3.49934131e-01 0. 0. 0. 0. 0. 0. 0.
      0. 0. 0. 0. 0. 0. 0. 0. 0. 0. 0. 4.03080702e-01 0. 0. 0.
      4.03080702e-01 0. 1.71180651e-01 5.72057106e-02 4.03080702e-01
      3.95917803e-01 0. 0. 0. 4.03080702e-01 0. 0. 0. 3.95917803e-01
      2.83177905e-02 5.10355122e-02 1.52043432e-01 1.98005121e-02
      3.43362302e-01 5.29238349e-03 1.80784203e-02 6.04149047e-03
      2.83177905e-02 2.09207814e-02 7.78333992e-02 2.29436442e-01 0.
      1.84768289e-01 2.82046356e-04 0. 0. 2.09207814e-02 1.65448636e-01
      4.75591719e-02 1.50260180e-01 7.66177196e-03 3.43362302e-01
      2.11695326e-03 3.43362302e-01 1.33917972e-01 1.56675026e-01
      2.43016541e-01 3.43362302e-01 3.43362302e-01 0. 2.90431291e-01
      1.69227761e-03 1.22729409e-02 4.10141191e-03 2.16616526e-01
      7.46334791e-02 9.87155661e-02 2.90157586e-01 0. 3.45255226e-01
      7.53615284e-04 4.53001224e-02 1.51385423e-02 7.46334791e-02
      7.96947852e-02 4.08311225e-02 1.20087467e-01 0. 3.45255226e-01
      5.65211463e-04 6.04001507e-02 2.01847199e-02 7.96947852e-02
      9.24734250e-02 2.74457008e-01 3.45255226e-01 0. 3.45255226e-01
      9.90854483e-03 3.01564392e-02 1.00777699e-02 9.35880765e-02
      6.28394037e-02 1.84181780e-01 3.45255226e-01 4.48230281e-02
      3.45255226e-01 1.68584045e-02 5.48784547e-02 1.83394533e-02
      6.22865260e-02 1.07806467e-01 8.32032878e-03 2.48975959e-02 0.
      3.64706516e-01 0. 1.55268256e-02 5.18880552e-03 1.07806467e-01
      7.60389417e-02 3.32813035e-03 9.95903648e-03 0. 3.58321309e-01 0.
      0. 0. 7.60389417e-02 6.77354708e-02 3.64706516e-01 3.64706516e-01
      6.39809594e-02 3.64706516e-01 6.13039220e-03 2.03361697e-02
      6.79600565e-03 5.84854595e-02 4.22955006e-02 1.33834958e-01
      3.64706516e-01 0. 3.64706516e-01 0. 0. 0. 4.14869152e-02
      3.15231949e-01 5.61994947e-02 1.59406886e-01 7.10232882e-04
      1.53138652e-01 0. 3.15231949e-01 1.65980488e-01 3.15231949e-01
      3.15231949e-01 3.15231949e-01 3.15231949e-01 0. 1.49585322e-01
      7.56070833e-04 1.71939656e-02 5.74593619e-03 3.15231949e-01
      2.05537096e-01 1.00173280e-02 2.85150725e-02 0. 4.49040113e-03 0.
      1.00140385e-01 3.34651880e-02 1.97799057e-01 2.03705311e-01
      6.33720085e-02 1.61413789e-01 0. 1.85546950e-02 0. 2.86566070e-03
      9.57655895e-04 1.83317453e-01 1.58217594e-01 2.87506938e-01
      3.14499885e-01 0. 3.14499885e-01 2.03207899e-02 1.15516104e-01
      3.86034958e-02 1.65909588e-01 1.98635221e-01 3.14499885e-01
      3.14499885e-01 1.43228292e-01 3.14499885e-01 4.53760773e-02
      2.09876761e-01 7.01372325e-02 1.96530178e-01 9.04892832e-02
      4.33703549e-02 9.02984217e-02 0. 9.39221010e-02 7.69854477e-03
      6.98804855e-02 2.33528465e-02 9.46098641e-02 2.01210290e-01
      1.18871979e-01 1.90629989e-01 6.39983937e-02 1.01648435e-01
      1.92463640e-02 1.15516096e-01 3.86034884e-02 2.00368255e-01
      1.32916674e-01 3.84569496e-01 3.84569496e-01 1.69214383e-01
      3.84528011e-01 1.62200425e-02 6.42838627e-02 2.14825794e-02
      1.03766650e-01 2.54814257e-03 1.95131198e-01 3.84569496e-01 0.
      2.86193103e-01 0. 0. 0. 0. 1.40692994e-01 1.94600075e-01
      3.65514964e-01 7.56096840e-02 1.67966988e-02 7.25137815e-03
      3.24296057e-02 1.08374199e-02 1.29032984e-01 1.01925700e-03
      3.69277373e-02 7.87488595e-02 0. 0. 0. 0. 0. 0.</_>
    <_>
      8.63286108e-02 0. 0. 0. 2.15406194e-01 0. 0. 0. 8.63286108e-02
      2.27847300e-03 0. 0. 0. 0. 0. 0. 0. 2.27847300e-03 1.59047514e-01
      4.82629873e-02 1.65836617e-01 0. 4.15215403e-01 0. 0. 0.
      1.62467852e-01 4.15215403e-01 2.91826934e-01 4.15215403e-01 0.
      3.80819440e-01 0. 1.93061307e-01 1.91923305e-02 2.60719478e-01
      5.91926696e-03 0. 0. 0. 0. 0. 0. 0. 5.91926696e-03 9.86544415e-04
      0. 0. 0. 0. 0. 0. 0. 9.86544415e-04 3.88075858e-01 2.75508761e-01
      3.88075858e-01 0. 3.88075858e-01 0. 3.88075858e-01 4.98599373e-02
      3.88075858e-01 5.91006204e-02 0. 0. 0. 3.88075858e-01 0.
      8.35926309e-02 8.30999017e-03 5.91006204e-02 0. 0. 0. 0. 0. 0. 0.
      0. 0. 4.24082950e-02 4.07280847e-02 1.21873967e-01 0.
      7.51839904e-03 0. 0. 0. 4.24082950e-02 0. 8.63033608e-02
      2.58252531e-01 0. 0. 0. 0. 0. 0. 1.98481575e-01 6.47249162e-01
      6.47249162e-01 8.84412080e-02 1.87960006e-02 0. 0. 0.
      1.17460325e-01 1.86573211e-02 6.09460957e-02 1.91737890e-01 0.
      3.25036228e-01 0. 9.87599138e-03 3.30039137e-03 2.13056672e-02
      1.07573234e-01 1.51027068e-01 3.25036228e-01 0. 3.25036228e-01 0.
      4.76720147e-02 4.73910104e-03 9.11455378e-02 1.34523675e-01
      2.01171502e-01 3.25036228e-01 0. 2.97877789e-01 0. 1.70442641e-01
      5.69589883e-02 1.36509940e-01 7.87414163e-02 2.37880290e-01
      3.25036228e-01 0. 3.25036228e-01 4.16303165e-02 7.29433224e-02
      1.41844219e-02 9.06589851e-02 1.22612126e-01 8.21316391e-02
      2.54865974e-01 0. 4.29413289e-01 0. 1.02862768e-01 1.02256434e-02
      9.41669792e-02 6.54642284e-03 2.24008616e-02 6.70319051e-02 0.
      1.99433014e-01 0. 1.71437915e-02 1.70427375e-03 6.54642284e-03
      4.49892431e-02 7.91441724e-02 2.09972128e-01 1.64177679e-02
      4.29413289e-01 5.07266410e-02 1.01708740e-01 1.98184066e-02
      4.95944880e-02 2.21152157e-02 3.28029662e-01 4.29413289e-01
      4.10444178e-02 3.35737318e-01 0. 1.09474529e-02 2.98764068e-03
      6.46990025e-03 0. 1.13765746e-01 3.40430170e-01 0. 0. 0. 0. 0. 0.
      1.62922200e-02 3.77079308e-01 3.95158917e-01 1.92861930e-02
      7.38163246e-04 0. 0. 0. 6.31470140e-03 3.88280628e-03
      3.79521042e-01 3.95158917e-01 6.21017907e-03 5.25857788e-04 0. 0.
      0. 0. 0. 3.34362537e-01 3.95158917e-01 3.21436534e-03 0. 0. 0. 0.
      0. 2.55833030e-01 2.10276425e-01 3.26137871e-01 0. 1.50390178e-01
      0. 3.08133274e-01 1.02972783e-01 2.55833030e-01 9.54680145e-02
      1.89480022e-01 3.26137871e-01 0. 3.26137871e-01 1.74980745e-01
      3.26137871e-01 1.06082000e-01 1.19274057e-01 4.75929044e-02
      1.19740404e-02 3.58307548e-02 0. 7.58008054e-03 0. 3.45534645e-02
      1.15471613e-02 4.75929044e-02 6.49414882e-02 6.77966094e-03
      2.02872511e-02 0. 2.16400087e-01 8.39223340e-02 2.79653251e-01
      9.91997942e-02 1.13768555e-01 8.55959728e-02 7.53258169e-02
      1.44680604e-01 5.21511137e-02 3.25240701e-01 8.70798975e-02
      2.91199356e-01 1.12017371e-01 1.11534990e-01 1.13749921e-01
      3.25240701e-01 3.25240701e-01 1.18981563e-01 1.52509481e-01 0.
      6.97398186e-02 4.51663435e-02 8.14418495e-02 1.54311836e-01
      5.46736009e-02 1.37193114e-01 5.13707101e-02 1.37312964e-01
      4.17643040e-02 3.15657645e-01 1.45541877e-01 2.11118340e-01
      1.65048450e-01 2.01936901e-01 3.25240701e-01 9.99362096e-02
      2.33946033e-02 0. 1.15715943e-01 7.26946071e-02 1.55657008e-01
      5.11013307e-02 4.74429667e-01 4.74429667e-01 5.51083200e-02
      3.39282607e-03 0. 0. 0. 8.46670382e-03 0. 2.20103487e-01
      4.74429667e-01 0. 0. 0. 0. 0. 0. 5.20396158e-02 1.87717184e-01
      4.74429667e-01 4.17100564e-02 1.63450243e-03 0. 0. 0.
      2.00636499e-02 0. 8.13880190e-03 2.43543051e-02 0. 0. 0. 0. 0. 0.</_>
    <_>
      1.72499157e-02 0. 0. 0. 0. 0. 0. 0. 1.72499157e-02 4.11207825e-02
      7.49032870e-02 2.24139214e-01 0. 2.49116533e-02 0. 0. 0.
      4.11207825e-02 2.03422710e-01 3.34307477e-02 1.00037515e-01
      1.95340756e-02 4.19612259e-01 0. 0. 0. 2.03422710e-01
      3.07123214e-01 4.19612259e-01 4.19612259e-01 1.17204405e-01
      4.19612259e-01 1.87074412e-02 4.02815305e-02 5.74270124e-03
      1.63489014e-01 8.24398324e-02 6.94001392e-02 2.07671687e-01 0.
      1.54225379e-01 0. 0. 0. 8.24398324e-02 5.83458059e-02
      2.50730105e-02 7.88930133e-02 5.71033545e-03 1.86632633e-01 0. 0.
      0. 5.83458059e-02 2.53648907e-01 3.25540870e-01 3.29984099e-01
      2.80849170e-02 3.29984099e-01 4.40774746e-02 2.45142519e-01
      6.37361109e-02 1.92701489e-01 1.11580148e-01 2.01837942e-01
      3.29984099e-01 3.78723219e-02 3.29984099e-01 3.30581032e-02
      2.83553064e-01 8.11188892e-02 1.01299785e-01 8.29642173e-03
      1.01621956e-01 2.83366889e-01 1.71188936e-02 9.46034864e-02 0. 0.
      0. 6.20340277e-03 8.51861089e-02 2.56500959e-01 3.46024722e-01
      2.65785400e-02 3.11740726e-01 0. 0. 0. 7.26279989e-02
      1.84350796e-02 3.46024722e-01 3.46024722e-01 7.22533986e-02
      2.25983724e-01 0. 2.28371639e-02 7.63179921e-03 0. 1.20623913e-02
      3.46024722e-01 3.46024722e-01 4.40629311e-02 2.49789044e-01 0. 0.
      0. 0. 7.74310827e-02 8.78884122e-02 2.62995303e-01 1.02444990e-02
      3.33445728e-01 1.13832662e-02 1.74922980e-02 5.84561890e-03
      7.74310827e-02 1.45858154e-01 3.25679809e-01 3.33445728e-01
      4.34189960e-02 2.91280508e-01 2.73973066e-02 3.69866453e-02
      7.44716823e-03 5.44316359e-02 1.44597709e-01 1.19985744e-01
      3.33445728e-01 1.93371121e-02 3.33445728e-01 1.51776876e-02
      1.04953744e-01 3.50736976e-02 1.44597709e-01 6.70379624e-02
      1.88470602e-01 3.33445728e-01 7.73484446e-03 1.37996256e-01
      1.92449540e-02 2.76903510e-02 8.43477622e-03 5.18002138e-02
      1.27795517e-01 1.62075341e-01 2.82630295e-01 1.41426343e-02
      2.82630295e-01 7.54024759e-02 2.82630295e-01 8.58435780e-02
      7.34478757e-02 1.00735277e-01 2.49779463e-01 2.82630295e-01
      1.54440515e-02 2.82630295e-01 5.65518551e-02 2.82630295e-01
      1.18898928e-01 9.15681198e-02 5.72552197e-02 4.48195711e-02
      1.34116858e-01 0. 1.04461811e-01 4.34837714e-02 2.03114837e-01
      6.51746020e-02 4.81972732e-02 1.67995393e-01 1.87174872e-01
      2.82630295e-01 2.28034030e-03 1.07426591e-01 3.26128229e-02
      2.82630295e-01 1.04452856e-01 1.66467547e-01 7.86085352e-02
      4.13686007e-01 4.13686007e-01 8.16819966e-02 2.48129338e-01 0.
      9.21488479e-02 3.07945795e-02 4.10284214e-02 1.50320446e-02
      2.64525741e-01 4.13686007e-01 4.91534583e-02 1.48560971e-01 0. 0.
      0. 0. 1.03215024e-01 2.90080786e-01 4.13686007e-01 1.65535696e-02
      4.73186262e-02 0. 9.53018516e-02 3.18482257e-02 9.69516635e-02
      2.50534061e-03 3.80858779e-02 1.10445343e-01 1.24151772e-02
      2.18055304e-02 0. 0. 0. 0. 3.55347842e-01 2.09497720e-01
      3.55347842e-01 6.93660080e-02 3.55347842e-01 1.73629764e-02
      3.55347842e-01 1.25816241e-01 3.55347842e-01 2.14795694e-01
      2.12356672e-01 3.55347842e-01 2.77463999e-02 1.77257210e-01
      6.94518909e-03 6.27482757e-02 2.09693722e-02 2.14795694e-01 0. 0.
      0. 0. 0. 0. 0. 0. 0. 0. 0. 0. 0. 0. 0. 0. 0. 0. 2.16639802e-01
      4.61609028e-02 1.38130486e-01 0. 1.21423416e-01 0. 3.66022855e-01
      1.48735225e-01 2.16639802e-01 3.66022855e-01 3.21702510e-01
      3.66022855e-01 0. 8.98765326e-02 0. 3.66022855e-01 2.50931978e-01
      3.66022855e-01 0. 0. 0. 0. 0. 0. 0. 0. 0. 0. 0. 0. 0. 0. 0. 0. 0.
      0. 4.57813174e-01 4.57813174e-01 4.57813174e-01 0. 0. 0.
      3.70708406e-01 1.23884238e-01 4.57813174e-01 0. 2.07438916e-02
      6.20733947e-02 0. 0. 0. 0. 0. 0. 0. 0. 0. 0. 0. 0. 0. 0. 0. 0. 0.
      0. 0. 0. 0. 0. 0. 0.</_>
    <_>
      3.25794891e-02 0. 0. 0. 0. 0. 0. 0. 3.25794891e-02 5.42991422e-03
      0. 0. 0. 0. 0. 0. 0. 5.42991422e-03 3.80390495e-01 1.51220700e-02
      4.52510007e-02 0. 3.80390495e-01 0. 0. 0. 3.80390495e-01
      3.34507167e-01 1.47869930e-01 3.80390495e-01 0. 3.80390495e-01 0.
      1.42585948e-01 4.76498455e-02 3.34507167e-01 0. 0. 0. 0. 0. 0. 0.
      0. 0. 0. 9.32069197e-02 1.03910372e-01 2.66221631e-03
      8.58972371e-02 0. 0. 0. 0. 3.48396271e-01 1.10949285e-01
      3.32002610e-01 0. 3.15295279e-01 0. 3.03837478e-01 1.01537414e-01
      3.48396271e-01 2.71959957e-02 3.62489104e-01 3.62489104e-01
      1.59732942e-02 3.62489104e-01 0. 7.49501586e-02 2.50470918e-02
      2.71959957e-02 6.53831810e-02 1.22581616e-01 1.37160510e-01
      4.85595316e-02 1.28412053e-01 0. 0. 0. 6.53831810e-02
      8.71775597e-02 9.25682709e-02 1.05772704e-01 6.26927242e-02
      1.84132352e-01 0. 0. 0. 8.71775597e-02 6.99565113e-02
      3.47989589e-01 3.47989589e-01 2.28679404e-01 3.47989589e-01 0. 0.
      0. 6.99565113e-02 9.32753384e-02 3.03185701e-01 3.47989589e-01
      2.92586029e-01 3.47989589e-01 0. 0. 0. 9.32753384e-02
      7.58301765e-02 2.59091072e-02 7.75298774e-02 3.83561652e-04
      2.62164026e-01 0. 4.18383181e-02 1.39816562e-02 7.19101876e-02
      1.76454037e-01 1.16969161e-01 2.62164026e-01 2.30136910e-03
      2.62164026e-01 1.59519841e-03 1.70789406e-01 5.91155589e-02
      1.66654080e-01 1.78791836e-01 8.73491541e-02 2.61381358e-01
      2.30136910e-03 2.62164026e-01 0. 2.62164026e-01 9.84838307e-02
      1.68991849e-01 2.62164026e-01 1.82196066e-01 2.62164026e-01
      1.38082094e-02 2.62164026e-01 3.98799637e-03 2.62164026e-01
      1.28822237e-01 2.40461677e-01 1.15161344e-01 5.42666875e-02
      1.62386537e-01 9.85626597e-04 1.94160029e-01 6.71759667e-03
      2.73544461e-01 9.58812907e-02 1.12791151e-01 2.15862859e-02
      9.41271186e-02 2.73544461e-01 9.18932550e-04 2.73544461e-01
      5.03819715e-03 9.36561525e-02 2.89967973e-02 2.15862859e-02
      1.51607275e-01 9.46197063e-02 2.73544461e-01 5.91375632e-03
      2.73544461e-01 1.67939942e-02 2.73544461e-01 2.16089591e-01
      1.45681813e-01 1.43988773e-01 2.64895260e-01 2.73544461e-01 0.
      2.73544461e-01 1.25954943e-02 2.39516899e-01 8.74825642e-02
      1.43988773e-01 1.71906203e-02 3.09707314e-01 3.46747667e-01
      8.01459327e-02 3.46747667e-01 0. 0. 0. 1.71906203e-02
      6.44413801e-03 1.39448985e-01 3.46747667e-01 1.02956392e-01
      2.94768006e-01 0. 0. 0. 6.44413801e-03 1.07730120e-01
      3.17354798e-01 3.46747667e-01 0. 3.46747667e-01 0. 0. 0.
      1.07730120e-01 9.99213662e-03 4.29739133e-02 1.28593922e-01 0.
      1.81402728e-01 0. 0. 0. 9.99213662e-03 2.95628399e-01
      1.56547785e-01 2.95628399e-01 3.69898090e-03 2.40840793e-01 0.
      2.95628399e-01 2.01617360e-01 2.95628399e-01 2.95628399e-01
      2.19861835e-01 2.95628399e-01 2.21938752e-02 2.95628399e-01
      3.61978053e-03 2.95628399e-01 1.83630764e-01 2.95628399e-01
      3.58315222e-02 0. 0. 0. 0. 0. 0. 0. 3.58315222e-02 3.02890744e-02
      0. 0. 0. 1.59708578e-02 0. 8.64427444e-03 2.88876472e-03
      3.02890744e-02 2.49556676e-01 1.03757329e-01 3.10480803e-01
      6.02596346e-03 3.01654726e-01 9.66381747e-03 3.10634136e-01
      2.08641917e-01 2.46146977e-01 3.10634136e-01 3.10634136e-01
      3.10634136e-01 0. 2.04001561e-01 7.24786287e-03 2.66356021e-01
      1.03324905e-01 3.10634136e-01 6.09114282e-02 5.56195853e-03
      1.66434385e-02 0. 2.40783263e-02 0. 2.30778307e-02 7.71220587e-03
      6.09114282e-02 8.12152252e-02 1.98753644e-02 5.94744496e-02 0.
      9.63132922e-03 0. 1.73083711e-02 5.78415347e-03 8.12152252e-02
      4.06760633e-01 4.53062296e-01 4.53062296e-01 0. 4.53062296e-01 0.
      0. 0. 4.06760633e-01 3.83194499e-02 2.60101166e-02 7.78318867e-02
      0. 1.70945421e-01 0. 0. 0. 3.83194499e-02 4.36435454e-02
      2.46876758e-02 7.38746524e-02 0. 0. 0. 0. 0. 4.36435454e-02 0. 0.
      0. 0. 0. 0. 0. 0. 0.</_>
    <_>
      1.99394915e-02 9.34110954e-02 1.78214446e-01 1.81094687e-02
      4.16013226e-03 0. 0. 0. 1.84884891e-02 1.26588255e-01
      2.89051920e-01 3.83735955e-01 2.63192877e-02 2.49607824e-02 0. 0.
      0. 1.26346424e-01 1.20571904e-01 3.83735955e-01 3.83735955e-01
      8.74150991e-02 1.31562114e-01 0. 0. 0. 9.87728760e-02
      1.51403949e-01 3.83735955e-01 3.83735955e-01 9.59228426e-02
      5.05095534e-02 0. 0. 0. 1.32495582e-01 1.35984614e-01
      1.73617050e-01 3.74368668e-01 3.00172227e-03 1.44986406e-01
      7.73433689e-03 8.99166688e-02 2.57754941e-02 1.35984614e-01
      9.63702649e-02 6.51536360e-02 1.94964305e-01 0. 3.74368668e-01
      4.64060009e-02 2.66824067e-01 6.35293722e-02 9.63702649e-02
      8.16663951e-02 1.44473419e-01 3.74368668e-01 1.60027202e-02
      3.74368668e-01 5.01949480e-03 4.02281545e-02 1.27313659e-02
      8.00400674e-02 2.32513621e-02 2.76480392e-02 9.97239128e-02
      5.09904698e-02 3.74368668e-01 3.01169548e-02 9.12380889e-02
      2.62170937e-02 2.32513621e-02 6.19886965e-02 1.16744870e-02
      3.49345170e-02 0. 6.23890102e-01 9.16190296e-02 4.00621772e-01
      8.32627267e-02 6.19886965e-02 0. 0. 0. 0. 0. 0. 0. 0. 0.
      6.73651276e-03 1.94574764e-03 3.93669046e-02 1.00670099e-01
      6.23890102e-01 5.94596714e-02 1.18883617e-01 3.12925093e-02
      6.73651276e-03 0. 0. 0. 0. 0. 0. 0. 0. 0. 2.07949370e-01
      3.23759168e-01 3.23759168e-01 5.77962622e-02 2.36142874e-01 0. 0.
      0. 1.85677171e-01 8.60270485e-02 2.94657141e-01 3.23759168e-01
      5.40736318e-02 2.87186932e-02 0. 0. 0. 6.34242967e-02
      3.23759168e-01 2.26497445e-02 4.64401692e-02 0. 1.16470799e-01 0.
      5.72747625e-02 1.91402230e-02 3.23759168e-01 3.23759168e-01
      4.27187644e-02 3.81853804e-02 0. 3.14932913e-02 0. 5.08641405e-03
      4.96421708e-03 3.23759168e-01 1.54469963e-02 2.64878608e-02
      9.34284180e-02 2.89721880e-02 3.88728946e-01 0. 0. 0.
      1.37969470e-02 1.95499882e-03 5.64675662e-04 1.83132857e-01
      1.37445167e-01 3.88728946e-01 0. 0. 0. 1.95499882e-03
      1.76147029e-01 6.20891787e-02 2.08081201e-01 7.79630169e-02
      3.74527633e-01 0. 1.19537851e-02 1.16873467e-02 1.82240322e-01
      1.43392935e-01 5.62251881e-02 3.86067897e-01 1.43013418e-01
      3.88728946e-01 0. 7.17226788e-02 2.97379643e-02 1.49588645e-01 0.
      0. 1.78990528e-01 1.37026399e-01 3.82024229e-01 0. 0. 0. 0. 0. 0.
      0. 0. 0. 0. 0. 0. 0. 3.82024229e-01 1.34469448e-02 2.38201678e-01
      8.21081772e-02 3.82024229e-01 0. 7.37835020e-02 2.46572141e-02
      3.82024229e-01 3.82024229e-01 0. 0. 0. 0. 0. 0. 0. 3.82024229e-01
      2.88393587e-01 1.25867622e-02 0. 0. 1.00090995e-01 1.91326533e-02
      1.72893628e-01 5.77780232e-02 2.88393587e-01 2.88393587e-01
      6.35069385e-02 3.17885429e-02 0. 6.71762750e-02 4.78316359e-02
      1.25492185e-01 4.76999320e-02 2.88393587e-01 2.05845371e-01
      9.44007095e-03 0. 0. 1.11090861e-01 2.55102012e-02 2.83267558e-01
      9.46630687e-02 2.04750791e-01 2.88393587e-01 5.04190996e-02
      3.21868546e-02 3.62724648e-03 2.88393587e-01 9.27972570e-02
      2.88393587e-01 2.43577734e-01 2.88393587e-01 2.56209850e-01
      1.24482565e-01 2.15240270e-01 5.81129342e-02 2.11663172e-01
      1.15372194e-02 3.91974263e-02 3.73008028e-02 2.56209850e-01
      2.39138931e-01 9.24748406e-02 2.47099936e-01 7.83127472e-02
      2.56209850e-01 0. 7.19602928e-02 4.21991944e-02 2.56209850e-01
      1.91861346e-01 1.13392107e-01 2.56209850e-01 3.37554514e-02
      2.56209850e-01 3.73335481e-02 2.56209850e-01 1.30483314e-01
      2.00628132e-01 1.22636840e-01 8.92305672e-02 2.56209850e-01
      3.69780548e-02 2.56209850e-01 0. 2.28695218e-02 2.20128782e-02
      1.37256086e-01 3.45809102e-01 1.75369792e-02 6.86215833e-02
      2.45911013e-02 2.21321732e-01 0. 6.88546821e-02 2.30100844e-02
      3.45809102e-01 3.45809102e-01 0. 0. 0. 0. 0. 0. 0. 3.45809102e-01
      3.09169739e-01 1.65367331e-02 7.05831647e-02 1.02335829e-02
      1.49959460e-01 0. 1.14757791e-02 3.83501383e-03 3.09169739e-01
      3.45809102e-01 0. 0. 0. 0. 0. 0. 0. 3.45809102e-01</_>
    <_>
      0. 0. 0. 0. 0. 0. 0. 0. 0. 9.36151668e-02 3.70586812e-02
      1.10893711e-01 0. 0. 0. 0. 0. 9.36151668e-02 0. 0. 0. 0. 0. 0. 0.
      0. 0. 4.46060419e-01 4.10446435e-01 4.46060419e-01 0.
      4.46060419e-01 0. 0. 0. 4.46060419e-01 6.38949051e-02
      1.81105752e-02 5.41937500e-02 0. 9.35984834e-04 0. 0. 0.
      6.38949051e-02 1.99030533e-01 3.18877846e-02 1.51597634e-01
      6.74663531e-03 2.81681735e-02 0. 2.20633764e-02 9.14578140e-03
      1.90992385e-01 3.00351351e-01 2.83379257e-01 3.00351351e-01 0.
      2.34901965e-01 0. 0. 0. 3.00351351e-01 3.00351351e-01
      3.00351351e-01 3.00351351e-01 1.89494789e-02 3.00351351e-01
      1.09726824e-02 1.59917980e-01 2.90684402e-02 3.00351351e-01
      2.48524040e-01 1.75093804e-02 1.20110609e-01 8.13237298e-03
      1.33729368e-01 0. 8.33947212e-02 3.16526927e-02 2.52352327e-01
      3.96410599e-02 0. 0. 0. 8.78758430e-02 0. 3.33578885e-02
      1.17782429e-02 4.48168106e-02 3.57767791e-01 1.13878302e-01
      3.57767791e-01 2.47768778e-02 3.57767791e-01 2.34213099e-02
      3.57767791e-01 9.23741981e-02 3.57767791e-01 5.87248281e-02 0.
      7.07444130e-03 7.40990567e-04 3.57767791e-01 3.90355103e-03
      1.20663099e-01 3.16526890e-02 8.97793099e-02 1.62628908e-02 0. 0.
      0. 0. 0. 0. 0. 1.62628908e-02 3.37081045e-01 7.20415637e-02
      8.63004029e-02 0. 3.85289222e-01 0. 0. 0. 3.28410059e-01
      1.57367945e-01 0. 0. 0. 3.29820901e-01 0. 0. 0. 1.57367945e-01
      3.89319152e-01 0. 0. 0. 3.89319152e-01 0. 0. 0. 3.89319152e-01
      2.51885712e-01 1.38281688e-01 1.44164935e-01 0. 1.34362161e-01 0.
      0. 0. 2.33411133e-01 2.75133550e-01 1.96917266e-01 2.75133550e-01
      2.70650517e-02 2.75133550e-01 6.34229416e-03 7.45525584e-02
      8.15033726e-03 2.73174196e-01 2.75133550e-01 0. 0. 0.
      3.79447527e-02 0. 0. 0. 2.75133550e-01 2.75133550e-01
      7.74984807e-02 2.75133550e-01 4.81912531e-02 2.75133550e-01 0.
      9.72449630e-02 3.24975774e-02 2.75133550e-01 1.27617061e-01
      5.35095707e-02 2.00922281e-01 3.34652103e-02 3.21940303e-01
      8.25483445e-03 1.17890172e-01 1.75778400e-02 1.28457025e-01
      5.21341115e-02 5.78439375e-03 3.11541501e-02 5.19667380e-03
      3.21940303e-01 1.37580547e-03 3.42425443e-02 7.80677376e-03
      5.83150275e-02 2.53109485e-01 8.30391124e-02 3.10787112e-01
      6.27234727e-02 3.21940303e-01 0. 1.48441583e-01 4.96066511e-02
      2.53109485e-01 3.21940303e-01 2.76670363e-02 9.31740105e-02
      1.04539124e-02 3.21940303e-01 0. 7.04031959e-02 2.35275701e-02
      3.21940303e-01 2.05568254e-01 0. 0. 0. 4.21173006e-01 0. 0. 0.
      2.05568254e-01 4.74765152e-01 0. 0. 0. 4.74765152e-01 0. 0. 0.
      4.74765152e-01 2.25337017e-02 0. 0. 0. 0. 0. 0. 0. 2.25337017e-02
      1.67530730e-01 0. 0. 0. 0. 0. 0. 0. 1.67530730e-01 3.15994024e-01
      0. 0. 0. 7.34527484e-02 0. 0. 0. 3.15994024e-01 3.15994024e-01
      1.71553701e-01 3.15994024e-01 1.58843603e-02 3.15994024e-01 0.
      1.66647658e-01 5.56907356e-02 3.15994024e-01 6.14074469e-02 0. 0.
      0. 5.30867688e-02 0. 0. 0. 6.14074469e-02 2.19781145e-01
      1.56191811e-01 3.15994024e-01 0. 3.15994024e-01 0. 2.52773538e-02
      8.44724849e-03 2.19781145e-01 3.11880380e-01 1.76320434e-01
      3.11880380e-01 2.02540569e-02 3.11880380e-01 0. 1.69117644e-01
      5.65161966e-02 3.11880380e-01 3.11880380e-01 3.55317593e-02
      1.06324285e-01 3.37567576e-03 2.16904923e-01 0. 4.49317656e-02
      1.50154447e-02 3.11880380e-01 1.54411986e-01 1.55670539e-01
      3.11880380e-01 0. 3.11880380e-01 0. 1.82014350e-02 6.08260045e-03
      1.54411986e-01 6.47363663e-02 1.75287444e-02 5.24524897e-02 0.
      9.91777107e-02 0. 0. 0. 6.47363663e-02</_>
    <_>
      2.09240898e-01 1.05270207e-01 1.09349087e-01 0. 2.90062632e-02 0.
      0. 0. 1.83856040e-01 2.78409332e-01 1.61411256e-01 1.64507478e-01
      0. 3.09836995e-02 3.69292987e-03 6.90280274e-02 2.09020581e-02
      2.78409332e-01 2.78409332e-01 1.85880557e-01 2.78409332e-01 0.
      1.03652336e-01 0. 0. 0. 2.78409332e-01 2.78409332e-01
      2.58138150e-01 2.78409332e-01 0. 2.78409332e-01 3.17650735e-02
      1.54232636e-01 4.61270846e-02 2.78409332e-01 2.48482913e-01
      5.80356531e-02 9.37772617e-02 0. 1.30780533e-01 2.18916349e-02
      2.13309065e-01 5.84446788e-02 2.48482913e-01 3.15893330e-02 0. 0.
      0. 8.49107504e-02 1.64187234e-02 9.35193822e-02 2.16229130e-02
      3.15893330e-02 2.74380982e-01 1.09076694e-01 2.19881997e-01 0.
      3.74839246e-01 1.88302919e-01 3.74839246e-01 1.37707442e-01
      2.74380982e-01 2.36919932e-02 0. 0. 0. 3.74839246e-01
      1.41227171e-01 2.52877474e-01 6.04331456e-02 2.36919932e-02 0. 0.
      0. 0. 1.75329149e-01 0. 0. 0. 0. 0. 0. 0. 0. 0. 0. 0. 0. 0. 0. 0.
      0. 0. 9.79534745e-01 0. 0. 0. 0. 0. 0. 0. 0. 0. 0. 0. 0. 0.
      2.68354952e-01 6.41102940e-02 1.31634116e-01 0. 5.62975481e-02 0.
      0. 0. 2.51672000e-01 2.23487675e-01 7.33765513e-02 1.26328558e-01
      2.08828859e-02 3.39456886e-01 3.10613345e-02 6.09189384e-02
      1.82527378e-02 1.90424457e-01 3.37806016e-01 0. 0. 0.
      8.22146758e-02 0. 8.77187308e-03 1.64201632e-02 3.37806016e-01
      3.39456886e-01 2.71403603e-02 1.07764848e-01 8.97520036e-02
      3.39456886e-01 2.35471968e-02 4.47145998e-02 6.66117221e-02
      3.39456886e-01 2.21591126e-02 1.26937283e-02 2.96086036e-02
      4.43341956e-02 4.14808095e-01 6.59429580e-02 7.85621703e-02
      2.17845552e-02 2.21591126e-02 0. 0. 0. 3.32506448e-02
      4.14808095e-01 4.94572110e-02 4.36964855e-02 1.12504382e-02 0.
      1.76841989e-01 1.83750000e-02 1.11351557e-01 1.90542743e-01
      4.14808095e-01 4.99905050e-02 9.12293792e-03 1.40221538e-02
      1.84210733e-01 2.67206728e-01 3.06250039e-03 5.14390729e-02
      1.42907053e-01 4.14808095e-01 3.74928713e-02 3.12774666e-02
      1.71635561e-02 2.69889981e-01 0. 0. 0. 0. 3.32717985e-01 0. 0. 0.
      0. 0. 0. 0. 0. 0. 0. 0. 0. 0. 3.90736103e-01 0. 0. 0.
      2.99423963e-01 0. 3.60737741e-01 1.97955400e-01 3.90736103e-01
      3.90736103e-01 0. 0. 0. 4.48219366e-02 0. 1.02666922e-01
      5.63386269e-02 3.90736103e-01 2.94252336e-01 0. 0. 0.
      1.29908904e-01 0. 2.45442782e-02 4.59446944e-02 2.94252336e-01
      2.94252336e-01 4.55105826e-02 1.49564043e-01 2.51908023e-02
      2.20561936e-01 2.10116711e-02 1.77433535e-01 2.03868106e-01
      2.94252336e-01 1.90994844e-01 0. 0. 0. 5.60818426e-02 0.
      1.84082072e-02 3.44585143e-02 1.90994844e-01 2.84911215e-01
      1.09384581e-01 2.94252336e-01 4.89291502e-03 2.94252336e-01
      3.50194471e-03 1.63594648e-01 1.63100153e-01 2.94252336e-01
      2.86335588e-01 4.70694639e-02 1.75790831e-01 6.48619682e-02
      2.86335588e-01 5.48746623e-02 7.49766827e-02 6.28273040e-02
      2.86335588e-01 2.86335588e-01 1.56946592e-02 7.31701627e-02
      4.82255220e-02 1.56146318e-01 4.11559939e-02 6.80597499e-02
      3.57895829e-02 2.86335588e-01 2.06988215e-01 1.13136858e-01
      2.86335588e-01 7.21623562e-03 2.86335588e-01 9.14577674e-03
      8.16511288e-02 5.56149296e-02 2.26010993e-01 2.86335588e-01
      3.64739001e-02 1.14161961e-01 2.88649369e-03 1.92240477e-01
      6.85933139e-03 3.40021960e-02 1.65810212e-02 2.86335588e-01
      3.42200726e-01 0. 0. 0. 1.74275618e-02 0. 1.86635733e-01
      1.02416627e-01 3.42200726e-01 3.42200726e-01 0. 0. 0.
      4.10640799e-02 0. 5.31170145e-02 2.91480385e-02 3.42200726e-01
      3.42200726e-01 0. 0. 0. 0. 0. 7.46542811e-02 4.09666449e-02
      3.42200726e-01 3.42200726e-01 0. 0. 0. 3.07980552e-02 0.
      2.12468039e-02 1.16592161e-02 3.42200726e-01</_>
    <_>
      1.21489773e-02 0. 0. 0. 0. 0. 0. 0. 1.21489773e-02 9.59113687e-02
      3.12376525e-02 9.34749767e-02 0. 0. 0. 0. 0. 9.59113687e-02
      2.56765634e-01 1.43341094e-01 3.22711825e-01 0. 2.60857016e-01 0.
      0. 0. 2.56765634e-01 3.94096792e-01 3.94096792e-01 3.94096792e-01
      0. 1.47696361e-01 0. 0. 0. 3.94096792e-01 1.14173345e-01
      4.21388745e-02 1.26095578e-01 0. 2.39825528e-02 0. 2.35283338e-02
      7.86277559e-03 1.14173345e-01 1.05541520e-01 2.94294283e-02
      8.80640820e-02 0. 1.09527551e-01 0. 5.88208400e-02 1.96569432e-02
      1.05541520e-01 3.13990206e-01 3.13990206e-01 3.13990206e-01 0.
      2.69800603e-01 0. 1.51646197e-01 5.06775528e-02 3.13990206e-01
      2.53794223e-01 1.85182914e-01 2.85862416e-01 0. 3.13990206e-01 0.
      2.70819217e-01 9.05031562e-02 2.27862716e-01 1.50937781e-01
      2.00808700e-02 6.00896217e-02 0. 3.79953086e-01 0. 1.27688274e-01
      4.26712930e-02 1.50937781e-01 0. 0. 0. 0. 0. 0. 0. 0. 0.
      2.59765387e-01 5.02021797e-02 1.50224060e-01 0. 6.12546861e-01 0.
      4.70945626e-01 1.57382026e-01 2.59765387e-01 0. 0. 0. 0. 0. 0. 0.
      0. 0. 1.58737510e-01 7.35252500e-02 1.45884082e-01 0.
      1.82054564e-01 0. 0. 0. 1.58737510e-01 3.23968917e-01
      3.20358872e-01 3.23968917e-01 0. 1.13469727e-01 0. 0. 0.
      3.08595955e-01 3.23968917e-01 3.19710821e-02 8.33144188e-02 0.
      1.41214728e-01 0. 4.39525954e-02 1.46881863e-02 3.23968917e-01
      3.23968917e-01 3.39832380e-02 8.79873931e-02 2.91237817e-03
      8.10454190e-02 0. 1.75810382e-02 1.51320631e-02 3.23968917e-01
      2.01927230e-01 2.06437215e-01 2.84067512e-01 2.50741486e-02
      2.84190565e-01 0. 5.33818901e-02 1.78392977e-02 1.27383724e-01
      5.84228784e-02 7.45015219e-02 1.29432738e-01 3.34321931e-02
      3.24486464e-01 0. 8.16455483e-02 2.72845291e-02 4.60171849e-02
      3.24486464e-01 3.23458388e-02 1.90308705e-01 8.95650834e-02
      3.24486464e-01 0. 1.07767126e-02 1.47753982e-02 3.24486464e-01
      1.79655790e-01 3.58984619e-02 2.03982309e-01 1.14404306e-01
      3.24486464e-01 0. 6.46602511e-02 2.47885231e-02 1.74321324e-01
      1.49971647e-02 8.46363045e-03 4.30085734e-02 1.69679858e-02
      3.87917370e-01 0. 5.02146371e-02 1.67808663e-02 1.49971647e-02 0.
      0. 0. 0. 0. 0. 0. 0. 0. 3.87917370e-01 1.86222289e-02
      7.93009475e-02 5.47910929e-02 3.87917370e-01 0. 1.02905691e-01
      3.43893617e-02 3.87917370e-01 3.87917370e-01 0. 0. 0.
      2.57630527e-01 0. 0. 0. 3.87917370e-01 3.65206748e-01
      3.14992405e-02 9.42577422e-02 0. 1.75933152e-01 0. 9.63312387e-02
      3.21922116e-02 3.65206748e-01 3.65206748e-01 1.96683742e-02
      7.18835220e-02 2.03560642e-03 1.21885367e-01 0. 3.85324955e-02
      2.43339837e-02 3.65206748e-01 1.58436701e-01 5.24987327e-03
      1.57096237e-02 0. 5.00710383e-02 0. 3.85324955e-02 1.28768841e-02
      1.58436701e-01 3.64861608e-01 9.02718771e-03 2.59450804e-02 0.
      2.58906394e-01 0. 1.54129965e-02 7.06026983e-03 3.65206748e-01
      2.97995746e-01 4.32668291e-02 1.70641199e-01 3.13526988e-02
      2.97995746e-01 0. 1.28155472e-02 1.75707377e-02 2.97995746e-01
      2.97995746e-01 5.64298294e-02 2.02194974e-01 3.84352021e-02
      2.97995746e-01 0. 7.68932402e-02 2.94782352e-02 2.97995746e-01
      1.69619486e-01 6.23851418e-02 1.83650866e-01 0. 2.97995746e-01 0.
      2.13592406e-03 2.92845629e-03 1.79489359e-01 1.43916190e-01
      7.95455799e-02 2.35758409e-01 0. 2.97995746e-01 0. 1.28155407e-02
      4.91303951e-03 1.42858908e-01 3.14810961e-01 1.82629600e-02
      5.63995242e-02 1.06232204e-02 3.14810961e-01 0. 7.51052350e-02
      2.50989143e-02 3.14810961e-01 3.14810961e-01 0. 0. 0.
      3.14810961e-01 0. 0. 0. 3.14810961e-01 3.14810961e-01
      2.42145378e-02 7.24588484e-02 0. 1.56890988e-01 0. 1.25175379e-02
      4.18315222e-03 3.14810961e-01 2.69948930e-01 0. 0. 0.
      1.33185312e-01 0. 0. 0. 2.69948930e-01</_>
    <_>
      1.46505043e-01 1.94533259e-01 3.00324559e-01 0. 4.86641191e-02 0.
      0. 0. 1.07363194e-01 2.45517269e-01 3.00324559e-01 3.00324559e-01
      0. 7.56047219e-02 0. 1.76956821e-02 5.91360126e-03 2.29860514e-01
      2.38551393e-01 2.29769722e-01 3.00324559e-01 0. 1.21660322e-01 0.
      0. 0. 2.09194988e-01 1.60151526e-01 2.97469825e-01 3.00324559e-01
      7.71830557e-03 2.21694097e-01 0. 2.94927997e-03 9.85600171e-04
      1.48408964e-01 2.62994289e-01 1.91571638e-01 3.56809378e-01 0.
      3.56809378e-01 0. 9.17381346e-02 3.06573547e-02 2.62994289e-01
      7.88561180e-02 1.11800674e-02 3.34549621e-02 0. 3.56809378e-01 0.
      6.88036010e-02 2.29930133e-02 7.88561180e-02 8.61799344e-02
      1.33961782e-01 3.44363630e-01 2.25962438e-02 3.56809378e-01 0.
      1.52896885e-02 5.10955881e-03 8.61799344e-02 1.32348398e-02
      1.66759472e-02 5.93852438e-02 9.03849769e-03 3.56809378e-01 0.
      1.14672650e-02 3.83216864e-03 1.32348398e-02 0. 0. 0. 0.
      7.04615593e-01 0. 0. 0. 0. 0. 0. 0. 0. 0. 0. 0. 0. 0. 0. 0. 0. 0.
      7.04615593e-01 0. 0. 0. 0. 0. 0. 0. 0. 0. 0. 0. 0. 0.
      2.22606525e-01 4.14506868e-02 1.08149663e-01 0. 7.17006475e-02 0.
      0. 0. 2.22606525e-01 1.81653365e-01 8.24606344e-02 2.24042237e-01
      8.20524059e-03 3.25894624e-01 0. 0. 0. 1.81653365e-01
      3.25894624e-01 0. 0. 0. 1.82727844e-01 0. 0. 0. 3.25894624e-01
      3.25894624e-01 6.94064125e-02 2.18489647e-01 0. 3.25894624e-01
      7.25636724e-03 1.44023329e-01 1.09724067e-01 3.25894624e-01
      6.35820776e-02 6.39086142e-02 2.18003586e-01 1.02108577e-02
      3.05002213e-01 0. 3.42353433e-02 5.83797507e-03 5.72863705e-02
      2.11516440e-01 3.66448723e-02 1.14175871e-01 4.08434309e-03
      3.05002213e-01 0. 4.56471220e-02 7.78396521e-03 1.73073709e-01
      2.82926619e-01 1.02332123e-01 3.05002213e-01 0. 3.05002213e-01
      5.09943347e-03 1.23995893e-01 5.13287634e-02 2.62182802e-01
      3.05002213e-01 8.53369832e-02 2.07223698e-01 0. 2.34373376e-01
      8.49905598e-04 6.89771250e-02 1.03786187e-02 3.05002213e-01
      3.54543328e-01 2.81414632e-02 2.25707144e-02 0. 5.89213893e-02 0.
      1.04441177e-02 1.78098085e-03 3.15634251e-01 2.61671603e-01
      2.43573282e-02 1.65923350e-02 0. 8.43838006e-02 0. 0. 0.
      2.59627193e-01 3.56002301e-01 1.61743373e-01 1.14162333e-01 0.
      1.57343894e-02 0. 1.39254900e-02 2.37464090e-03 3.56002301e-01
      3.56002301e-01 1.46143898e-01 9.95539650e-02 0. 2.10959539e-01 0.
      0. 0. 3.56002301e-01 3.79475683e-01 0. 0. 0. 1.86413527e-01 0. 0.
      0. 3.79475683e-01 3.79475683e-01 7.85275176e-02 2.34983549e-01 0.
      3.79475683e-01 2.32128501e-02 3.56647134e-01 1.98217884e-01
      3.79475683e-01 0. 0. 0. 0. 0. 0. 0. 0. 0. 6.21032789e-02
      6.56415382e-03 1.96423754e-02 0. 5.93097657e-02 3.86880850e-03
      3.69366854e-02 0. 6.21032789e-02 3.48715603e-01 1.49320781e-01
      3.48715603e-01 0. 3.48715603e-01 2.09088083e-02 2.87341148e-01
      1.04072548e-01 3.48715603e-01 3.48715603e-01 1.14068851e-01
      2.71364599e-01 0. 2.09759638e-01 3.48480116e-03 5.86501397e-02
      4.32786532e-03 3.48715603e-01 7.17175826e-02 1.04700262e-02
      3.13301869e-02 0. 5.20816259e-02 3.48480116e-03 3.32704522e-02 0.
      7.17175826e-02 2.04110108e-02 4.18801000e-03 1.25320749e-02 0.
      2.00444274e-02 5.80800115e-04 5.54507459e-03 0. 2.04110108e-02
      4.45478022e-01 2.49476582e-01 1.68187276e-01 0. 0. 0.
      6.94464194e-03 1.18423358e-03 4.45478022e-01 4.45478022e-01
      2.28537053e-01 1.55680612e-01 0. 1.86297417e-01 0. 0. 0.
      4.45478022e-01 0. 0. 0. 0. 0. 0. 0. 0. 0. 0. 0. 0. 0. 0. 0. 0. 0.
      0.</_>
    <_>
      0. 0. 0. 0. 0. 0. 0. 0. 0. 0. 0. 0. 0. 0. 0. 0. 0. 0.
      3.56114715e-01 2.60016292e-01 3.56114715e-01 0. 8.91996846e-02 0.
      0. 0. 3.56114715e-01 3.56114715e-01 2.48886243e-01 3.50483537e-01
      0. 9.06302109e-02 0. 2.90464342e-01 9.70682353e-02 3.56114715e-01
      0. 0. 0. 0. 0. 0. 0. 0. 0. 0. 0. 0. 0. 0. 0. 0. 0. 0.
      4.27237749e-01 7.85378516e-02 4.35739197e-02 0. 4.27237749e-01 0.
      4.27237749e-01 3.24992001e-01 4.27237749e-01 6.72608539e-02
      1.86598282e-02 5.58373220e-02 0. 3.18127334e-01 0. 1.85365960e-01
      6.19462095e-02 6.72608539e-02 0. 0. 0. 0. 0. 0. 0. 0. 0. 0. 0. 0.
      0. 0. 0. 0. 0. 0. 1.60631329e-01 1.39385924e-01 3.73954326e-01 0.
      3.73954326e-01 0. 0. 0. 2.80956656e-01 3.71951282e-01
      1.85847923e-01 3.73954326e-01 0. 3.73954326e-01 0. 0. 0.
      3.73954326e-01 1.30755723e-01 1.71109945e-01 3.22814673e-01
      5.65082824e-04 1.83781371e-01 0. 0. 0. 1.01866961e-01
      2.72965193e-01 1.54678166e-01 2.12487042e-01 9.41804537e-05
      2.00764477e-01 2.19223537e-02 2.03438833e-01 6.43523782e-02
      2.51298636e-01 5.74721582e-02 1.47529230e-01 3.22814673e-01
      8.67683906e-03 3.22814673e-01 0. 0. 0. 3.58055942e-02
      9.90557894e-02 1.18094280e-01 1.70748398e-01 2.67961971e-03
      3.22814673e-01 3.45442183e-02 3.19011003e-01 8.48075673e-02
      8.28058645e-02 1.33079544e-01 2.36673616e-02 1.31309899e-02 0.
      2.90777057e-01 3.67757119e-02 3.27791780e-01 1.14450067e-01
      1.33079544e-01 6.46392908e-03 2.34223269e-02 7.00885206e-02 0.
      1.55488208e-01 6.12928485e-03 9.03500840e-02 2.91776136e-02
      6.46392908e-03 7.73615316e-02 2.32147276e-02 2.61992179e-02 0.
      3.27791780e-01 5.79494499e-02 3.27791780e-01 2.36138806e-01
      7.73615316e-02 1.00915596e-01 2.65033454e-01 3.27791780e-01 0.
      3.27791780e-01 9.65824071e-03 3.27791780e-01 1.22853115e-01
      1.00915596e-01 1.94427893e-02 1.16932124e-01 3.42750520e-01 0.
      2.42145658e-01 0. 0. 0. 4.33063470e-02 4.52888012e-02
      1.33078888e-01 3.42750520e-01 0. 3.42750520e-01 0. 0. 0.
      1.04947709e-01 2.25438159e-02 3.42750520e-01 3.42750520e-01 0.
      2.20564365e-01 0. 8.79682880e-03 2.93975137e-03 2.65210774e-02
      1.39030139e-03 2.16387868e-01 3.42750520e-01 0. 2.99117535e-01 0.
      0. 0. 1.13334516e-02 3.98867242e-02 5.20456880e-02 2.48837471e-01
      4.48039882e-02 4.79536533e-01 0. 0. 3.76717895e-02 9.14985165e-02
      1.29420171e-02 1.87477097e-02 9.28751901e-02 1.72814373e-02
      4.79536533e-01 1.26799997e-02 2.86822051e-01 8.44890922e-02
      2.15439815e-02 9.08460096e-02 4.08851877e-02 1.90675646e-01
      3.15453447e-02 4.79536533e-01 0. 0. 5.02290390e-02 1.59661710e-01
      2.05273069e-02 1.63540728e-02 7.62702450e-02 1.26181366e-02
      2.00671673e-01 0. 6.13857359e-02 2.88855415e-02 3.19965929e-02
      1.29157856e-01 1.08353244e-02 3.24233696e-02 0. 2.97616333e-01
      1.11858128e-02 2.97616333e-01 1.91617578e-01 1.29157856e-01
      2.97616333e-01 2.97616333e-01 2.97616333e-01 0. 2.05665529e-01
      1.86430186e-03 2.97616333e-01 1.40378475e-01 2.97616333e-01
      8.94936249e-02 4.84153116e-03 1.44876633e-02 0. 2.49417368e-02 0.
      1.83603764e-01 6.13571741e-02 8.94936249e-02 2.16967583e-01
      8.37292373e-02 2.50548959e-01 0. 1.11446651e-02 0. 1.50582388e-01
      5.03219999e-02 2.16967583e-01 1.74304634e-01 4.73733157e-01
      4.73733157e-01 0. 1.01019107e-01 0. 4.30759788e-02 1.43952537e-02
      1.74304634e-01 0. 1.87449098e-01 4.73733157e-01 0. 8.98565277e-02
      0. 0. 0. 0. 1.22408122e-01 1.32398754e-01 3.96186173e-01 0. 0. 0.
      1.92475542e-02 6.43219845e-03 1.22408122e-01 0. 9.42098815e-03
      2.81910803e-02 0. 0. 0. 0. 0. 0.</_>
    <_>
      0. 0. 0. 0. 0. 0. 0. 0. 0. 2.90888809e-02 0. 0. 0. 0. 0. 0. 0.
      2.90888809e-02 1.50968403e-01 1.58210486e-01 3.87394279e-01
      8.90239421e-03 1.30222524e-02 0. 0. 0. 1.50968403e-01
      3.87394279e-01 3.87394279e-01 3.87394279e-01 5.34143373e-02
      5.56223840e-02 0. 3.87394279e-01 1.31080538e-01 3.87394279e-01
      4.61767688e-02 0. 0. 0. 0. 0. 0. 0. 4.61767688e-02 1.31420279e-02
      0. 0. 0. 0. 0. 0. 0. 1.31420279e-02 3.28943968e-01 2.92341799e-01
      3.28943968e-01 2.10915040e-02 3.23744535e-01 0. 3.28943968e-01
      3.22015285e-01 3.28943968e-01 9.28456560e-02 1.53911384e-02
      4.60561514e-02 0. 3.28943968e-01 0. 3.28943968e-01 1.69902936e-01
      9.28456560e-02 1.16150267e-02 3.64019326e-03 1.08928466e-02 0.
      2.32300535e-02 0. 0. 0. 1.16150267e-02 1.35986000e-01
      2.18411516e-02 6.53570518e-02 0. 1.13724701e-01 4.26062942e-02 0.
      0. 1.35986000e-01 2.90375687e-02 3.07567641e-02 9.20359716e-02 0.
      4.21220928e-01 0. 0. 0. 2.90375687e-02 3.39965075e-01
      2.71928698e-01 4.21220928e-01 1.56642541e-01 4.21220928e-01
      2.55637676e-01 0. 0. 3.39965075e-01 8.68968815e-02 2.29880840e-01
      3.32225412e-01 3.29147629e-03 2.45715454e-02 0. 0. 0.
      8.68968815e-02 1.78340226e-01 2.92668104e-01 3.32225412e-01
      1.97488498e-02 7.65960887e-02 0. 1.70306176e-01 5.69133796e-02
      1.78340226e-01 4.45856787e-02 3.21322948e-01 3.32225412e-01
      5.48579323e-04 3.26347202e-01 0. 0. 0. 4.45856787e-02
      6.67046309e-02 1.53296292e-01 3.32225412e-01 3.29147512e-03
      2.17992529e-01 0. 6.84008598e-02 2.28583701e-02 6.67046309e-02
      1.29797786e-01 1.53251126e-01 3.26591462e-01 1.05733881e-02
      3.26591462e-01 1.29546523e-02 3.26591462e-01 1.68217048e-01
      1.29797786e-01 1.96212716e-02 4.35721548e-03 1.30384509e-02 0.
      3.26591462e-01 1.72728654e-02 2.34231636e-01 7.82762244e-02
      1.96212716e-02 2.42815018e-02 4.36751731e-02 7.16969073e-02
      1.76223135e-03 3.26591462e-01 9.74373743e-02 3.14476401e-01
      9.35328379e-02 2.42815018e-02 1.93103356e-03 1.99936088e-02
      4.45815958e-02 2.26821173e-02 3.26591462e-01 1.29916489e-01
      2.43428886e-01 6.59367815e-02 1.16918201e-03 2.21579056e-03
      4.41138223e-02 1.32005289e-01 0. 2.35715896e-01 2.17485614e-03 0.
      0. 2.21579056e-03 2.59419624e-02 1.56917050e-01 3.44276696e-01
      6.63717166e-02 3.44276696e-01 3.45431231e-02 0. 0. 2.59419624e-02
      5.91343502e-03 2.06681535e-01 3.44276696e-01 1.00225039e-01
      3.44276696e-01 1.63580086e-02 1.84247028e-02 4.21654945e-03 0.
      6.15928695e-03 3.41636926e-01 3.44276696e-01 9.33292806e-02
      3.44276696e-01 0. 0. 0. 0. 9.40352865e-03 3.53845119e-01
      3.98271263e-01 0. 3.98271263e-01 0. 0. 0. 9.40352865e-03
      1.25380363e-02 2.91342884e-02 8.71805698e-02 0. 3.98271263e-01 0.
      9.13525745e-02 3.05284243e-02 1.25380363e-02 4.87149581e-02
      1.65059566e-01 3.98271263e-01 0. 3.98271263e-01 0. 0. 0.
      4.87149581e-02 0. 0. 0. 0. 1.56627327e-01 0. 5.17235175e-02
      1.72850918e-02 0. 3.19474959e-03 0. 0. 0. 2.87657022e-01
      4.86539900e-02 2.87657022e-01 8.70792046e-02 4.51576989e-03
      5.55350929e-02 8.46336037e-02 2.28466794e-01 1.40055073e-02
      2.87657022e-01 6.48719743e-02 2.87657022e-01 1.08739592e-01
      6.19861186e-02 3.34099829e-02 0. 0. 0. 2.47653782e-01
      3.59176449e-03 2.87657022e-01 1.04934640e-01 3.67125310e-02
      2.35043794e-01 1.38475850e-01 2.87657022e-01 0. 2.87657022e-01
      4.78901900e-03 2.87657022e-01 1.69528261e-01 2.54269063e-01
      7.27178752e-02 3.10106993e-01 3.10106993e-01 1.21760376e-01
      3.10106993e-01 1.03497496e-02 5.86413667e-02 1.69082470e-02
      6.53319210e-02 2.23598368e-02 3.08121502e-01 3.10106993e-01
      1.22159019e-01 3.10106993e-01 0. 0. 0. 1.14576248e-02
      1.76813960e-01 2.68856585e-01 3.10106993e-01 3.96498106e-02
      1.93327978e-01 7.64045340e-04 1.08170524e-01 3.57006080e-02
      1.83142111e-01 1.94235537e-02 1.14137135e-01 2.71098197e-01
      5.28664105e-02 4.71629016e-02 0. 0. 0. 1.63366999e-02</_>
    <_>
      4.23252136e-02 1.60904564e-02 4.81487736e-02 0. 0. 0. 0. 0.
      4.23252136e-02 1.99764267e-01 6.95199817e-02 1.83345512e-01 0. 0.
      0. 0. 0. 1.76840529e-01 2.12292403e-01 3.49924386e-01
      3.52628171e-01 0. 2.25790009e-01 0. 0. 0. 1.90738693e-01
      3.52628171e-01 3.52628171e-01 3.52628171e-01 0. 6.38679117e-02 0.
      0. 0. 3.52628171e-01 2.51442522e-01 5.21498695e-02 1.10715076e-01
      0. 1.45473089e-02 0. 4.08704728e-02 1.36582144e-02 2.33991474e-01
      1.41325921e-01 8.03413708e-03 8.45126715e-03 0. 8.72838199e-02 0.
      8.26881304e-02 2.76329722e-02 1.41325921e-01 3.06223333e-01
      3.06223333e-01 3.06223333e-01 4.28090654e-02 2.72497505e-01 0.
      1.60640299e-01 5.36832176e-02 3.06223333e-01 2.35639989e-01
      6.39976710e-02 1.56474903e-01 5.70787489e-02 3.06223333e-01 0.
      2.84672469e-01 9.51326638e-02 2.35639989e-01 9.53036100e-02 0. 0.
      0. 2.24945560e-01 0. 1.06233053e-01 3.55012938e-02 9.53036100e-02
      0. 0. 0. 0. 0. 0. 0. 0. 0. 1.27071470e-01 1.29798027e-02
      8.69277939e-02 4.69117463e-02 4.32113647e-01 0. 3.29649776e-01
      1.10163353e-01 1.27071470e-01 2.79002875e-01 1.87978849e-01
      4.32113647e-01 1.26047712e-02 4.32113647e-01 0. 0. 0.
      2.79002875e-01 9.52588245e-02 3.13592315e-01 3.13592315e-01
      1.27408691e-02 3.13592315e-01 0. 0. 0. 8.21836963e-02
      2.82347262e-01 3.13592315e-01 3.13592315e-01 0. 1.69869691e-01 0.
      0. 0. 2.03791633e-01 3.29972841e-02 2.65563577e-01 3.13592315e-01
      4.29631099e-02 3.13592315e-01 0. 0. 0. 3.29972841e-02
      1.09060574e-02 3.19165289e-02 9.55060869e-02 0. 2.39713565e-01 0.
      0. 0. 1.09060574e-02 1.80494770e-01 1.56129196e-01 2.90676236e-01
      8.42965543e-02 3.85685205e-01 0. 4.46759574e-02 1.49299288e-02
      1.36372849e-01 3.98610234e-02 8.57360512e-02 2.86460340e-01
      1.12395391e-01 3.85685205e-01 0. 7.28050098e-02 2.43301820e-02
      3.98610234e-02 1.86997396e-03 3.77550088e-02 1.20603651e-01
      4.80130911e-02 3.85685205e-01 0. 0. 0. 1.86997396e-03
      9.60417092e-03 1.04994126e-01 2.94313669e-01 6.80014864e-02
      3.85685205e-01 0. 0. 0. 2.81273993e-03 2.55566160e-03
      1.71613730e-02 6.08627610e-02 1.75180752e-02 3.40103060e-01 0.
      1.47551801e-02 4.93092835e-03 2.55566160e-03 4.00201380e-02
      1.49323031e-01 3.65612477e-01 7.56362602e-02 2.82547623e-01 0. 0.
      0. 3.85864377e-02 3.68785225e-02 1.75263539e-01 3.65612477e-01
      2.91235391e-02 2.79562980e-01 0. 0. 0. 1.84478741e-02
      3.77843119e-02 3.65612477e-01 3.65612477e-01 1.68550164e-01
      2.97500670e-01 0. 0. 0. 2.68277936e-02 2.41901517e-01
      4.25859034e-01 4.25859034e-01 1.21115699e-01 4.25859034e-01 0. 0.
      0. 2.41901517e-01 0. 2.16396842e-02 6.47539347e-02 0.
      4.25859034e-01 0. 0. 0. 0. 6.88458011e-02 0. 7.06188083e-02
      1.33128269e-02 2.12112330e-02 0. 0. 0. 6.88458011e-02 0. 0. 0. 0.
      3.44769001e-01 0. 0. 0. 0. 2.06036810e-02 6.36524800e-03
      1.90471746e-02 0. 3.15924257e-01 0. 6.75562769e-02 2.25761496e-02
      2.06036810e-02 1.16208762e-01 1.69430986e-01 3.15924257e-01
      1.89773869e-02 3.15924257e-01 0. 1.29482836e-01 4.32709642e-02
      9.79401395e-02 9.07289982e-02 0. 0. 0. 3.15924257e-01 0.
      1.29482865e-01 4.32709418e-02 9.07289982e-02 3.15924257e-01
      1.71969920e-01 3.15924257e-01 1.42330388e-02 3.15924257e-01 0.
      2.25187555e-01 7.52538219e-02 3.15924257e-01 1.02439888e-01
      3.33846092e-01 3.64192396e-01 6.40765950e-02 1.35515258e-01 0.
      2.13076565e-02 7.12065725e-03 6.76061362e-02 6.80164993e-02
      3.64192396e-01 3.64192396e-01 1.00551814e-01 8.17439482e-02 0. 0.
      0. 5.33940531e-02 1.81002632e-01 2.61828750e-01 3.64192396e-01
      4.80574444e-02 4.07442302e-02 0. 3.41642685e-02 1.14171160e-02
      1.67069152e-01 4.62198220e-02 1.38863876e-01 3.64192396e-01
      3.90217863e-02 1.81318242e-02 0. 0. 0. 4.06464227e-02</_>
    <_>
