<?xml version="1.0"?>
<opencv_storage>
<my_svm type_id="opencv-ml-svm">
  <svm_type>C_SVC</svm_type>
  <kernel><type>RBF</type>
    <gamma>8.9999999999999997e-02</gamma></kernel>
  <C>10.</C>
  <term_criteria><epsilon>1.1920928955078125e-07</epsilon>
    <iterations>2147483647</iterations></term_criteria>
  <var_all>324</var_all>
  <var_count>324</var_count>
  <class_count>22</class_count>
  <class_labels type_id="opencv-matrix">
    <rows>1</rows>
    <cols>22</cols>
    <dt>i</dt>
    <data>
      0 1 2 3 4 5 6 7 8 9 10 11 12 13 14 15 16 18 19 20 21 22</data></class_labels>
  <sv_total>110</sv_total>
  <support_vectors>
    <_>
      9.53119025e-02 3.09027582e-01 3.55017841e-01 3.82774509e-02
      3.55017841e-01 0. 0. 0. 9.53119025e-02 3.55017841e-01
      1.37026966e-01 2.57511795e-01 2.32760925e-02 7.64350668e-02 0. 0.
      0. 3.55017841e-01 2.27278378e-03 1.38703957e-01 3.55017841e-01
      6.19496182e-02 3.55017841e-01 0. 0. 0. 2.27278378e-03 0.
      1.63944960e-02 5.77709973e-02 3.87934828e-03 8.31516311e-02 0. 0.
      0. 0. 4.09034878e-01 2.21882146e-02 5.26967319e-03 0.
      1.45301921e-02 0. 0. 3.29323858e-02 4.09034878e-01 4.09034878e-01
      0. 0. 0. 1.18981693e-02 0. 3.93531233e-01 4.09034878e-01
      4.09034878e-01 0. 0. 0. 0. 0. 0. 0. 0. 0. 3.12103126e-02 0. 0. 0.
      0. 0. 2.31107026e-02 7.72319175e-03 3.12103126e-02 3.04596484e-01
      0. 0. 0. 8.46876414e-04 0. 3.18883091e-01 2.20578820e-01
      3.18883091e-01 2.70263672e-01 0. 0. 0. 1.84089646e-01
      1.27130263e-02 3.18883091e-01 3.18883091e-01 3.18883091e-01
      4.10776995e-02 0. 0. 0. 3.35133635e-03 0. 5.79515547e-02
      1.93663929e-02 4.10776995e-02 6.26413524e-02 2.25647315e-02
      6.75222576e-02 0. 3.18883091e-01 9.53476876e-03 3.18883091e-01
      1.16330981e-01 8.21301863e-02 1.53331626e-02 8.14971849e-02
      4.26119179e-01 6.04384132e-02 4.82963383e-01 0. 0. 0.
      1.53331626e-02 0. 1.43121311e-03 4.28271852e-03 0. 4.85059507e-02
      0. 0. 0. 0. 8.32687244e-02 2.12433469e-03 3.39975171e-02 0.
      4.82963383e-01 3.62251364e-02 4.82963383e-01 2.60908455e-01
      8.32687244e-02 3.63916419e-02 0. 0. 0. 2.42621475e-03
      3.94887477e-02 1.04210548e-01 3.48254219e-02 3.63916419e-02 0. 0.
      0. 0. 0. 0. 0. 0. 0. 0. 0. 0. 0. 0. 0. 0. 0. 0. 0. 0. 0. 0.
      1.89961586e-02 3.09178948e-01 0. 0. 0. 0. 6.69835985e-01
      6.69835985e-01 0. 0. 0. 0. 0. 0. 0. 4.34000557e-03 1.29869515e-02
      0. 3.87552902e-02 0. 0. 0. 0. 1.33795505e-02 1.26014590e-01
      3.77083361e-01 0. 4.24940169e-01 0. 1.44897969e-02 4.84223571e-03
      1.33795505e-02 0. 1.05032846e-01 3.14298272e-01 0. 1.02851823e-01
      0. 0. 0. 0. 9.76399577e-04 4.16274607e-01 4.24940169e-01 0.
      4.24940169e-01 0. 0. 0. 9.76399577e-04 1.04901686e-01 0. 0. 0.
      2.20334008e-01 4.96836267e-02 3.50880861e-01 2.63116568e-01
      1.06832467e-01 4.80713136e-02 0. 0. 0. 2.55168062e-02
      5.88314831e-02 2.58862704e-01 1.82314500e-01 5.21436259e-02
      1.20399557e-01 0. 0. 0. 6.71674386e-02 3.53167169e-02
      3.50880861e-01 3.50880861e-01 1.23728551e-01 2.09110409e-01 0. 0.
      0. 3.39931063e-02 4.41236049e-02 3.50880861e-01 3.50880861e-01
      2.15546340e-01 1.21068805e-02 0. 0. 0. 7.91458471e-04
      1.28816720e-02 6.12870939e-02 6.53079227e-02 1.35402912e-02
      1.83096982e-03 7.34679401e-02 2.19844118e-01 0. 8.36121738e-02 0.
      0. 0. 1.83096982e-03 3.31898957e-01 9.08013340e-03 2.71712244e-02
      0. 1.16354544e-02 9.66125354e-03 3.31898957e-01 3.10950130e-01
      3.31898957e-01 3.31898957e-01 3.29835564e-01 3.31898957e-01 0.
      2.31217802e-01 0. 7.64976367e-02 2.55642310e-02 3.31898957e-01 0.
      1.76322579e-01 3.46991539e-01 3.38250585e-02 1.14741832e-01 0. 0.
      0. 0. 0. 3.22987080e-01 3.46991539e-01 4.51000668e-02
      3.25112134e-01 0. 0. 0. 0. 7.85643533e-02 2.88589686e-01
      3.46991539e-01 6.11118674e-02 2.84410834e-01 0. 0. 0.
      7.85643533e-02 8.86178017e-03 2.00645909e-01 3.46991539e-01
      8.14824775e-02 1.73667401e-01 0. 0. 0. 8.86178017e-03</_>
    <_>
      0. 1.29825100e-01 3.30126107e-01 5.11996523e-02 2.90860564e-01 0.
      0. 0. 0. 1.20808128e-02 2.85000086e-01 3.30126107e-01
      1.06637612e-01 2.74129868e-01 0. 0. 0. 1.20808128e-02 0.
      1.84186161e-01 3.30126107e-01 7.85286278e-02 3.30126107e-01 0. 0.
      0. 0. 0. 1.30807206e-01 3.30126107e-01 1.16141073e-01
      3.30126107e-01 0. 0. 0. 0. 1.74193695e-01 4.73609060e-01
      4.73609060e-01 1.17127612e-01 2.33161330e-01 0. 0. 0.
      1.74193695e-01 2.42058799e-01 9.31154862e-02 2.78636009e-01 0.
      2.86718458e-02 0. 1.72399163e-01 9.38278213e-02 2.42058799e-01 0.
      8.34039450e-02 3.33131284e-01 1.19113065e-01 2.07188874e-01 0. 0.
      0. 0. 0. 0. 0. 0. 0. 0. 0. 0. 0. 5.05157709e-02 1.10011408e-03
      3.29194800e-03 0. 6.59606755e-02 5.80194853e-02 3.50677043e-01
      1.42616242e-01 8.10191855e-02 2.57807579e-02 0. 0. 0.
      3.80326986e-01 2.46557161e-01 3.80326986e-01 3.80326986e-01
      6.64519817e-02 0. 0. 0. 0. 2.31214985e-02 1.65773127e-02
      2.75884736e-02 9.21958312e-03 0. 5.06698852e-03 0. 0. 0.
      3.80326986e-01 1.33176774e-01 3.80326986e-01 1.65784702e-01
      5.06698852e-03 0. 2.65989363e-01 3.70550841e-01 6.32578358e-02
      3.70550841e-01 0. 0. 0. 0. 0. 8.99280980e-02 3.28748733e-01
      2.79234983e-02 3.33845228e-01 0. 0. 0. 0. 1.14607431e-01
      1.72030151e-01 3.70550841e-01 7.72164539e-02 3.70550841e-01
      4.05572765e-02 1.56503737e-01 5.27453683e-02 1.53560296e-01
      3.52668464e-02 2.84723509e-02 8.51998031e-02 7.38288742e-04
      1.69489175e-01 6.97521167e-03 4.29052226e-02 1.45159960e-02
      5.08479886e-02 0. 1.15723282e-01 5.03976822e-01 4.68611538e-01
      5.03976822e-01 0. 0. 0. 0. 0. 0. 0. 0. 0. 0. 0. 0. 0. 0. 0. 0. 0.
      5.03976822e-01 0. 0. 0. 0. 0. 0. 0. 0. 0. 0. 0. 0. 0. 0. 0. 0. 0.
      5.36344619e-03 0. 0. 0. 0. 3.94092426e-02 0. 0. 0. 4.02570933e-01
      4.02570933e-01 3.60230953e-01 4.64851446e-02 3.94092426e-02
      2.21254230e-02 1.05306702e-02 3.15117799e-02 0. 0. 0. 0. 0.
      2.21254230e-02 1.72316939e-01 1.20878451e-01 4.02570933e-01
      2.09702849e-01 4.02570933e-01 2.94511199e-01 7.66139254e-02 0.
      1.72316939e-01 1.62498027e-01 1.96603984e-02 6.93906471e-02
      2.99013238e-02 3.32930118e-01 5.92058077e-02 3.19772840e-01
      1.07633844e-01 2.30089366e-01 3.69459428e-02 1.54809991e-03
      4.63248743e-03 0. 3.32930118e-01 2.14327201e-02 7.84709081e-02
      2.65321545e-02 6.39824718e-02 9.75814685e-02 0. 2.52574508e-04
      1.92678650e-03 3.32930118e-01 2.65375264e-02 3.32930118e-01
      1.36528060e-01 1.48224473e-01 1.87010184e-01 6.37809038e-02
      6.26430213e-02 0. 3.32930118e-01 1.60745382e-02 2.74872154e-01
      1.10780999e-01 2.12082773e-01 4.23010392e-03 0. 0. 0.
      5.39353378e-02 0. 0. 0. 4.23010392e-03 4.05460000e-02
      4.69399616e-02 4.00903188e-02 1.41474418e-02 0. 0. 0. 0.
      3.58549953e-02 3.72917652e-01 2.10825771e-01 2.71277517e-01 0.
      1.52295962e-01 0. 8.93333703e-02 4.61327434e-02 3.72917652e-01
      3.72917652e-01 3.72917652e-01 3.72917652e-01 1.88632533e-02
      1.69152580e-02 0. 0. 0. 3.72917652e-01 6.33575991e-02
      8.32691491e-02 1.66272461e-01 3.79453227e-02 2.38634809e-03 0. 0.
      0. 3.65616791e-02 2.35627249e-01 1.95014119e-01 3.18758696e-01
      9.84539166e-02 1.53573230e-01 5.94188133e-03 4.53226879e-04 0.
      1.81062967e-01 3.17479044e-01 3.18758696e-01 3.18758696e-01
      6.29941374e-02 1.03369355e-02 0. 0. 0. 2.55956501e-01
      2.73962528e-01 3.18758696e-01 3.18758696e-01 7.22687319e-02
      3.62328216e-02 0. 0. 0. 1.89161062e-01</_>
    <_>
      1.27078056e-01 3.27063680e-01 3.53852123e-01 5.10906521e-03
      3.83101851e-02 0. 0. 0. 6.96989596e-02 2.25695103e-01
      3.53852123e-01 3.53852123e-01 0. 4.67778509e-03 0. 0. 0.
      1.42816246e-01 3.32304388e-02 2.72451639e-01 3.53852123e-01
      3.57319564e-02 3.13667476e-01 0. 0. 0. 1.77267753e-02
      3.42582278e-02 1.16886407e-01 3.22775215e-01 0. 1.15237236e-02 0.
      0. 0. 1.80688910e-02 3.61228734e-01 3.36258888e-01 3.61228734e-01
      0. 3.31554301e-02 0. 2.36222781e-02 1.86501369e-02 3.61228734e-01
      3.61228734e-01 9.19106416e-03 2.75030639e-02 0. 2.78521366e-02 0.
      3.61228734e-01 2.92538553e-01 3.61228734e-01 2.24445853e-02
      4.18443866e-02 7.82620758e-02 0. 0. 0. 0. 0. 1.48896826e-02
      3.12930532e-02 0. 0. 0. 0. 0. 2.00456288e-02 7.23386277e-03
      3.41826268e-02 1.82789132e-01 0. 0. 0. 1.16813503e-01
      9.58890375e-03 3.40276033e-01 2.15849563e-01 3.00976098e-01
      6.69604987e-02 0. 0. 0. 3.40276033e-01 4.03691679e-02
      3.40276033e-01 3.28270406e-01 1.20939158e-01 2.29368806e-02 0. 0.
      0. 1.37012407e-01 2.18980201e-02 1.32866040e-01 4.00150344e-02
      2.82205231e-02 1.41196931e-02 0. 0. 0. 3.40276033e-01
      1.41633704e-01 3.40276033e-01 2.10718781e-01 1.85057987e-02
      5.02405036e-03 1.76072016e-01 5.62874079e-01 5.02970405e-02
      5.62874079e-01 0. 0. 0. 5.02405036e-03 0. 2.71520391e-02
      8.12489465e-02 0. 2.51411330e-02 0. 0. 0. 0. 2.28921957e-02
      2.24603643e-03 3.59452143e-02 0. 5.62874079e-01 0. 0. 0.
      2.28921957e-02 0. 0. 0. 0. 0. 0. 0. 0. 0. 0. 0. 0. 0. 0. 0. 0. 0.
      0. 0. 0. 0. 0. 0. 0. 0. 0. 0. 0. 0. 0. 0. 0. 0. 0. 0. 0. 0. 0. 0.
      0. 0. 0. 0. 0. 0. 0. 0. 0. 0. 6.87698498e-02 1.35033699e-02
      4.35365438e-02 7.56708207e-03 0. 1.86995603e-02 1.08330566e-02
      3.24166380e-02 0. 4.68740076e-01 1.26078159e-01 4.68740076e-01
      1.73510104e-01 1.86995603e-02 0. 8.67567491e-03 5.05877286e-02
      3.85890598e-03 5.88976145e-02 0. 0. 0. 0. 3.29007134e-02
      2.07967907e-01 4.68740076e-01 2.97295991e-02 4.68740076e-01
      6.19832426e-03 9.12655890e-02 3.04993615e-02 3.29007134e-02
      2.64652874e-02 0. 0. 0. 3.19221377e-01 0. 1.87045574e-01
      6.25074878e-02 2.64652874e-02 2.29167342e-02 0. 0. 0. 0. 0.
      1.73534080e-02 5.79921855e-03 2.29167342e-02 3.19221377e-01 0. 0.
      0. 3.17847013e-01 0. 3.19221377e-01 3.19221377e-01 3.19221377e-01
      3.19221377e-01 0. 0. 0. 1.99289937e-02 0. 3.19221377e-01
      1.96185946e-01 3.19221377e-01 5.35344332e-03 0. 0. 0. 0. 0. 0. 0.
      5.35344332e-03 4.93765101e-02 2.48743538e-02 7.33900145e-02 0. 0.
      0. 0. 0. 4.65631410e-02 4.04136002e-01 1.18830539e-02
      3.55586335e-02 0. 2.87416410e-02 0. 1.13249525e-01 7.40097687e-02
      4.04136002e-01 4.04136002e-01 3.83439362e-01 4.04136002e-01
      2.09192373e-03 3.31692770e-02 0. 0. 0. 4.04136002e-01
      4.33910228e-02 6.27299920e-02 1.85762316e-01 6.39781728e-03
      3.95100489e-02 0. 0. 0. 4.05700207e-02 4.00312953e-02
      2.09078565e-01 3.21887702e-01 4.56199981e-02 3.21887702e-01 0. 0.
      0. 2.94935275e-02 3.06986600e-01 2.84225315e-01 3.21887702e-01
      6.59055170e-03 1.82035528e-02 0. 0. 0. 2.64436245e-01
      2.43340582e-01 3.21887702e-01 3.21887702e-01 3.06900293e-02
      2.37709999e-01 0. 0. 0. 1.57784119e-01</_>
    <_>
      2.98025519e-01 2.40101740e-01 3.13433200e-01 2.59698983e-02
      3.13433200e-01 0. 0. 0. 2.98025519e-01 3.13433200e-01
      1.75686583e-01 3.13433200e-01 0. 1.81995798e-02 0. 1.74674653e-02
      5.83732082e-03 3.13433200e-01 4.45529856e-02 1.04179189e-01
      3.13433200e-01 1.29728958e-01 3.13433200e-01 0. 0. 0.
      4.45529856e-02 4.51898985e-02 2.11568568e-02 6.33091331e-02 0.
      3.86642441e-02 0. 0. 0. 4.51898985e-02 3.55201274e-01
      6.55476823e-02 1.96142942e-01 0. 1.00557348e-02 0. 2.81384081e-01
      9.40336362e-02 3.55201274e-01 2.50241548e-01 0. 0. 0.
      1.87525198e-01 1.63816050e-01 3.55201274e-01 3.55201274e-01
      2.50241548e-01 1.38046658e-02 2.54905457e-03 7.62771443e-03 0.
      7.54180085e-03 0. 2.18807273e-02 7.31215440e-03 1.38046658e-02
      8.50762986e-03 0. 0. 0. 6.80843294e-02 1.15116656e-01
      3.55201274e-01 1.68560073e-01 8.50762986e-03 2.83579640e-02 0. 0.
      0. 1.52789682e-01 8.39688703e-02 3.71260047e-01 2.51765817e-01
      2.83579640e-02 0. 0. 0. 0. 8.55399519e-02 4.83027846e-03
      3.71260047e-01 1.33822918e-01 0. 6.67365210e-04 0. 0. 0.
      9.82915685e-02 6.22100420e-02 3.71260047e-01 2.77922273e-01
      6.67365210e-04 0. 0. 0. 0. 3.17942351e-01 4.62093484e-03
      3.71260047e-01 3.63914967e-01 0. 1.62472613e-02 4.74890582e-02
      2.30242208e-01 1.78388327e-01 6.70781255e-01 0. 0. 0.
      1.62472613e-02 0. 0. 0. 0. 2.62456443e-02 0. 0. 0. 0.
      3.52752097e-02 0. 0. 0. 6.70781255e-01 0. 4.84917238e-02
      1.62051227e-02 3.52752097e-02 0. 0. 0. 0. 0. 0. 0. 0. 0. 0. 0. 0.
      0. 0. 0. 0. 0. 0. 0. 0. 0. 0. 3.48464474e-02 2.21139655e-01
      6.86668813e-01 6.86668813e-01 0. 0. 0. 0. 0. 0. 0. 0. 0. 0. 0. 0.
      0. 0. 0. 0. 0. 0. 0. 0. 0. 0. 0. 1.14321589e-01 5.59516205e-03
      3.64157408e-01 1.45575821e-01 0. 0. 0. 0. 0. 3.64157408e-01
      4.28235915e-04 3.64157408e-01 3.64157408e-01 0. 0. 6.44618878e-03
      1.92894563e-02 0. 8.81094262e-02 0. 6.68787286e-02 2.23496966e-02
      0. 0. 9.77203846e-02 3.07164162e-01 1.54469348e-03 3.64157408e-01
      0. 3.64157408e-01 2.22157985e-01 0. 9.27637704e-03 0. 0. 0.
      3.39894950e-01 0. 3.39894950e-01 1.17003061e-01 9.27637704e-03
      8.57550185e-03 0. 0. 0. 0. 0. 5.44546582e-02 1.81978345e-02
      8.57550185e-03 1.02413632e-01 0. 0. 0. 2.06401452e-01 0.
      3.39894950e-01 3.39894950e-01 1.94197640e-01 3.39894950e-01
      4.11525145e-02 1.23144031e-01 0. 0. 0. 3.39894950e-01
      2.50873834e-01 3.39894950e-01 3.62574868e-02 5.38911251e-03
      1.61262807e-02 0. 0. 0. 0. 0. 3.62574868e-02 1.40469968e-01
      3.12337279e-02 9.34632272e-02 0. 0. 0. 0. 0. 1.40469968e-01
      3.80626351e-01 1.37094423e-01 3.80626351e-01 0. 0. 0.
      1.79923940e-02 2.44793557e-02 3.80626351e-01 3.80626351e-01
      2.34793693e-01 3.80626351e-01 0. 0. 0. 0. 0. 3.80626351e-01
      8.63998383e-02 6.03770055e-02 1.80671021e-01 0. 1.62023157e-02 0.
      5.40108653e-03 1.80494832e-03 8.63998383e-02 4.21258062e-02
      2.19003201e-01 3.22533488e-01 1.83616020e-02 3.22533488e-01 0.
      1.04241572e-01 3.48357148e-02 4.21258062e-02 3.22533488e-01
      1.86653346e-01 3.22533488e-01 0. 2.08606687e-03 0. 0. 0.
      3.22533488e-01 2.29745120e-01 3.17353874e-01 3.22533488e-01
      3.69371735e-02 1.26881078e-01 0. 0. 0. 2.26641268e-01</_>
    <_>
      6.77435175e-02 1.89311042e-01 3.49309713e-01 1.07307151e-01
      1.05387405e-01 0. 0. 0. 3.57432179e-02 1.91895753e-01
      3.38263571e-01 3.49309713e-01 3.92287970e-02 3.20259258e-02 0. 0.
      0. 1.50490567e-01 3.65598127e-03 2.02779442e-01 3.49309713e-01
      2.10417911e-01 3.49309713e-01 0. 0. 0. 3.65598127e-03
      2.38759145e-02 1.86316609e-01 3.49309713e-01 6.17003255e-02
      1.43597558e-01 0. 0. 0. 2.24870834e-02 3.64151597e-01
      2.96064883e-01 3.64151597e-01 0. 4.65701189e-04 0. 0. 0.
      3.64151597e-01 3.64151597e-01 3.80018167e-02 9.94770527e-02 0.
      3.16685624e-02 0. 0. 0. 3.64151597e-01 6.32656142e-02
      9.09907818e-02 2.69744158e-01 0. 2.79420638e-03 0. 0. 0.
      5.97551167e-02 7.48270825e-02 8.04034397e-02 2.68248379e-01
      3.32836919e-02 2.32528463e-01 0. 0. 0. 7.42419884e-02
      3.08936238e-01 3.98103260e-02 1.20707154e-01 1.43982412e-03
      2.11983055e-01 0. 4.76680100e-02 1.59298126e-02 3.08936238e-01
      1.56739190e-01 1.17471412e-01 3.08936238e-01 4.67841886e-02
      3.08936238e-01 0. 7.14846551e-02 2.38889251e-02 1.56739190e-01
      2.46585160e-02 1.48637265e-01 3.08936238e-01 5.44763505e-02
      3.08936238e-01 0. 7.94466771e-03 2.65496853e-03 2.46585160e-02
      6.58481847e-03 2.31347263e-01 3.08936238e-01 1.37393057e-01
      3.08936238e-01 0. 1.05928890e-02 3.53995757e-03 6.58481847e-03 0.
      1.80374980e-01 4.22883123e-01 2.04607546e-01 4.22883123e-01 0. 0.
      0. 0. 0. 6.49488419e-02 2.79774755e-01 5.39913177e-02
      2.85598546e-01 0. 0. 0. 0. 0. 1.12224214e-01 4.05465484e-01
      1.38627384e-02 4.22883123e-01 4.47659306e-02 2.76047960e-02
      1.86851770e-02 1.83423702e-02 0. 1.75405387e-02 7.66194239e-02
      1.18029292e-03 1.75878152e-01 7.46098906e-03 4.60079871e-03
      5.32155577e-03 7.33694760e-03 0. 6.68725045e-03 2.00107526e-02 0.
      1.30420225e-02 0. 0. 0. 0. 0. 1.37851804e-01 4.36993897e-01
      7.39641711e-02 4.36993897e-01 0. 0. 0. 0. 0. 4.68450263e-02
      1.46739945e-01 7.87990820e-03 1.86007068e-01 0. 0. 0. 0. 0.
      3.55283529e-01 4.36993897e-01 1.48583516e-01 4.36993897e-01 0. 0.
      0. 0. 0. 1.52738422e-01 3.24019730e-01 1.20266460e-01
      3.24019730e-01 0. 0. 0. 0. 0. 1.57612562e-01 3.24019730e-01
      1.86244816e-01 3.24019730e-01 0. 0. 0. 0. 0. 1.74015701e-01
      3.24019730e-01 1.29930884e-01 3.24019730e-01 0. 0. 0. 0. 0.
      7.57413059e-02 3.24019730e-01 9.51944664e-02 3.20244938e-01 0. 0.
      0. 0. 2.15322990e-02 1.26758777e-02 3.86207812e-02 0.
      3.09041739e-01 6.71737343e-02 3.09041739e-01 1.36814773e-01
      7.02711865e-02 4.55244184e-02 3.35416943e-02 1.00369520e-01 0.
      3.68181057e-02 1.11956224e-02 1.69707149e-01 6.72239810e-02
      6.50199726e-02 9.90390554e-02 6.64937682e-03 1.98974721e-02 0.
      1.67928368e-01 5.32928891e-02 3.09041739e-01 3.09041739e-01
      2.21820131e-01 2.99778163e-01 1.65475592e-01 3.09041739e-01 0.
      3.56111489e-02 2.42957901e-02 3.09041739e-01 1.90209806e-01
      3.09041739e-01 5.52141517e-02 9.41725895e-02 2.99196362e-01
      4.51966887e-03 8.01148564e-02 0. 9.50047188e-03 3.08563141e-03
      5.52141517e-02 2.01886464e-02 2.32544288e-01 3.42038602e-01
      3.74744348e-02 3.42038602e-01 0. 0. 0. 2.01886464e-02
      2.69545048e-01 2.75749922e-01 3.42038602e-01 7.53278087e-04
      1.42111471e-02 0. 4.31188121e-02 1.38753671e-02 2.43731588e-01
      1.16708800e-01 3.42038602e-01 3.42038602e-01 4.45855735e-03
      1.19611196e-01 0. 0. 0. 7.75365457e-02 0. 3.50513101e-01
      4.01983112e-01 9.84736905e-02 4.01983112e-01 0. 0. 0. 0. 0.
      6.96102455e-02 3.29686493e-01 3.94788869e-02 2.84622818e-01 0. 0.
      0. 0. 1.40167242e-02 2.95237273e-01 4.01983112e-01 8.96738842e-03
      2.93731183e-01 0. 0. 0. 1.75911142e-03 0. 1.51278609e-02
      5.40644750e-02 1.32064859e-03 7.53141046e-02 0. 0. 0. 0.</_>
    <_>
      3.78503688e-02 5.64091653e-03 3.20744291e-02 6.04656665e-03
      2.58810699e-01 1.59954339e-01 2.99396664e-01 2.78986126e-01
      9.24334601e-02 2.66847610e-02 0. 0. 0. 6.25813603e-02
      2.71602757e-02 1.80361256e-01 7.64402300e-02 3.92106697e-02
      4.35374975e-02 0. 5.34573803e-03 1.00776111e-03 2.99396664e-01
      1.52850986e-01 2.99396664e-01 2.99396664e-01 1.41147777e-01
      2.99396664e-01 0. 0. 0. 7.45143816e-02 4.88409214e-02
      2.99396664e-01 2.99396664e-01 2.99396664e-01 1.60758141e-02
      5.02708834e-04 6.23524236e-03 0. 3.69774934e-04 0. 4.02574660e-03
      7.36203231e-03 1.86206438e-02 4.76392657e-02 1.77475080e-01
      2.53929973e-01 0. 5.56931132e-03 0. 0. 0. 2.79822126e-02
      3.53635281e-01 7.83322826e-02 1.06258214e-01 0. 9.24437423e-04 0.
      1.57355338e-01 3.19730431e-01 3.53635281e-01 3.53635281e-01
      3.53635281e-01 3.53635281e-01 2.46694162e-02 2.56505869e-02 0.
      1.18292030e-02 2.28214301e-02 3.53635281e-01 2.30881751e-01
      2.65919507e-01 1.87604621e-01 1.42409177e-02 4.09039995e-03 0. 0.
      0. 1.12882659e-01 2.65919507e-01 2.65919507e-01 2.06654310e-01
      1.60960913e-01 6.56162724e-02 0. 1.22090109e-01 1.07994951e-01
      2.65919507e-01 2.65919507e-01 2.65919507e-01 2.65919507e-01
      1.97381545e-02 2.20463481e-02 0. 0. 0. 1.45509049e-01
      2.65919507e-01 2.65919507e-01 1.24669686e-01 9.08147618e-02
      2.65919507e-01 0. 6.48996234e-02 4.85661477e-02 1.91960886e-01
      5.64295091e-02 0. 0. 0. 3.43540967e-01 6.67178631e-02
      2.22201511e-01 2.97158450e-01 1.83644190e-01 3.43540967e-01 0. 0.
      0. 2.27252785e-02 2.00814735e-02 3.43540967e-01 3.43540967e-01
      3.43540967e-01 3.96868726e-03 0. 0. 0. 1.97456151e-01
      9.56207514e-02 3.43540967e-01 2.33296260e-01 3.96868726e-03
      4.39533070e-02 0. 0. 0. 4.39812895e-03 7.35103898e-03
      4.31944989e-02 9.71021689e-03 4.39533070e-02 3.66151899e-01
      8.82726386e-02 1.03119709e-01 0. 3.37883626e-04 0. 1.68296278e-01
      3.44409466e-01 3.66151899e-01 3.66151899e-01 3.66151899e-01
      3.66151899e-01 2.82738563e-02 1.50391711e-02 0. 1.35575645e-02
      2.61558648e-02 3.66151899e-01 8.34146291e-02 0. 0. 0. 0. 0. 0. 0.
      8.34146291e-02 7.41471648e-02 6.15307270e-03 0. 0. 0. 0. 0. 0.
      7.22902566e-02 1.92844257e-01 3.41477782e-01 3.41477782e-01
      3.50809246e-02 3.00091580e-02 0. 0. 0. 1.59326851e-01
      9.62569416e-02 7.17995986e-02 2.31644176e-02 0. 3.41477782e-01 0.
      0. 0. 6.76893145e-02 1.55597910e-01 6.60062432e-02 0. 0. 0. 0. 0.
      0. 9.03178900e-02 3.18469971e-01 3.41477782e-01 3.41477782e-01
      2.27112055e-01 3.41477782e-01 0. 0. 0. 1.51571050e-01
      6.91884337e-03 0. 0. 0. 1.04726061e-01 1.16902977e-01
      3.35974306e-01 2.49242157e-01 1.59963965e-02 2.66193300e-02 0. 0.
      0. 4.34556678e-02 4.26049829e-02 1.80853695e-01 8.61805454e-02
      4.00214419e-02 4.29327339e-02 0. 0. 0. 1.11904994e-01
      1.70666143e-01 3.35974306e-01 3.35974306e-01 1.46348596e-01
      3.35974306e-01 0. 0. 0. 5.64968884e-02 7.19797015e-02
      3.35974306e-01 3.35974306e-01 3.35974306e-01 1.79807823e-02
      4.79143485e-03 0. 0. 0. 0. 4.34193062e-03 7.94023462e-03
      2.00831052e-02 3.28993015e-02 1.87229440e-01 1.69561714e-01
      3.53554264e-02 0. 0. 0. 0. 1.82467103e-02 3.55874330e-01
      1.09979957e-01 7.42539391e-02 0. 0. 0. 1.69714198e-01
      3.44841778e-01 3.55874330e-01 3.55874330e-01 3.55874330e-01
      3.55874330e-01 5.62655181e-02 0. 0. 1.27582829e-02 2.46138014e-02
      3.55874330e-01 2.17443511e-01 2.86905378e-01 1.68274894e-01
      4.04927507e-02 0. 0. 0. 0. 1.03874549e-01 2.86905378e-01
      2.86905378e-01 2.86905378e-01 1.35091975e-01 7.76965544e-02 0. 0.
      0. 2.37078130e-01 2.60435611e-01 2.86905378e-01 2.86905378e-01
      6.98007047e-02 0. 0. 0. 0. 1.24681182e-01 2.86905378e-01
      2.86905378e-01 1.73312172e-01 6.36235923e-02 2.41450742e-02 0. 0.
      0. 2.17215955e-01</_>
    <_>
      2.73277283e-01 6.69720815e-03 2.80078836e-02 1.11558056e-02
      5.98930493e-02 0. 2.73014843e-01 2.43861184e-01 2.73277283e-01
      2.73277283e-01 0. 0. 0. 0. 0. 2.73277283e-01 1.67166024e-01
      2.73277283e-01 2.34926090e-01 2.67888326e-03 1.12031521e-02
      8.36685393e-03 1.85628518e-01 0. 1.61096871e-01 1.25481308e-01
      2.73277283e-01 2.73277283e-01 0. 0. 0. 0. 0. 2.73277283e-01
      1.64637372e-01 2.73277283e-01 3.31404179e-01 0. 0. 0. 0. 0.
      1.51411191e-01 8.30871016e-02 3.31404179e-01 3.31404179e-01
      5.97151518e-02 1.08820237e-01 0. 0. 0. 1.23491595e-02
      6.77661924e-03 3.31404179e-01 3.31404179e-01 0. 0. 0. 0. 0.
      1.94674209e-01 1.06827773e-01 3.31404179e-01 3.31404179e-01
      7.28967488e-02 1.32841393e-01 0. 0. 0. 1.64655428e-02
      9.03549138e-03 3.31404179e-01 2.58335233e-01 2.35299930e-01
      2.58335233e-01 0. 0. 0. 0. 0. 2.58335233e-01 2.58335233e-01
      2.58335233e-01 2.58335233e-01 0. 1.24617659e-01 3.17966044e-02
      1.96746103e-02 2.88023166e-02 2.58335233e-01 2.58335233e-01
      1.90690771e-01 2.58335233e-01 0. 0. 0. 0. 0. 2.58335233e-01
      1.97116032e-01 1.90964729e-01 2.42935866e-01 0. 2.58335233e-01
      1.27186421e-02 3.27910203e-03 4.80038626e-03 1.38882414e-01
      1.81667984e-01 0. 0. 0. 4.92172003e-01 0. 0. 0. 1.81667984e-01
      4.33649391e-01 0. 0. 0. 0. 0. 2.13553354e-01 1.17187724e-01
      4.33649391e-01 4.87699695e-02 0. 0. 0. 4.92172003e-01 0.
      6.30023628e-02 2.10542846e-02 4.87699695e-02 0. 0. 0. 0. 0. 0. 0.
      0. 0. 4.72439438e-01 0. 0. 0. 0. 0. 2.36629620e-01 1.29850864e-01
      4.72439438e-01 4.72439438e-01 8.20031241e-02 1.49436101e-01 0. 0.
      0. 2.10144240e-02 1.15316967e-02 4.72439438e-01 0. 0. 0. 0. 0. 0.
      0. 0. 0. 0. 0. 0. 0. 0. 0. 0. 0. 0. 3.59174579e-01 8.44709799e-02
      1.53933346e-01 0. 0. 0. 0. 0. 3.59174579e-01 1.41404986e-01
      2.40406618e-02 4.38098311e-02 0. 4.93391603e-01 0. 0. 0.
      1.41404986e-01 1.05915032e-03 0. 0. 0. 0. 0. 0. 0. 1.05915032e-03
      3.82238775e-02 8.14399943e-02 3.52181107e-01 2.08042696e-01
      4.93391603e-01 0. 0. 0. 3.82238775e-02 1.30957767e-01 0. 0. 0.
      1.36029124e-01 0. 1.78303778e-01 1.87393636e-01 2.26350904e-01
      1.02211572e-01 0. 0. 0. 0. 0. 2.24829838e-02 9.62212011e-02
      1.58633769e-01 3.31463307e-01 0. 0. 0. 2.04585884e-02 0.
      3.31463307e-01 3.31463307e-01 3.31463307e-01 3.31463307e-01 0. 0.
      0. 0. 0. 1.67394727e-01 3.31463307e-01 3.31463307e-01
      6.31007999e-02 0. 0. 0. 0. 0. 6.42774347e-03 3.79050262e-02
      7.90191814e-02 6.00966066e-02 3.24914679e-02 5.71526401e-03 0. 0.
      0. 9.15788463e-04 2.47408124e-03 5.22219092e-02 4.10930127e-01 0.
      0. 0. 0. 0. 8.98390636e-02 4.10930127e-01 4.10930127e-01
      4.10930127e-01 3.44935060e-01 5.86767048e-02 0. 0. 0.
      5.49472962e-03 4.37591709e-02 4.10930127e-01 1.02209218e-01
      1.12098031e-01 3.79272103e-02 0. 0. 0. 0. 0. 3.88022959e-02
      2.08286777e-01 2.88596243e-01 3.17463726e-01 7.58180171e-02
      1.41783535e-01 0. 0. 0. 9.66308638e-02 3.17463726e-01
      3.17463726e-01 1.97425187e-01 0. 0. 0. 0. 0. 3.17463726e-01
      3.17463726e-01 3.17463726e-01 3.17463726e-01 3.42686623e-02
      1.88159235e-02 0. 0. 0. 2.51045972e-01</_>
    <_>
      2.61267032e-02 1.66554432e-02 1.37900971e-02 0. 2.40411997e-01
      1.55678630e-01 3.00948650e-01 2.08852425e-01 6.07026741e-02
      1.77750774e-02 0. 0. 0. 2.21772399e-02 1.78443529e-02
      6.49276823e-02 4.84204106e-02 5.01373932e-02 6.28374368e-02
      2.77590728e-03 2.29834951e-03 0. 3.00948650e-01 1.86967134e-01
      3.00948650e-01 3.00948650e-01 3.00948650e-01 3.00948650e-01
      1.04348054e-02 3.12249176e-02 0. 3.98277976e-02 2.97731776e-02
      2.98779279e-01 3.00948650e-01 3.00948650e-01 7.48292683e-03
      5.11708595e-02 1.07911482e-01 4.38352972e-02 1.90457664e-02 0. 0.
      2.35852576e-03 1.31135145e-02 1.05036512e-01 3.24570805e-01
      3.24570805e-01 7.99291581e-02 5.76393418e-02 0. 0. 0.
      8.90736654e-02 3.24570805e-01 1.52375579e-01 3.24570805e-01
      1.52124166e-01 9.56277177e-02 0. 8.19318071e-02 1.77260086e-01
      3.24570805e-01 1.43663481e-01 3.24570805e-01 3.24570805e-01
      2.18943760e-01 1.81149006e-01 0. 0. 0. 1.37278318e-01
      2.94960797e-01 2.94960797e-01 2.94960797e-01 2.16641668e-02
      2.90315934e-02 0. 0. 0. 2.94960797e-01 2.94960797e-01
      1.69028044e-01 3.65460627e-02 0. 8.17697048e-02 0. 2.51475185e-01
      2.94960797e-01 2.94960797e-01 1.05936438e-01 1.96522146e-01
      2.94960797e-01 4.10437174e-02 5.90739064e-02 0. 0. 0.
      8.40776339e-02 1.20506220e-01 3.04303560e-02 1.13310823e-02 0.
      2.94960797e-01 0. 1.14994943e-01 8.54728371e-02 1.21239893e-01
      7.62190521e-02 0. 0. 0. 3.22584867e-01 5.88708855e-02
      2.11190507e-01 3.22584867e-01 3.22584867e-01 3.22584867e-01
      1.48318335e-02 4.43825014e-02 0. 1.71777960e-02 1.04893632e-02
      2.84250647e-01 3.22584867e-01 3.22584867e-01 5.46835968e-03 0. 0.
      0. 3.22584867e-01 9.26236436e-02 3.22584867e-01 1.05973363e-01
      5.46835968e-03 5.97675741e-02 0. 0. 0. 0. 2.20581749e-03
      6.02282293e-04 0. 5.97675741e-02 3.26035410e-01 1.35433465e-01
      3.26035410e-01 1.35799482e-01 8.70801285e-02 0. 1.35901913e-01
      2.83807576e-01 3.26035410e-01 2.41854027e-01 1.72377869e-01
      3.26035410e-01 1.81065947e-01 1.41923845e-01 0. 0. 0.
      2.41854027e-01 8.76553506e-02 0. 1.00645255e-02 4.16393438e-03 0.
      0. 0. 0. 8.76553506e-02 1.56854466e-01 2.47763634e-01
      3.26035410e-01 2.49836016e-02 0. 0. 0. 0. 1.41901955e-01
      3.83739639e-03 1.97679047e-02 6.80007264e-02 1.96875222e-02
      2.43855547e-02 0. 0. 0. 3.83739639e-03 3.29877697e-02 0. 0. 0.
      3.34711611e-01 0. 0. 0. 3.29877697e-02 3.34711611e-01
      3.34711611e-01 2.59908110e-01 8.51816218e-03 0. 0. 0. 0.
      3.34711611e-01 3.34711611e-01 2.25686073e-01 8.43870714e-02 0.
      3.34711611e-01 0. 1.35367289e-02 2.79939950e-01 3.34711611e-01
      1.15578864e-02 0. 0. 0. 1.56013563e-01 1.60336450e-01
      3.39037091e-01 2.03118920e-01 2.42913775e-02 2.67932750e-02 0. 0.
      0. 1.75443001e-03 9.16172843e-03 7.44470581e-02 5.01889698e-02
      3.74260023e-02 1.01752408e-01 0. 0. 0. 4.19803411e-02
      9.27622542e-02 3.39037091e-01 3.39037091e-01 2.60723710e-01
      3.39037091e-01 2.67526302e-02 1.38668912e-02 0. 2.33923970e-03
      9.08278115e-03 3.39037091e-01 3.39037091e-01 3.39037091e-01
      7.23833079e-03 1.82620063e-02 9.54068229e-02 2.58927047e-02
      2.51609236e-02 0. 0. 2.35440442e-03 7.55398069e-03 9.18991044e-02
      2.90891558e-01 3.32250625e-01 1.25166416e-01 9.65081900e-02 0. 0.
      0. 7.58337677e-02 3.32250625e-01 1.89852268e-01 3.32250625e-01
      5.83390296e-02 5.22601157e-02 0. 8.24580938e-02 1.77009121e-01
      3.32250625e-01 1.31839931e-01 3.32250625e-01 3.32250625e-01
      2.34248146e-01 1.77188456e-01 0. 0. 0. 1.25413790e-01
      3.22433621e-01 3.22433621e-01 3.22433621e-01 6.18954971e-02
      5.00303358e-02 0. 0. 0. 3.22433621e-01 3.22433621e-01
      2.15834185e-01 8.95803794e-02 0. 1.15042664e-01 0. 1.26721552e-02
      2.62060553e-01 3.22433621e-01 1.04127184e-01 1.93483949e-01
      3.22433621e-01 1.10229254e-01 8.22623894e-02 0. 0. 0.
      8.04623067e-02 1.50865644e-01 3.84180322e-02 2.06030980e-02 0. 0.
      0. 2.11202563e-03 4.36767563e-02 1.60551235e-01</_>
    <_>
      1.35654854e-02 0. 0. 0. 0. 0. 0. 0. 1.35654854e-02 2.20695813e-03
      0. 0. 0. 0. 0. 0. 0. 2.20695813e-03 4.33738530e-01 0. 0.
      4.31233384e-02 4.33341824e-02 0. 0. 4.33738530e-01 4.33738530e-01
      4.33738530e-01 1.25743434e-01 5.91371134e-02 0. 0. 0. 0.
      1.77757666e-01 4.33738530e-01 1.48626361e-02 2.12574210e-02
      1.13564944e-02 0. 0. 0. 0. 0. 1.20261572e-02 1.27457231e-01
      2.56330848e-01 1.51260197e-01 0. 3.24084610e-03 0. 0. 0.
      5.54004014e-02 3.37353826e-01 3.37353826e-01 3.16435754e-01 0. 0.
      0. 0. 0. 3.37353826e-01 3.37353826e-01 3.37353826e-01
      3.37353826e-01 0. 1.29633828e-03 0. 0. 0. 3.23719025e-01
      1.89636782e-01 2.79666632e-01 2.79666632e-01 3.75947729e-02
      3.03771198e-02 0. 0. 0. 4.27226610e-02 2.79666632e-01
      2.79666632e-01 2.79666632e-01 1.46011144e-01 2.36861214e-01
      3.12822610e-02 1.87816918e-02 3.19795236e-02 8.08936283e-02
      2.79666632e-01 2.79666632e-01 2.79666632e-01 9.73407645e-03
      8.47689062e-03 0. 0. 0. 1.13338895e-01 1.64175674e-01
      2.12866440e-01 2.79666632e-01 4.51448709e-02 2.79666632e-01
      5.21371001e-03 0. 0. 3.58333178e-02 3.85372669e-01 0. 0.
      4.45638150e-02 1.55080691e-01 0. 0. 3.85372669e-01 3.85372669e-01
      3.85372669e-01 1.16304986e-01 3.45113464e-02 0. 0. 0. 0.
      1.76106304e-01 3.85372669e-01 1.00040741e-01 0. 0. 7.42730172e-03
      2.96499819e-01 0. 0. 4.95128073e-02 1.07728153e-01 1.84404239e-01
      1.64351054e-02 0. 0. 0. 0. 0. 2.77100727e-02 1.86406210e-01
      3.52653682e-01 3.52653682e-01 3.38015348e-01 0. 0. 0. 0. 0.
      3.52653682e-01 3.52653682e-01 3.52653682e-01 3.52653682e-01 0. 0.
      0. 0. 0. 2.99404770e-01 1.45313695e-01 6.47933707e-02 0. 0. 0. 0.
      0. 0. 1.34569690e-01 2.91999131e-02 4.09380496e-02 1.14511847e-02
      0. 0. 0. 0. 0. 1.75666194e-02 1.80917919e-01 3.21022063e-01
      1.90913871e-01 0. 0. 0. 0. 0. 1.04709484e-01 6.24154843e-02
      1.55989677e-01 9.79731679e-02 2.49931477e-02 4.18323487e-01 0. 0.
      0. 4.03095409e-02 2.75466330e-02 1.84366584e-01 2.87309140e-01
      3.23157497e-02 7.16700498e-03 0. 0. 0. 1.04388278e-02
      1.82086378e-01 4.18323487e-01 4.18323487e-01 1.34417996e-01
      2.64912009e-01 0. 0. 0. 8.75158980e-02 4.01507840e-02 0. 0. 0.
      2.59198338e-01 1.50494250e-02 1.05541619e-02 9.97769274e-03
      4.61499542e-02 9.01752152e-03 2.74488796e-03 0. 0. 0. 0. 0. 0.
      6.46476028e-03 4.04020071e-01 0. 0. 0. 1.28817603e-01
      3.76235619e-02 1.11028969e-01 4.04020071e-01 4.04020071e-01
      4.04020071e-01 1.27327234e-01 5.83693087e-02 0. 0. 0.
      2.66708732e-02 2.40086436e-01 4.04020071e-01 3.50273550e-02
      3.83492522e-02 8.57985020e-03 0. 0. 0. 0. 0. 8.38110968e-03
      1.41876280e-01 3.35485071e-01 1.50343895e-01 0. 0. 0. 0. 0.
      5.78331165e-02 3.46416771e-01 3.46416771e-01 2.20862880e-01 0. 0.
      0. 0. 0. 3.46416771e-01 3.46416771e-01 3.46416771e-01
      3.46416771e-01 0. 0. 0. 0. 0. 2.57415235e-01 1.36738002e-01
      3.40799868e-01 3.40799868e-01 2.16478743e-02 8.50172434e-03 0. 0.
      0. 4.93244827e-02 1.02470495e-01 3.40799868e-01 3.40799868e-01
      6.00581281e-02 5.71434051e-02 0. 0. 0. 5.50397150e-02
      2.63582408e-01 3.40799868e-01 3.40799868e-01 3.60797881e-03
      3.40068922e-03 0. 0. 0. 1.04525447e-01 6.54088259e-02
      2.83109426e-01 3.02840143e-01 9.01994854e-03 2.04041284e-02 0. 0.
      0. 2.42829993e-02</_>
    <_>
      6.98063374e-02 9.48851928e-03 6.05116189e-02 6.05484610e-03
      1.93440035e-01 1.34302318e-01 3.04435730e-01 3.04435730e-01
      1.28474817e-01 5.39080724e-02 0. 0. 0. 6.18845671e-02
      9.70370620e-02 3.04435730e-01 2.22645998e-01 8.81099105e-02
      4.88494188e-02 0. 5.35305776e-03 1.00914098e-03 2.74387598e-01
      8.17141458e-02 3.04435730e-01 1.97393551e-01 6.48656860e-02
      2.47275814e-01 0. 0. 0. 4.42413278e-02 5.85183427e-02
      3.04435730e-01 3.04435730e-01 3.04435730e-01 6.35645986e-02 0. 0.
      0. 5.75682987e-03 0. 7.22231120e-02 6.48086295e-02 8.60304385e-02
      7.99046606e-02 0. 0. 0. 0. 0. 0. 3.77678405e-03 8.04110095e-02
      4.21609253e-01 0. 0. 0. 4.31762170e-03 0. 2.69099951e-01
      4.21609253e-01 4.21609253e-01 4.21609253e-01 0. 0. 0. 0. 0. 0.
      2.87582688e-02 4.21609253e-01 7.87810311e-02 0. 0. 0. 0. 0. 0. 0.
      7.87810311e-02 8.38121548e-02 0. 0. 0. 0. 0. 0. 0. 8.38121548e-02
      4.73763853e-01 0. 0. 0. 0. 0. 0. 0. 4.73763853e-01 4.73763853e-01
      0. 0. 0. 4.76374403e-02 0. 1.56790942e-01 2.10106164e-01
      4.73763853e-01 4.11297642e-02 0. 0. 0. 3.26434612e-01
      1.11188712e-02 2.17951253e-01 9.72627401e-02 4.41181511e-02
      2.75089681e-01 0. 0. 0. 0. 8.33915267e-03 3.26434612e-01
      3.26434612e-01 3.26434612e-01 7.43873790e-02 0. 0. 0.
      2.98503131e-01 1.65136278e-01 3.26434612e-01 3.26434612e-01
      2.61073500e-01 1.64566468e-02 0. 0. 0. 6.54420182e-02
      4.05047424e-02 1.06100149e-01 9.26022828e-02 6.94200695e-02
      4.59912509e-01 0. 0. 0. 0. 0. 1.61515191e-01 3.44683141e-01
      4.59912509e-01 4.59912509e-01 0. 0. 0. 0. 0. 0. 2.39028055e-02
      4.59912509e-01 2.26949621e-02 0. 0. 0. 1.21791044e-03 0. 0. 0.
      2.26949621e-02 3.76250036e-02 0. 0. 0. 0. 0. 0. 0. 3.76250036e-02
      4.07092541e-01 0. 0. 0. 0. 0. 0. 0. 4.07092541e-01 4.07092541e-01
      0. 0. 0. 2.94717014e-01 0. 1.84004217e-01 2.05554456e-01
      4.07092541e-01 2.61647683e-02 0. 0. 0. 0. 0. 0. 0. 2.61647683e-02
      3.67620625e-02 0. 0. 0. 4.07092541e-01 0. 1.56143149e-02
      5.21804299e-03 3.67620625e-02 6.55624792e-02 0. 0. 0.
      1.83757886e-01 1.00862525e-01 3.15153897e-01 3.15153897e-01
      1.77549690e-01 6.30813390e-02 0. 0. 0. 9.44312736e-02
      4.49139439e-02 3.15153897e-01 2.13343233e-01 1.21007100e-01
      6.92430660e-02 0. 0. 0. 1.11455113e-01 3.10573541e-02
      3.15153897e-01 2.10703447e-01 9.77175459e-02 2.65796274e-01 0. 0.
      0. 5.97713366e-02 2.04098839e-02 3.15153897e-01 3.15153897e-01
      3.15153897e-01 6.36927262e-02 0. 0. 0. 3.02490988e-03 0.
      6.69444576e-02 6.89105093e-02 8.62038285e-02 8.00657049e-02 0. 0.
      0. 0. 0. 0. 3.78439249e-03 8.05730745e-02 4.22478646e-01 0. 0. 0.
      2.26868200e-03 0. 2.62410074e-01 4.22478646e-01 4.22478646e-01
      4.22478646e-01 0. 0. 0. 0. 0. 0. 2.88162362e-02 4.22478646e-01
      6.91584721e-02 0. 0. 0. 0. 0. 0. 0. 6.91584721e-02 7.85306245e-02
      0. 1.37150977e-02 2.58552539e-03 3.67593080e-01 0. 0. 0.
      7.85306245e-02 4.42826360e-01 0. 0. 0. 0. 0. 0. 0. 4.42826360e-01
      4.42826360e-01 1.57034248e-02 8.22905526e-02 1.55131444e-02
      2.16142029e-01 0. 0. 0. 4.42826360e-01</_>
    <_>
      3.38473283e-02 3.80061418e-02 1.54152572e-01 1.25476606e-02
      6.47898853e-01 0. 8.46518949e-02 2.82892510e-02 3.38473283e-02 0.
      0. 0. 0. 1.67195827e-01 0. 0. 0. 0. 0. 3.44671048e-02
      2.23947003e-01 2.48683598e-02 6.47898853e-01 0. 0. 0. 0. 0.
      3.04071209e-03 9.09897126e-03 0. 1.95852444e-01 0. 0. 0. 0. 0.
      2.28489703e-03 6.83728326e-03 0. 0. 0. 0. 0. 0. 3.45791667e-03
      1.82954207e-01 4.65575695e-01 8.52424558e-03 5.51775936e-03 0. 0.
      0. 3.45791667e-03 0. 1.06013626e-01 3.45085025e-01 5.74769080e-02
      6.96074739e-02 0. 0. 0. 0. 1.01483807e-01 4.92539138e-01
      4.92539138e-01 8.30290467e-02 3.05803835e-01 0. 0. 0.
      1.01483807e-01 2.77037662e-03 1.59357414e-01 3.52547556e-01
      1.22689288e-02 8.79509747e-02 0. 0. 0. 2.77037662e-03
      6.94118142e-02 1.68080434e-01 3.52547556e-01 3.10400464e-02
      3.52547556e-01 2.53736367e-03 4.52914312e-02 1.51356403e-02
      7.36023858e-02 5.77036180e-02 3.24827164e-01 3.52547556e-01
      8.64828750e-03 1.01372287e-01 0. 0. 0. 5.77036180e-02
      3.35576981e-02 2.18971044e-01 3.52547556e-01 5.46120219e-02
      3.52547556e-01 0. 0. 0. 3.35576981e-02 3.37682627e-02
      3.04788183e-02 1.61595806e-01 2.35105027e-02 2.95446098e-01 0.
      6.88323304e-02 2.77007055e-02 4.23697531e-02 2.09088139e-02
      4.41229977e-02 1.35137424e-01 0. 4.29015607e-02 0. 8.07919633e-03
      4.57917014e-03 2.09088139e-02 2.95446098e-01 2.64281221e-02
      5.24698570e-02 1.72967669e-02 2.95446098e-01 0. 2.95446098e-01
      2.95446098e-01 2.95446098e-01 2.95446098e-01 2.95446098e-01
      2.95446098e-01 0. 6.27993699e-03 0. 1.52605221e-01 1.95037633e-01
      2.95446098e-01 2.04963493e-03 1.30751222e-01 3.71088654e-01
      4.88670804e-02 6.82532489e-02 0. 0. 0. 2.04963493e-03
      3.39757018e-02 3.10696304e-01 3.71088654e-01 8.26495588e-02
      2.55124658e-01 0. 0. 0. 3.39757018e-02 7.00476095e-02
      3.71054858e-01 3.71088654e-01 3.35017629e-02 5.21799624e-02 0.
      1.22975353e-02 2.37249564e-02 7.00476095e-02 3.56889120e-03
      2.56099254e-01 3.71088654e-01 7.33711943e-02 1.65844709e-01 0. 0.
      0. 3.56889120e-03 6.81980625e-02 2.36492902e-01 3.87205958e-01
      1.72881093e-02 2.32150599e-01 0. 0. 0. 6.81980625e-02
      2.01683864e-02 1.13195062e-01 3.87205958e-01 2.67300028e-02
      3.87205958e-01 0. 0. 0. 2.01683864e-02 5.92079991e-03
      7.91014880e-02 2.69373208e-01 1.87194534e-02 2.76117116e-01 0. 0.
      0. 5.92079991e-03 2.36831978e-03 9.46291909e-02 3.13346654e-01
      4.56639146e-03 3.87205958e-01 0. 0. 0. 2.36831978e-03
      3.04394811e-01 1.29627297e-02 6.71906909e-03 0. 3.85717042e-02 0.
      3.04394811e-01 2.58645564e-01 3.04394811e-01 3.04394811e-01
      2.62351245e-01 3.04394811e-01 0. 8.55944352e-04 0. 1.47310197e-01
      1.65593088e-01 3.04394811e-01 1.69863105e-01 0. 0. 0. 0. 0.
      9.87183601e-02 3.29899490e-02 1.69863105e-01 3.01658481e-01
      1.84869803e-02 5.53198792e-02 0. 0. 0. 2.19202619e-02
      7.32536707e-03 3.01658481e-01 3.92782658e-01 3.92782658e-01
      3.92782658e-01 1.34086180e-02 2.16397494e-02 0. 2.45741662e-02
      4.74095941e-02 3.92782658e-01 1.29396347e-02 2.57271647e-01
      3.92782658e-01 3.35215516e-02 6.16388954e-02 0. 0. 0.
      1.29396347e-02 2.24433035e-01 6.58115149e-02 1.96932375e-01 0. 0.
      0. 0. 0. 2.24433035e-01 9.32316761e-03 2.39527151e-02
      7.16753751e-02 0. 0. 0. 0. 0. 9.32316761e-03 0. 1.56978499e-02
      6.11182638e-02 4.50630393e-03 3.50467533e-01 0. 0. 0. 0. 0.
      3.99812832e-02 1.28725559e-01 8.04922951e-04 5.80575168e-01 0. 0.
      0. 0. 0. 0. 0. 0. 4.12254155e-01 0. 8.50862823e-03 2.84343422e-03
      0. 2.29084771e-02 1.04539273e-02 3.12820151e-02 0. 5.80575168e-01
      0. 5.10517471e-02 1.70605984e-02 2.29084771e-02</_>
    <_>
      1.00739775e-02 0. 0. 0. 4.79684025e-01 2.37187743e-01
      3.39635432e-01 6.81663081e-02 1.59514342e-02 0. 0. 0. 0.
      2.53932290e-02 0. 0. 0. 0. 0. 0. 0. 0. 4.79684025e-01
      3.02776217e-01 4.79684025e-01 1.27813146e-01 0. 0. 0. 0. 0.
      1.36798769e-01 1.77025609e-02 2.46340837e-02 4.15800372e-03 0. 0.
      0. 0. 0. 0. 0. 0. 0. 0. 0. 7.59067684e-02 2.27141991e-01 0.
      3.66981328e-03 0. 0. 0. 0. 9.05642845e-03 7.59067684e-02
      2.27142006e-01 0. 0. 0. 0. 0. 4.72609745e-03 5.85613325e-02
      6.60907626e-01 6.60907626e-01 0. 2.20188741e-02 0. 0. 0.
      3.25793624e-02 0. 9.56345946e-02 2.87597030e-01 7.71726016e-03
      4.23138775e-02 0. 0. 0. 0. 4.16419730e-02 2.34191760e-01
      3.57412040e-01 1.01546638e-01 3.57412040e-01 0. 0. 0.
      4.16419730e-02 4.42890637e-03 3.16283971e-01 3.57412040e-01
      1.58479884e-02 2.55053528e-02 0. 0. 0. 2.56739324e-03
      1.37678925e-02 2.89800197e-01 3.57412040e-01 1.00258850e-01
      3.57412040e-01 0. 0. 0. 1.37678925e-02 1.96840637e-03
      9.89738153e-04 2.96167424e-03 0. 3.01441282e-01 1.28864184e-01
      3.01441282e-01 1.37041360e-01 1.76470596e-02 4.26421128e-02
      2.94204280e-02 8.80371258e-02 0. 6.96996599e-02 1.99233722e-02
      9.92936417e-02 3.66282053e-02 6.23770058e-02 7.98481703e-02
      5.93842706e-03 1.77700371e-02 0. 3.01441282e-01 1.07187003e-01
      3.01441282e-01 3.01441282e-01 2.12570980e-01 3.01441282e-01
      1.46198317e-01 3.01441282e-01 0. 3.95009592e-02 1.78644992e-02
      3.01441282e-01 1.61363423e-01 3.01441282e-01 6.29011989e-02
      1.14317313e-01 3.42080712e-01 0. 0. 0. 1.58346002e-03
      5.30420104e-04 6.27889857e-02 8.65672454e-02 3.50404888e-01
      3.50404888e-01 0. 1.72431639e-03 0. 0. 0. 6.65609241e-02
      2.80276954e-01 2.61277825e-01 3.50404888e-01 0. 0. 0.
      9.50075686e-03 3.18251946e-03 2.97109276e-01 1.41373709e-01
      2.90339202e-01 3.50404888e-01 0. 0. 0. 0. 0. 1.26368955e-01
      4.89736535e-02 3.92905802e-01 3.92905802e-01 1.12672849e-02
      9.81100183e-03 0. 0. 0. 3.73968072e-02 1.44250412e-02
      1.61021098e-01 3.92905802e-01 1.01442322e-01 3.92905802e-01 0. 0.
      0. 1.44250412e-02 4.94185574e-02 1.35813326e-01 3.83112311e-01 0.
      0. 0. 0. 0. 4.07359265e-02 2.10233056e-03 1.87626649e-02
      8.43167379e-02 8.21796581e-02 3.92905802e-01 0. 0. 0.
      2.10233056e-03 2.53539026e-01 6.91293273e-03 2.06861310e-02 0.
      1.11903645e-01 3.86545509e-02 3.43681782e-01 3.43681782e-01
      3.43681782e-01 3.43681782e-01 1.79143533e-01 3.43681782e-01 0.
      6.29201904e-03 6.44242484e-03 3.43681782e-01 1.98317498e-01
      3.43681782e-01 3.67004499e-02 0. 0. 0. 0. 0. 0. 0. 3.67004499e-02
      9.15819034e-02 0. 0. 0. 0. 0. 0. 0. 9.15819034e-02 4.10060257e-01
      4.10060257e-01 4.10060257e-01 0. 0. 0. 1.97336338e-02
      6.61028177e-03 4.10060257e-01 2.00796664e-01 2.56556422e-01
      4.10060257e-01 0. 0. 0. 0. 0. 2.00796664e-01 6.41669258e-02 0. 0.
      0. 0. 0. 0. 0. 6.41669258e-02 3.81363765e-03 0. 0. 0. 0. 0. 0. 0.
      3.81363765e-03 1.00475941e-02 1.98713150e-02 5.94623350e-02 0. 0.
      0. 0. 0. 1.00475941e-02 0. 0. 2.52781548e-02 9.82909501e-02
      6.88015282e-01 1.43794920e-02 3.69807263e-03 0. 0. 0. 0. 0. 0. 0.
      0. 0. 0. 0. 0. 1.24044083e-02 3.71185765e-02 0. 6.88015282e-01
      1.68351740e-01 4.32961695e-02 0. 0.</_>
    <_>
      3.70030180e-02 1.07434327e-02 0. 0. 5.04470050e-01 2.74985451e-02
      6.35593385e-02 4.13453951e-02 3.89560238e-02 0. 0. 0. 0. 0. 0. 0.
      0. 0. 4.53771688e-02 3.00944317e-03 9.00540128e-03 0.
      5.04470050e-01 2.49653086e-01 5.04470050e-01 1.56081259e-01
      4.53771688e-02 1.70127124e-01 8.37324187e-02 2.50559300e-01 0.
      4.06801291e-02 0. 3.97341177e-02 1.32784778e-02 1.70127124e-01 0.
      1.67448842e-03 5.01070824e-03 0. 0. 0. 0. 0. 0. 3.91857959e-02
      8.88720527e-02 2.56371289e-01 8.34801234e-03 1.53138250e-01 0. 0.
      0. 3.91857959e-02 2.24533275e-01 1.66654676e-01 3.91120911e-01 0.
      0. 0. 0. 0. 2.08863154e-01 3.91120911e-01 3.91120911e-01
      3.91120911e-01 2.08700337e-02 1.67369679e-01 0. 0. 0.
      3.65629196e-01 1.81983206e-02 1.70489132e-01 3.36507916e-01
      1.71367880e-02 1.97659656e-01 0. 0. 0. 1.81983206e-02
      7.59770349e-02 2.35083461e-01 3.36507916e-01 1.97397228e-02
      3.36507916e-01 0. 6.05236040e-03 2.02259771e-03 7.59770349e-02
      1.04344137e-01 3.09130460e-01 3.36507916e-01 3.17416638e-02
      2.07145423e-01 0. 0. 0. 8.75734091e-02 2.08219029e-02
      1.46669656e-01 3.36507916e-01 2.15985309e-02 3.36507916e-01 0. 0.
      0. 2.08219029e-02 1.82994872e-01 6.35521486e-03 1.13523211e-02 0.
      2.65187055e-01 5.51884249e-02 2.72207558e-01 1.48482502e-01
      2.01850459e-01 2.72207558e-01 1.40435264e-01 2.72207558e-01 0.
      1.33489054e-02 0. 4.68268096e-02 1.79072004e-02 2.72207558e-01
      2.72207558e-01 9.24899057e-03 8.51424132e-03 0. 5.27138114e-02
      5.67259174e-03 2.72207558e-01 1.58381790e-01 2.72207558e-01
      2.72207558e-01 1.84649408e-01 2.72207558e-01 0. 1.57500734e-03 0.
      3.96366119e-02 1.88920535e-02 2.72207558e-01 2.93823063e-01
      2.53269851e-01 2.93823063e-01 0. 0. 0. 0. 0. 2.93636620e-01
      2.93823063e-01 2.93823063e-01 2.93823063e-01 2.75663706e-03
      1.25879738e-02 0. 0. 0. 2.53939271e-01 2.62736976e-01
      2.32759282e-01 2.93823063e-01 0. 0. 0. 0. 0. 2.39094332e-01
      1.10531300e-01 9.42437947e-02 2.29720086e-01 0. 0. 0. 0. 0.
      9.90382805e-02 1.89791411e-01 3.77693862e-01 4.98124897e-01
      1.65695567e-02 6.08390495e-02 0. 0. 0. 1.41180038e-01
      1.67116243e-02 8.69169310e-02 1.72889158e-01 1.12747103e-02
      4.98124897e-01 0. 0. 0. 1.67116243e-02 3.76745202e-02
      3.57089229e-02 7.28519633e-02 0. 0. 0. 0. 0. 2.95726266e-02 0.
      1.16774691e-02 2.98238955e-02 5.05574327e-03 4.98124897e-01 0. 0.
      0. 0. 4.21894610e-01 1.36209894e-02 0. 0. 0. 0. 2.96860158e-01
      2.12326273e-01 4.21894610e-01 4.21894610e-01 2.71854281e-01
      2.74756849e-01 0. 0. 0. 2.46116947e-02 2.02345122e-02
      4.21894610e-01 0. 0. 0. 0. 0. 0. 0. 0. 0. 0. 0. 0. 0. 0. 0. 0. 0.
      0. 4.82200444e-01 4.82200444e-01 4.82200444e-01 0. 0. 0. 0. 0.
      4.82200444e-01 8.78691897e-02 1.41781718e-01 1.71922430e-01 0. 0.
      0. 0. 0. 8.78691897e-02 0. 0. 0. 0. 0. 0. 0. 0. 0. 0. 0. 0. 0.
      3.66569054e-03 0. 0. 0. 0. 0. 5.02206711e-03 1.50279403e-02 0.
      2.51874123e-02 0. 0. 0. 0. 0. 1.18137330e-01 3.79817903e-01
      2.59675160e-02 4.47656870e-01 0. 0. 0. 0. 0. 4.05653976e-02
      1.21715203e-01 5.89079596e-02 1.93132207e-01 0. 0. 0. 0. 0.
      3.62242758e-01 4.47656870e-01 2.14733094e-01 4.47656870e-01 0. 0.
      0. 0.</_>
    <_>
      3.11409570e-02 0. 0. 0. 6.39891565e-01 2.70687729e-01
      2.49660343e-01 2.29445063e-02 3.95424142e-02 0. 0. 0. 0. 0. 0. 0.
      0. 0. 7.16825947e-03 0. 0. 0. 6.39891565e-01 1.49652570e-01
      1.16278924e-01 2.72850436e-03 7.16825947e-03 0. 0. 0. 0. 0. 0. 0.
      0. 0. 0. 0. 0. 0. 0. 0. 0. 0. 0. 0. 0. 0. 0. 7.32613206e-02 0. 0.
      0. 0. 0. 0. 0. 0. 0. 0. 0. 0. 0. 1.28018092e-02 6.21168077e-01
      6.21168077e-01 4.34861053e-03 4.65171456e-01 0. 0. 0.
      1.28018092e-02 0. 3.33826691e-02 1.01510055e-01 7.96506996e-04
      4.06558476e-02 0. 0. 0. 0. 9.42397416e-02 1.85408816e-01
      3.71033072e-01 4.77904035e-03 3.71033072e-01 0. 2.73625460e-02
      9.14410595e-03 8.47671852e-02 1.26538973e-03 1.74998567e-01
      3.71033072e-01 2.35599652e-02 2.06535846e-01 0. 0. 0.
      1.26538973e-03 1.62461713e-01 3.55455130e-01 3.71033072e-01
      7.65253082e-02 3.71033072e-01 0. 0. 0. 1.05626434e-01 0. 0. 0. 0.
      5.60047030e-01 8.19877014e-02 0. 0. 0. 0. 0. 0. 0. 0. 0. 0. 0. 0.
      0. 0. 0. 0. 5.60047030e-01 8.41011927e-02 5.60047030e-01
      1.87995940e-01 0. 0. 3.46608809e-03 2.42659580e-02 8.76839366e-03
      5.51484823e-02 0. 2.30920240e-02 7.71696866e-03 0. 0.
      5.33397589e-03 1.59612894e-02 0. 2.44488753e-02 0. 0. 0. 0.
      3.64851626e-03 2.14607835e-01 4.39128786e-01 2.45721564e-02
      1.71483800e-01 0. 0. 0. 3.64851626e-03 0. 9.70541164e-02
      3.22545588e-01 2.78448071e-02 1.35574162e-01 0. 0. 0. 0.
      2.73638708e-03 4.39128786e-01 4.39128786e-01 1.21147901e-01
      4.39128786e-01 0. 0. 0. 2.73638708e-03 3.44158360e-03
      1.78507432e-01 3.34037095e-01 2.01653037e-02 1.63152531e-01 0. 0.
      0. 3.44158360e-03 3.29837613e-02 1.68154418e-01 3.34037095e-01
      3.99771929e-02 3.34037095e-01 0. 0. 0. 1.72628090e-02
      5.06109856e-02 2.86336422e-01 3.34037095e-01 2.67534833e-02
      2.64689833e-01 0. 0. 0. 3.44492160e-02 1.29752755e-01
      2.43940845e-01 3.34037095e-01 7.03586917e-03 3.34037095e-01 0. 0.
      0. 6.40175417e-02 1.54166366e-03 1.00009120e-03 2.99265422e-03 0.
      3.17747802e-01 3.60881425e-02 3.17747802e-01 1.60578012e-01
      8.50377139e-03 2.54593343e-02 3.82950231e-02 1.25820905e-01
      1.83757469e-02 8.26189741e-02 8.48830771e-03 6.80508837e-02
      2.27414686e-02 3.47421430e-02 8.85456502e-02 1.38308974e-02
      4.13872935e-02 0. 3.17747802e-01 6.51614293e-02 3.17747802e-01
      2.69413084e-01 1.30318269e-01 2.59540468e-01 2.21904680e-01
      3.17747802e-01 1.79690067e-02 1.22959934e-01 2.44899467e-02
      2.97446221e-01 9.61652473e-02 3.15237284e-01 1.80692971e-02
      1.39002144e-01 3.57036769e-01 7.78344199e-02 8.50276649e-02 0. 0.
      0. 1.91569030e-02 8.66653118e-03 2.97534108e-01 3.57036769e-01
      1.26169711e-01 3.57036769e-01 0. 0. 0. 8.66653118e-03
      1.19598217e-01 3.13788891e-01 3.57036769e-01 7.13683665e-02
      4.32317071e-02 0. 9.42496862e-03 3.14966706e-03 1.26123860e-01
      2.18121875e-02 2.34099090e-01 3.57036769e-01 8.74211863e-02
      1.48412004e-01 0. 0. 0. 2.18121875e-02 1.60099715e-01
      2.77172357e-01 2.77172357e-01 3.88682559e-02 2.77172357e-01 0. 0.
      0. 1.28453106e-01 2.77172357e-01 2.75072962e-01 2.77172357e-01
      1.74564235e-02 2.77172357e-01 0. 0. 0. 2.77172357e-01
      1.25710979e-01 8.63184109e-02 2.42892772e-01 1.82961933e-02
      2.28079334e-01 0. 0. 0. 1.20436564e-01 2.77172357e-01
      6.39480352e-02 1.25534117e-01 6.98256865e-03 1.42804161e-01 0. 0.
      0. 2.71331280e-01</_>
    <_>
      4.15450372e-02 1.66888058e-01 5.34457982e-01 8.11952576e-02
      5.34457982e-01 0. 1.03903808e-01 3.47229205e-02 4.15450372e-02 0.
      0. 0. 0. 5.00252582e-02 0. 0. 0. 0. 1.79345347e-02 4.43930104e-02
      2.77140617e-01 7.68446028e-02 5.34457982e-01 0. 0. 0.
      1.79345347e-02 0. 0. 0. 0. 0. 0. 0. 0. 0. 0. 0. 0. 0. 0. 0. 0. 0.
      0. 0. 0. 0. 0. 0. 0. 0. 0. 0. 7.10506514e-02 2.22675391e-02
      6.66329637e-02 0. 0. 0. 0. 0. 7.10506514e-02 4.94980872e-01
      4.94980872e-01 4.94980872e-01 0. 0. 0. 0. 0. 4.94980872e-01 0.
      1.01158051e-02 3.02703474e-02 0. 5.76067343e-02 0. 0. 0. 0.
      3.14098969e-02 9.99948233e-02 3.76367539e-01 3.12888063e-02
      3.76367539e-01 0. 0. 0. 3.14098969e-02 1.07528366e-01
      1.85011506e-01 3.76367539e-01 0. 1.06298059e-01 0. 0. 0.
      1.00124635e-01 2.39293069e-01 3.29146743e-01 3.76367539e-01 0.
      3.76367539e-01 0. 0. 0. 1.94870636e-01 6.05839975e-02
      2.08543781e-02 1.04387999e-01 3.73096168e-02 3.42201442e-01 0.
      9.86697618e-03 3.29737854e-03 5.50673641e-02 1.14598706e-01
      3.64654921e-02 9.60081294e-02 0. 0. 0. 0. 0. 1.07243203e-01
      3.42201442e-01 7.93555900e-02 1.45090312e-01 1.24480482e-02
      2.39352196e-01 0. 1.58841535e-01 1.10037819e-01 3.42201442e-01
      3.42201442e-01 3.42201442e-01 3.42201442e-01 0. 0. 0. 0.
      4.50680265e-03 3.42201442e-01 1.22293554e-01 5.83693273e-02
      1.70653358e-01 0. 0. 0. 0. 0. 1.21576123e-01 2.67280579e-01
      1.77448243e-01 3.01245928e-01 0. 0. 0. 0. 0. 2.67280579e-01
      3.01245928e-01 2.48753965e-01 3.01245928e-01 0. 0. 0. 0. 0.
      3.01245928e-01 3.01245928e-01 2.51467556e-01 3.01245928e-01 0. 0.
      0. 0. 0. 3.01245928e-01 2.30131045e-01 2.45584190e-01
      3.35209101e-01 0. 2.29789577e-02 0. 0. 0. 2.18708172e-01
      2.07772821e-01 2.28895307e-01 3.35209101e-01 0. 3.35209101e-01 0.
      0. 0. 1.39235690e-01 2.07680583e-01 1.60231635e-01 3.35209101e-01
      0. 0. 0. 0. 0. 2.03111440e-01 8.06806087e-02 7.32099116e-02
      1.82966933e-01 0. 3.35209101e-01 0. 0. 0. 5.32657541e-02
      3.69013548e-01 1.11679070e-01 1.71749875e-01 0. 5.84718138e-02 0.
      2.05337584e-01 1.79495424e-01 3.69013548e-01 3.69013548e-01
      3.69013548e-01 3.69013548e-01 0. 0. 0. 0. 8.77334923e-03
      3.69013548e-01 1.40924409e-01 1.56814735e-02 2.12087277e-02 0. 0.
      0. 2.26088464e-02 2.60346681e-02 1.36986971e-01 9.74203050e-02
      2.82406360e-02 3.39742452e-02 0. 0. 0. 0. 1.46222487e-03
      8.65121558e-02 3.68317038e-01 3.68317038e-01 3.68317038e-01 0. 0.
      0. 0. 0. 3.68317038e-01 3.68317038e-01 2.08424553e-01
      3.68317038e-01 0. 0. 0. 0. 0. 3.68317038e-01 3.88743989e-02
      1.09346351e-02 1.15949130e-02 0. 0. 0. 0. 0. 3.88743989e-02
      7.02230143e-04 0. 0. 0. 0. 0. 0. 0. 7.02230143e-04 6.67366832e-02
      3.40436921e-02 1.01871341e-01 0. 5.20769507e-03 0. 0. 0.
      6.67366832e-02 8.50268081e-03 4.64889966e-02 1.52068928e-01
      2.45440714e-02 5.32139301e-01 0. 0. 0. 8.50268081e-03
      2.71651261e-02 6.78209495e-03 2.02946160e-02 0. 1.37733206e-01 0.
      0. 0. 2.71651261e-02 8.72503445e-02 2.47158632e-01 5.32139301e-01
      3.80486324e-02 5.32139301e-01 0. 0. 0. 8.72503445e-02</_>
    <_>
      2.38856599e-01 4.11657467e-02 1.29915655e-01 1.77602842e-02
      3.54909629e-01 0. 0. 0. 2.07123682e-01 5.12196198e-02
      3.52244312e-03 7.09526008e-03 2.24192417e-03 1.11910932e-01 0. 0.
      0. 4.76964451e-02 3.54909629e-01 1.54857099e-01 3.54909629e-01
      3.40140127e-02 3.54909629e-01 1.75883379e-02 4.52048816e-02
      1.62123777e-02 3.54909629e-01 1.19480930e-01 4.64398265e-02
      1.92721888e-01 7.63679445e-02 3.54909629e-01 2.46525500e-02
      9.03713517e-03 3.21899401e-03 1.28447592e-01 7.89843500e-02
      3.45157343e-03 0. 4.45166277e-03 9.25157890e-02 0. 0. 0.
      8.78447816e-02 5.87163679e-02 1.38062949e-03 0. 1.78066490e-03
      7.91878030e-02 0. 0. 0. 6.58835769e-02 3.07938218e-01
      8.68455023e-02 3.69825572e-01 2.13711038e-01 4.31020826e-01
      7.01289698e-02 8.50159302e-03 3.53246927e-03 4.00857180e-01
      2.08174497e-01 3.06091029e-02 1.14838004e-01 8.44727755e-02
      4.31020826e-01 2.93870624e-02 6.37619477e-03 2.64935149e-03
      2.67427355e-01 4.88977171e-02 0. 0. 0. 7.70197362e-02
      4.32735833e-04 0. 1.67136118e-02 5.38757369e-02 9.75801870e-02 0.
      0. 0. 1.33543760e-01 5.76980936e-04 0. 4.17840332e-02
      1.16874002e-01 1.70888871e-01 0. 0. 0. 4.21512604e-01
      2.10594282e-01 2.92007662e-02 1.00281619e-01 2.16920853e-01
      3.65925044e-01 0. 0. 0. 4.21512604e-01 2.80566663e-01
      3.89343500e-02 2.50704110e-01 4.21512604e-01 1.00545190e-01
      2.52573844e-02 7.81564713e-02 6.83273515e-03 2.66915143e-01
      2.12860499e-02 2.66915143e-01 1.01651028e-01 1.23672321e-01
      1.24343492e-01 8.35714936e-02 2.66915143e-01 4.09888923e-02
      2.66915143e-01 2.85258982e-02 8.87966529e-02 4.80108857e-02
      1.28882438e-01 1.87468633e-01 5.92609867e-03 2.24152952e-02
      7.91712198e-03 2.66915143e-01 1.96859129e-02 2.66915143e-01
      1.59744635e-01 2.18155786e-01 2.66915143e-01 1.46866232e-01
      2.66915143e-01 3.17394361e-02 2.66915143e-01 2.39999555e-02
      2.17963204e-01 1.01336956e-01 2.66915143e-01 1.43201426e-01
      7.64937028e-02 2.65460342e-01 5.58887199e-02 2.65460342e-01
      5.26879579e-02 1.11134805e-01 3.93358395e-02 1.82108283e-01
      6.37693927e-02 1.44688347e-02 6.01663180e-02 1.88746657e-02
      2.65460342e-01 2.73467917e-02 1.59843907e-01 5.17149307e-02
      9.20630395e-02 1.90990448e-01 1.05912909e-01 2.65460342e-01
      1.50136966e-02 2.65460342e-01 4.41421196e-02 2.65460342e-01
      1.25385553e-01 2.55257189e-01 1.18243463e-01 3.32477763e-02
      1.04538627e-01 2.76511721e-03 2.65460342e-01 1.41133204e-01
      2.65460342e-01 2.57932454e-01 2.55650491e-01 7.91348293e-02
      2.78208740e-02 6.21491224e-02 0. 2.96084732e-01 6.11589476e-02
      4.42412756e-02 2.76863687e-02 8.03375766e-02 1.75803676e-01
      3.63427401e-02 8.33767802e-02 0. 2.96084732e-01 7.90155903e-02
      1.10242348e-02 4.00874726e-02 1.85471714e-01 2.12382242e-01
      2.14482963e-01 2.96084732e-01 5.42535409e-02 2.96084732e-01
      9.90083143e-02 2.01596603e-01 9.14528072e-02 2.44472042e-01
      2.37505123e-01 2.28011906e-01 2.96084732e-01 1.23668328e-01
      2.96084732e-01 0. 0. 0. 1.71340063e-01 3.24509412e-01
      6.65039849e-03 2.51644216e-02 1.19540412e-02 3.24509412e-01
      2.01557148e-02 3.24509412e-01 1.33615330e-01 3.24509412e-01
      3.24509412e-01 1.81147605e-01 3.24509412e-01 3.80181335e-02
      3.24509412e-01 2.40867548e-02 2.98430979e-01 1.06423721e-01
      3.24509412e-01 0. 0. 0. 0. 0. 0. 0. 0. 0. 0. 0. 0. 0. 0. 0. 0. 0.
      0. 1.74804434e-01 8.58875439e-02 2.60245264e-01 8.93229526e-03
      1.86664164e-01 3.32614854e-02 3.09472024e-01 1.75556511e-01
      2.85487652e-01 3.09472024e-01 7.04661906e-02 2.02465311e-01
      7.24995462e-03 3.09472024e-01 3.09472024e-01 3.09472024e-01
      3.09472024e-01 3.09472024e-01 3.86407715e-04 0. 0. 0. 0. 0. 0.
      8.61217268e-03 3.35487118e-03 9.28685293e-02 3.90947936e-03
      9.06853005e-03 8.21852882e-04 6.30204901e-02 1.60667002e-02 0.
      5.13594225e-02 1.03911288e-01 3.08661610e-01 2.70904660e-01
      3.08661610e-01 8.85457620e-02 3.08661610e-01 1.71713576e-01
      2.08022907e-01 1.52333766e-01 3.08661610e-01 2.59383857e-01
      2.54549950e-01 3.08661610e-01 1.94319978e-01 3.08661610e-01 0. 0.
      0. 2.02792704e-01 1.15175009e-01 1.30718043e-02 3.03216949e-02
      1.72782631e-03 6.68253601e-02 9.67472047e-03 0. 1.74316447e-02
      1.17118351e-01 4.14629541e-02 9.80385207e-03 2.27412675e-02
      1.06073648e-03 1.60239879e-02 0. 0. 0. 4.00013663e-02</_>
    <_>
      2.10741046e-03 3.53190699e-03 1.23273088e-02 0. 4.20423180e-01 0.
      3.59335379e-03 4.57834452e-03 2.10741046e-03 5.86041398e-02
      9.06383246e-02 2.81775385e-01 0. 4.20423180e-01 0. 0. 0.
      5.86041398e-02 7.32492609e-03 2.37408858e-02 8.53151232e-02
      2.01444700e-02 4.20423180e-01 0. 3.06024384e-02 9.21530183e-03
      7.32492609e-03 5.20447269e-03 1.19596630e-01 4.08948898e-01
      5.58156446e-02 4.20423180e-01 0. 0. 0. 5.20447269e-03
      1.05489329e-01 8.27582628e-02 2.53701001e-01 0. 5.27916253e-01 0.
      0. 0. 1.05489329e-01 1.75815523e-02 0. 0. 0. 2.61675656e-01 0. 0.
      0. 1.75815523e-02 9.36821569e-03 7.12598339e-02 2.36383021e-01
      2.04302762e-02 5.27916253e-01 0. 0. 0. 9.36821569e-03
      1.56136940e-03 0. 0. 0. 4.61760402e-01 0. 0. 0. 1.56136940e-03 0.
      0. 0. 0. 0. 0. 0. 0. 0. 4.44396809e-02 5.61373159e-02
      5.03470451e-02 0. 5.58595598e-01 0. 0. 0. 4.14679088e-02 0. 0. 0.
      0. 0. 0. 0. 0. 0. 0. 2.21255630e-01 5.58595598e-01 0.
      5.58595598e-01 0. 0. 0. 0. 4.10104059e-02 6.50302693e-02
      1.89656988e-01 3.84539999e-02 3.19119126e-01 1.07256195e-03
      8.02496374e-02 2.53604278e-02 4.10104059e-02 4.30034362e-02
      8.55427310e-02 3.19119126e-01 7.76573047e-02 3.19119126e-01 0. 0.
      0. 4.30034362e-02 2.41213679e-01 1.49243847e-01 3.19119126e-01
      6.11382276e-02 2.88540453e-01 4.55036713e-03 1.42537028e-01
      4.70503792e-02 2.47985020e-01 1.20743029e-01 1.42718539e-01
      3.19119126e-01 1.24866419e-01 3.19119126e-01 0. 0. 0.
      1.20743029e-01 3.20581868e-02 3.47965024e-02 1.42084181e-01
      3.53131406e-02 5.55206776e-01 0. 0. 0. 3.20581868e-02 0. 0. 0. 0.
      3.67569625e-01 0. 0. 0. 0. 5.73398918e-02 3.38437743e-02
      1.49048090e-01 5.53791635e-02 5.55206776e-01 0. 0. 0.
      5.73398918e-02 0. 0. 0. 0. 4.30272818e-01 0. 0. 0. 0. 0. 0. 0.
      2.53733550e-03 2.75882073e-02 0. 0. 0. 0. 0. 1.21582709e-01
      4.42981511e-01 2.92362068e-02 4.75511163e-01 0. 0. 0. 0. 0.
      2.10224502e-02 8.34038779e-02 1.63811054e-02 1.39225677e-01 0. 0.
      0. 0. 0. 2.37785771e-01 4.75511163e-01 1.43834487e-01
      4.75511163e-01 0. 0. 0. 0. 3.39329273e-01 9.53265205e-02
      2.54421681e-01 3.12535875e-02 1.78694174e-01 3.69815808e-03
      9.02550817e-02 3.01616788e-02 3.52457047e-01 1.04879335e-01
      9.76794139e-02 3.16952378e-01 7.26172999e-02 3.92067939e-01
      2.24771369e-02 9.06980559e-02 2.41652355e-02 1.04879335e-01
      8.22533444e-02 7.19577912e-03 2.15324331e-02 0. 5.23529500e-02 0.
      6.80815615e-03 2.27516657e-03 8.44412968e-02 2.63797939e-02
      7.23785348e-03 2.16583330e-02 0. 3.92067939e-01 2.99695097e-02
      3.92067939e-01 1.09947428e-01 4.20702100e-02 1.12413494e-02
      1.00174369e-02 3.91984433e-02 1.58557985e-02 3.75667363e-01
      1.59074552e-02 1.09978057e-01 3.22430246e-02 1.12413494e-02
      9.93252080e-03 5.83562907e-03 1.74624287e-02 0. 2.26664975e-01 0.
      3.06053031e-02 1.01698544e-02 9.93252080e-03 9.33070183e-02
      5.36333770e-04 1.60490896e-03 0. 3.75667363e-01 2.12099366e-02
      3.75667363e-01 2.26560533e-01 1.45987138e-01 3.57066482e-01
      1.55090898e-01 2.02336341e-01 0. 1.29032627e-01 0. 2.85241365e-01
      1.71364486e-01 3.20496976e-01 5.69010153e-03 6.26825690e-02
      2.05259264e-01 7.85936322e-03 1.28395647e-01 0. 0. 0.
      5.69010153e-03 7.64528522e-04 1.81383386e-01 3.55842918e-01
      1.01364918e-01 3.55842918e-01 0. 0. 0. 7.64528522e-04
      1.99497193e-01 3.10280234e-01 3.55842918e-01 4.79029585e-03
      8.42906088e-02 0. 1.79087315e-02 1.91517174e-02 1.21251978e-01
      3.11341416e-02 3.01809877e-01 3.55842918e-01 8.22634920e-02
      3.55842918e-01 0. 0. 0. 7.69480504e-03</_>
    <_>
      3.61528099e-02 1.49284929e-01 4.46716070e-01 0. 6.16998255e-01 0.
      5.39354347e-02 1.80243216e-02 3.61528099e-02 0. 0. 0. 0.
      5.84935322e-02 0. 0. 0. 0. 6.20897161e-03 1.08517334e-02
      3.24723981e-02 0. 6.16998255e-01 0. 0. 0. 6.20897161e-03 0. 0. 0.
      0. 1.02825407e-02 0. 0. 0. 0. 0. 1.29923336e-02 3.88780199e-02
      7.60918530e-03 2.57201940e-01 0. 0. 0. 0. 1.80472881e-02
      1.39292225e-01 2.40468055e-01 8.55420157e-02 5.22480190e-01
      6.57546073e-02 1.88876633e-02 2.96580233e-02 1.80472881e-02
      6.40218053e-03 3.54315341e-02 1.37291625e-01 5.51005267e-02
      3.87192816e-01 0. 0. 0. 6.40218053e-03 3.84130739e-02
      7.39269853e-02 2.99385130e-01 1.37751341e-01 5.22480190e-01 0. 0.
      0. 3.84130739e-02 1.74474213e-02 8.04239213e-02 1.06049024e-01
      5.54062501e-02 5.00012100e-01 8.88797343e-02 2.55302396e-02
      4.00884151e-02 1.74474213e-02 4.98685166e-02 0. 0. 2.36745714e-03
      4.35927421e-01 1.54835684e-02 4.25503962e-03 6.68140175e-03
      4.98685166e-02 1.65584274e-02 1.70315802e-02 6.99931681e-02
      3.35326307e-02 5.00012100e-01 0. 0. 0. 1.65584274e-02
      7.48852268e-02 0. 0. 3.15660890e-03 5.00012100e-01 4.02167393e-03
      0. 0. 7.48852268e-02 0. 0. 0. 0. 5.86609781e-01 0. 0. 0. 0. 0.
      3.14145372e-03 9.40042734e-03 1.04152597e-02 8.45071003e-02 0. 0.
      0. 0. 0. 0. 0. 0. 5.86609781e-01 1.43217102e-01 2.24338010e-01
      4.36785370e-02 0. 0. 1.05622225e-01 3.81750017e-01 2.82041021e-02
      2.60958761e-01 2.87012989e-03 5.78947179e-03 0. 0. 1.04319658e-02
      3.88943851e-02 1.42194286e-01 3.85137759e-02 2.82639414e-01 0. 0.
      0. 1.04319658e-02 6.25917688e-02 6.06399477e-02 2.45976448e-01
      7.59229064e-02 4.05858427e-01 0. 0. 0. 6.25917688e-02
      5.90654369e-03 9.28022042e-02 3.74973029e-01 7.49059170e-02
      4.05858427e-01 0. 0. 0. 5.90654369e-03 3.54392491e-02
      8.44012648e-02 3.67436379e-01 1.32126525e-01 4.05858427e-01
      3.83496769e-02 4.60848100e-02 9.40110441e-03 3.54392491e-02
      3.81115675e-02 1.47367408e-02 6.62827790e-02 2.31056456e-02
      4.65807766e-01 0. 0. 0. 3.81115675e-02 2.82048527e-02
      2.39852583e-03 1.34135485e-02 3.31023359e-04 4.65807766e-01
      1.32245605e-03 0. 0. 2.82048527e-02 2.15786397e-02 1.53595954e-02
      7.07005188e-02 3.73064913e-02 4.65807766e-01 4.65571620e-02
      5.82260974e-02 1.01364693e-02 2.15786397e-02 2.94363946e-02
      8.34418088e-02 3.09188873e-01 8.12117103e-03 4.65807766e-01
      3.05845053e-03 5.01339696e-03 0. 2.94363946e-02 1.02363333e-01
      3.32314940e-03 9.94412974e-03 0. 2.95988292e-01 1.07680947e-01
      2.94950306e-01 1.01006187e-01 1.02363333e-01 1.38556615e-01
      1.34636715e-01 2.95988292e-01 2.55305693e-03 6.09664917e-02
      3.88627150e-03 1.97349433e-02 2.13910490e-02 1.38556615e-01
      2.95988292e-01 9.80107300e-03 2.93284860e-02 0. 1.27554774e-01
      8.63336921e-02 2.95988292e-01 1.80990726e-01 2.95988292e-01
      2.95988292e-01 2.12776318e-01 2.95988292e-01 0. 1.36172678e-02
      2.91470322e-03 3.48435268e-02 3.29002328e-02 2.95988292e-01
      2.40661092e-02 1.84162840e-01 3.48311990e-01 2.86248345e-02
      3.48311990e-01 0. 0. 0. 2.40661092e-02 6.19971979e-05
      9.47989002e-02 3.48311990e-01 5.61501794e-02 3.48311990e-01
      7.64093176e-02 1.61473453e-01 2.88690161e-02 6.19971979e-05
      1.28656730e-01 2.17737392e-01 3.48311990e-01 0. 1.04385234e-01 0.
      0. 0. 1.28656730e-01 1.45055810e-02 7.66414478e-02 2.29917407e-01
      0. 3.48311990e-01 5.09040803e-02 1.81406468e-01 4.17898633e-02
      1.45055810e-02 3.80349136e-03 1.22720208e-02 5.41507639e-02
      1.35112219e-02 3.48614573e-01 8.88172761e-02 1.79379195e-01
      3.32836397e-02 3.80349136e-03 1.62451286e-02 1.19338319e-01
      3.48614573e-01 1.85920820e-02 3.48614573e-01 1.90847348e-02
      3.82184722e-02 7.97607191e-03 1.62451286e-02 1.04613535e-01
      2.52316575e-02 8.16846937e-02 4.66227997e-03 3.48614573e-01
      9.27128792e-02 2.84176558e-01 7.49391764e-02 1.04613535e-01
      1.34238437e-01 1.81667238e-01 3.48614573e-01 2.92074382e-02
      3.48614573e-01 3.24135534e-02 9.92291719e-02 2.95512285e-02
      1.34238437e-01</_>
    <_>
      9.62186512e-03 2.19486970e-02 6.56788796e-02 0. 3.95453244e-01 0.
      0. 3.45989200e-03 1.18375774e-02 8.20555016e-02 6.84504732e-02
      2.04829931e-01 0. 3.95453244e-01 0. 8.66721943e-02 2.89644003e-02
      8.20555016e-02 1.99452192e-02 1.03756063e-01 3.10477674e-01 0.
      3.95453244e-01 0. 0. 0. 1.99452192e-02 6.06187098e-02
      1.54893786e-01 3.95453244e-01 0. 3.95453244e-01 0. 3.46688740e-02
      1.15857599e-02 6.06187098e-02 1.28474027e-01 5.77369593e-02
      1.72771007e-01 0. 6.15046620e-01 0. 1.74665585e-01 5.83703220e-02
      1.28474027e-01 0. 0. 0. 0. 1.02205493e-01 0. 0. 0. 0.
      5.15812635e-02 7.42391571e-02 2.22151861e-01 0. 6.15046620e-01 0.
      6.98662326e-02 2.33481266e-02 5.15812635e-02 0. 9.16155428e-03
      6.32582605e-02 2.22421829e-02 2.37798095e-01 0. 0. 0. 0. 0.
      1.64658166e-02 4.92720008e-02 0. 5.96035421e-02 0. 0. 0. 0.
      1.33714527e-02 2.35315427e-01 3.81705016e-01 0. 3.81705016e-01 0.
      0. 0. 1.33714527e-02 0. 1.04301304e-01 3.78524005e-01
      5.69906905e-02 2.05180779e-01 0. 0. 0. 0. 0. 3.81705016e-01
      3.81705016e-01 7.87684619e-02 3.81705016e-01 0. 0. 0. 0.
      1.96210109e-02 1.00705989e-01 3.01350474e-01 0. 3.82285148e-01 0.
      4.33359435e-03 1.44821464e-03 1.96210109e-02 4.48816940e-02
      8.23204592e-02 2.46333912e-01 0. 3.82285148e-01 0. 0. 0.
      4.48816940e-02 5.99476099e-02 1.56158134e-01 3.82285148e-01
      1.62204821e-03 3.82285148e-01 2.77571264e-03 5.10029532e-02
      1.58397127e-02 5.96193261e-02 1.34688010e-02 7.58733377e-02
      2.27041304e-01 2.70341377e-04 3.82285148e-01 0. 1.33042512e-02
      4.54891357e-04 1.34688010e-02 2.42190715e-02 1.56072304e-02
      4.67027128e-02 0. 4.64979887e-01 0. 0. 0. 2.42190715e-02 0.
      4.21150662e-02 1.64959535e-01 3.06537300e-02 2.10841671e-01 0. 0.
      0. 0. 6.89281104e-03 1.07167317e-02 3.20684761e-02 0.
      4.64979887e-01 0. 1.27129676e-02 4.34674526e-04 6.89281104e-03 0.
      2.24697649e-01 4.64979887e-01 2.57714279e-02 4.64979887e-01 0. 0.
      0. 0. 0. 1.52159005e-01 3.27489048e-01 1.22358046e-01
      2.57646739e-01 0. 0. 0. 0. 0. 2.26930916e-01 3.27489048e-01
      1.58476353e-01 3.27489048e-01 0. 0. 0. 0. 0. 2.63203204e-01
      3.27489048e-01 8.17465633e-02 3.27489048e-01 0. 0. 0. 0. 0.
      1.30656317e-01 3.27489048e-01 9.19853002e-02 2.65752643e-01 0. 0.
      0. 0. 1.54791996e-01 1.27543539e-01 3.81657869e-01 3.92095279e-03
      4.04706061e-01 7.18314713e-03 1.29509196e-01 3.59286629e-02
      1.53386757e-01 5.27072791e-03 4.45539728e-02 1.33322030e-01
      6.53491996e-04 4.04706061e-01 3.00304815e-02 1.77731186e-01
      2.91420296e-02 5.27072791e-03 7.01137558e-02 1.43217137e-02
      4.28558625e-02 6.53491996e-04 1.37294203e-01 6.96313288e-03
      5.50806411e-02 1.37018226e-02 6.95516616e-02 2.96771247e-02
      9.75922961e-03 2.92032957e-02 1.08915330e-04 4.04706061e-01
      8.03375840e-02 4.04706061e-01 1.30484611e-01 2.96771247e-02 0.
      1.98137369e-02 5.92902452e-02 0. 3.33963960e-01 1.76885538e-02
      5.96659034e-02 1.10037196e-02 0. 0. 1.87286720e-01 3.33963960e-01
      1.44342717e-03 3.33963960e-01 2.15794635e-03 1.75458286e-03
      5.86352253e-04 0. 5.20265102e-02 9.22450498e-02 2.76032090e-01 0.
      3.33963960e-01 4.90943603e-02 3.33963960e-01 8.74275863e-02
      5.20265102e-02 2.87202932e-02 2.61561424e-01 3.33963960e-01 0.
      3.33963960e-01 6.20702887e-03 5.01018390e-02 1.29711982e-02
      2.87202932e-02 0. 3.96399111e-01 4.02391642e-01 8.00768659e-03
      4.02391642e-01 0. 0. 0. 0. 0. 7.92470500e-02 2.37136588e-01
      3.20307421e-03 2.43168160e-01 0. 0. 0. 0. 0. 2.58388102e-01
      4.02391642e-01 0. 4.02391642e-01 0. 0. 0. 0. 0. 1.02025503e-02
      3.05298008e-02 0. 4.06475440e-02 0. 0. 0. 0.</_>
    <_>
      0. 0. 0. 0. 0. 0. 0. 0. 0. 5.72015829e-02 4.87503447e-02
      2.18280867e-01 0. 1.97499897e-02 0. 0. 0. 5.72015829e-02
      3.95658538e-02 6.99600065e-03 2.09347010e-02 0. 8.89663473e-02 0.
      0. 0. 3.95658538e-02 1.86181635e-01 5.36160469e-01 5.36160469e-01
      9.43806767e-02 5.36160469e-01 0. 0. 0. 1.42055482e-01
      9.02329087e-02 4.18462791e-02 1.61642238e-01 0. 1.10514142e-01 0.
      0. 0. 9.02329087e-02 6.76746741e-02 1.62598044e-02 5.47259040e-02
      0. 1.29178584e-01 0. 0. 0. 6.76746741e-02 2.13393480e-01
      2.90121198e-01 4.61894512e-01 4.74792011e-02 4.61894512e-01 0. 0.
      0. 1.91195354e-01 1.34969518e-01 7.02938959e-02 2.46768340e-01
      7.91320112e-03 4.61894512e-01 0. 0. 0. 1.31269842e-01 0.
      9.67465714e-03 2.89502647e-02 0. 6.00601248e-02 0. 0. 0. 0.
      1.50471171e-02 1.81876048e-01 4.19134110e-01 4.90407869e-02
      4.19134110e-01 0. 0. 0. 1.50471171e-02 0. 6.16935417e-02
      1.84610561e-01 0. 3.44324440e-01 0. 0. 0. 0. 0. 3.06790143e-01
      4.19134110e-01 4.55763973e-02 4.19134110e-01 0. 0. 0. 0.
      1.81433670e-02 1.64755788e-02 7.17086643e-02 1.00427121e-02
      1.17046520e-01 0. 0. 0. 1.81433670e-02 5.52865490e-02
      1.77155942e-01 3.61666888e-01 4.43017408e-02 3.61666888e-01 0.
      2.54754536e-02 2.53254338e-03 2.71457341e-02 1.85318962e-02
      1.29067704e-01 3.61666888e-01 3.61009873e-02 3.61666888e-01 0. 0.
      0. 1.85318962e-02 3.86627950e-02 3.51131678e-01 3.61666888e-01
      9.34516415e-02 3.61666888e-01 6.47593173e-04 3.74338739e-02
      4.53520333e-03 1.75571889e-02 8.41178373e-02 1.19738415e-01
      3.71910065e-01 2.72492263e-02 3.71910065e-01 0. 8.22186023e-02
      1.34662017e-02 5.17852642e-02 2.74235476e-02 1.77325848e-02
      5.88464849e-02 8.76952708e-03 3.71910065e-01 0. 6.12487495e-02
      1.31458137e-02 2.20347904e-02 5.39948791e-02 1.30596027e-01
      3.71910065e-01 2.23505776e-02 3.71910065e-01 1.11145684e-02
      1.91906124e-01 4.23612222e-02 2.97454558e-02 1.48887299e-02
      3.80316414e-02 1.40468657e-01 7.91572481e-02 3.71910065e-01
      1.79829951e-02 1.87378511e-01 4.76347655e-02 1.08471597e-02 0.
      7.68045634e-02 2.49704555e-01 2.02800557e-02 3.36920828e-01 0.
      5.37871663e-03 1.47155649e-03 0. 0. 1.81175813e-01 3.36920828e-01
      6.37704507e-02 3.36920828e-01 0. 0. 0. 0. 3.57381592e-04
      1.46478221e-01 3.36920828e-01 1.77326113e-01 3.36920828e-01
      3.14713805e-03 2.06836164e-02 5.54336281e-03 3.57381592e-04 0.
      1.61319971e-01 3.36920828e-01 1.30559802e-01 3.36920828e-01 0. 0.
      0. 0. 6.58702385e-03 1.96592227e-01 3.31312805e-01 1.36368815e-02
      3.31312805e-01 0. 0. 0. 6.58702385e-03 0. 2.32643560e-01
      3.31312805e-01 2.92403828e-02 3.31312805e-01 1.24416465e-03
      2.52188537e-02 6.71441760e-03 0. 4.01834399e-02 2.38287270e-01
      3.31312805e-01 7.01537505e-02 3.31312805e-01 0. 6.91890297e-03
      2.31217570e-03 4.01834399e-02 0. 1.12591833e-01 3.31312805e-01
      2.13959329e-02 2.34733045e-01 4.97665780e-04 2.17482205e-02
      6.15671929e-03 0. 8.50563962e-03 6.23573475e-02 1.69246957e-01
      6.50031259e-03 3.10016960e-01 2.39194725e-02 1.65748462e-01
      5.04475050e-02 6.14783494e-03 3.94748971e-02 1.37698978e-01
      3.10016960e-01 1.00570068e-01 3.10016960e-01 4.66720648e-02
      1.90047950e-01 6.27930313e-02 2.53280755e-02 3.10098995e-02
      2.81432476e-02 3.20948511e-02 0. 3.10016960e-01 1.35190496e-02
      2.19316468e-01 1.04124270e-01 2.78661605e-02 1.24569498e-01
      2.71818548e-01 3.10016960e-01 4.15828638e-02 3.10016960e-01
      3.01684774e-02 3.07493538e-01 1.51646554e-01 1.05707079e-01
      2.28423160e-02 2.83275038e-01 3.37231755e-01 2.80367762e-01
      3.37231755e-01 1.46560343e-02 3.41271572e-02 1.25978421e-02
      1.38362739e-02 0. 1.35371432e-01 3.37231755e-01 1.18653215e-01
      3.37231755e-01 0. 0. 0. 0. 6.71316311e-02 3.31639111e-01
      3.37231755e-01 1.10667028e-01 2.05708608e-01 1.02866059e-02
      7.14092702e-02 3.61962132e-02 5.51235750e-02 0. 5.14309481e-02
      2.04652995e-01 3.32705304e-02 1.01266526e-01 0. 0. 0. 0.</_>
    <_>
      1.01064734e-01 6.15631114e-04 1.18607786e-02 2.03284714e-02
      2.37269163e-01 2.76500382e-03 1.87811121e-01 3.57658789e-02
      4.71086204e-02 2.63831709e-02 0. 0. 0. 0. 0. 0. 0. 2.63831709e-02
      1.42547086e-01 7.13655651e-02 3.15826684e-01 2.05090061e-01
      3.48713666e-01 6.91250991e-03 3.44665617e-01 4.76878323e-02
      7.06056133e-02 2.13839233e-01 3.48713666e-01 3.48713666e-01 0.
      3.48713666e-01 6.22815751e-02 1.80464640e-01 4.81645726e-02
      1.58298954e-01 4.86209467e-02 0. 0. 0. 0. 0. 0. 0. 4.86209467e-02
      1.18494732e-02 0. 0. 0. 0. 0. 0. 0. 1.18494732e-02 3.63795519e-01
      3.63795519e-01 3.63795519e-01 0. 3.63795519e-01 1.74035087e-01
      3.63795519e-01 1.34587556e-01 2.91725546e-01 8.57039765e-02
      5.41854054e-02 0. 0. 3.63795519e-01 6.96140230e-02 2.01710865e-01
      5.38350195e-02 7.10968301e-02 0. 7.60474661e-03 2.27563009e-02 0.
      6.39843792e-02 0. 0. 0. 0. 1.30886761e-02 1.54987305e-01
      4.59250361e-01 3.44684087e-02 4.59250361e-01 0. 0. 0.
      4.78485320e-03 0. 2.31145248e-02 6.91674724e-02 0. 2.74349660e-01
      0. 0. 0. 0. 0. 2.01101020e-01 4.59250361e-01 2.58513093e-02
      4.59250361e-01 0. 0. 0. 0. 1.13072069e-02 3.46133746e-02
      1.21063612e-01 3.80950496e-02 3.16983998e-01 1.76835898e-02
      2.28712130e-02 1.51420303e-03 9.02289245e-03 5.43904118e-02
      1.82574570e-01 3.42186362e-01 0. 3.42186362e-01 1.94450561e-02
      5.70088178e-02 1.50411166e-02 4.30710465e-02 9.68330819e-03
      1.27694637e-01 3.42186362e-01 4.32514166e-03 3.42186362e-01
      1.06560580e-01 6.40475675e-02 4.33620345e-03 9.68330819e-03
      7.19353482e-02 2.80929118e-01 3.42186362e-01 0. 3.42186362e-01
      1.19925942e-02 1.05889745e-01 3.34414579e-02 6.81179687e-02
      7.67475888e-02 1.43247887e-01 2.59459347e-01 0. 3.83996993e-01
      5.35965301e-02 1.65624887e-01 4.45581079e-02 6.01631552e-02
      1.23972483e-02 9.42353718e-03 0. 0. 3.36430579e-01 2.14386098e-02
      7.93265477e-02 2.22727098e-02 9.85687505e-03 8.18926245e-02
      1.11019388e-01 3.33157510e-01 0. 3.83996993e-01 3.30552645e-02
      3.28936219e-01 1.06139183e-01 7.85371214e-02 7.14523578e-03
      6.29941467e-03 1.88502520e-02 0. 3.83996993e-01 1.32221039e-02
      2.03656539e-01 6.70212507e-02 7.14523578e-03 0. 2.53047850e-02
      7.57215619e-02 2.05625896e-03 2.64364690e-01 0. 0. 0. 0. 0.
      1.23402484e-01 3.69266629e-01 2.74167839e-03 4.09385592e-01 0. 0.
      0. 0. 0. 7.28232265e-02 2.37640709e-01 7.61669129e-03
      4.09385592e-01 0. 5.51561359e-03 1.84322591e-03 0. 0.
      1.88746408e-01 4.09385592e-01 1.30443061e-02 4.09385592e-01 0. 0.
      0. 0. 5.12240045e-02 2.22195923e-01 3.28351647e-01 0.
      3.28351647e-01 6.24329783e-02 1.03455536e-01 2.35608127e-02
      5.12240045e-02 2.04152204e-02 2.53828913e-01 3.28351647e-01 0.
      3.28351647e-01 2.92108040e-02 8.52215737e-02 2.13423427e-02
      1.95352361e-02 1.73999608e-01 2.12592572e-01 3.28351647e-01 0.
      1.21232107e-01 4.28537419e-03 1.25034064e-01 4.03748713e-02
      1.73999608e-01 1.19735831e-02 1.43291593e-01 3.28351647e-01 0.
      2.01425970e-01 3.16518098e-02 7.73642883e-02 1.22918738e-02
      1.19735831e-02 1.42375203e-02 4.64150906e-02 1.41554534e-01 0.
      3.18123639e-01 6.95534497e-02 2.75568694e-01 7.91442320e-02
      1.36532830e-02 3.15911509e-03 4.40006666e-02 1.31666735e-01
      1.96445342e-02 3.18123639e-01 3.48493829e-02 2.38684699e-01
      8.27235579e-02 2.91278935e-03 8.76324438e-03 1.12178959e-02
      3.52084003e-02 0. 3.18123639e-01 9.55511704e-02 3.18123639e-01
      1.01629503e-01 8.76324438e-03 8.52595419e-02 1.23069592e-01
      3.18123639e-01 6.30552843e-02 3.18123639e-01 6.20664246e-02
      3.18123639e-01 1.88923091e-01 8.46437290e-02 1.40973525e-02
      1.51051089e-01 3.19428772e-01 4.16708365e-02 3.19428772e-01 0.
      3.10551953e-02 1.44763961e-02 7.87095726e-03 1.35287438e-02
      1.48399219e-01 3.19428772e-01 6.02962971e-02 3.19428772e-01 0. 0.
      0. 5.90321654e-03 1.01783641e-01 2.79310614e-01 3.19428772e-01
      1.48006618e-01 2.87291467e-01 0. 8.69812742e-02 5.36572747e-02
      6.84832782e-02 5.74677028e-02 1.59631222e-01 3.19428772e-01
      1.49983004e-01 2.70716548e-01 0. 0. 0. 1.47580449e-02</_>
    <_>
      1.31086126e-01 3.64922971e-01 3.64922971e-01 0. 0. 0. 0. 0.
      7.97353536e-02 1.61100954e-01 3.64922971e-01 3.64922971e-01 0.
      8.72958675e-02 0. 0. 0. 1.49007410e-01 1.37986928e-01
      3.64922971e-01 3.64922971e-01 0. 0. 0. 0. 0. 9.07994807e-02
      3.82754877e-02 1.04539447e-01 2.53127635e-01 9.04719287e-04
      1.13820851e-01 0. 0. 0. 3.62598933e-02 9.14622098e-02
      1.31783038e-01 3.77036691e-01 0. 4.26449835e-01 0. 4.52872813e-02
      1.51342545e-02 9.13585052e-02 2.37960927e-02 2.19677202e-02
      9.60134715e-02 0. 4.26449835e-01 0. 1.13218218e-01 3.78356315e-02
      2.37960927e-02 7.84027949e-03 2.62241233e-02 1.17194697e-01
      1.42257875e-02 4.26449835e-01 0. 0. 0. 7.82299601e-03 0.
      4.39223237e-02 2.17137247e-01 2.96396185e-02 4.26449835e-01 0. 0.
      0. 0. 0. 1.89416707e-02 1.15084931e-01 0. 6.15503728e-01 0.
      2.18391985e-01 7.29829520e-02 0. 0. 0. 0. 0. 0. 0. 0. 0. 0. 0.
      8.47238377e-02 3.99536222e-01 5.22752367e-02 6.15503728e-01 0. 0.
      0. 0. 0. 0. 0. 0. 0. 0. 0. 0. 0. 8.65099058e-02 1.09802075e-01
      2.26563841e-01 0. 0. 0. 0. 0. 6.72290474e-02 0. 1.82209127e-02
      8.17810670e-02 2.22615171e-02 2.40645438e-01 0. 0. 0. 0.
      3.94436181e-01 4.30471785e-02 3.70171331e-02 1.89047735e-02
      8.35373476e-02 2.02762745e-02 1.51240870e-01 3.87603194e-02
      3.94436181e-01 3.94436181e-01 6.86895922e-02 1.62090600e-01
      4.37759869e-02 3.94436181e-01 1.94459315e-02 8.56826603e-02
      3.69940549e-02 3.94436181e-01 0. 2.81236582e-02 1.52873993e-01
      4.88673523e-02 3.39940429e-01 0. 0. 0. 0. 0. 3.60262319e-02
      1.73203155e-01 5.22118062e-02 3.39940429e-01 0. 0. 0. 0.
      2.25493759e-01 8.91834348e-02 3.12467992e-01 7.29509816e-02
      3.39940429e-01 6.49137795e-03 2.20161211e-02 1.92851555e-02
      2.25493759e-01 3.05186361e-01 7.40993991e-02 2.55931318e-01
      5.47132343e-02 3.39940429e-01 1.08189613e-03 3.66935413e-03
      3.21419258e-03 3.05186361e-01 0. 1.37739880e-02 5.41862920e-02
      1.45602003e-02 3.62395465e-01 0. 0. 0. 0. 0. 0. 0. 0. 0. 0. 0. 0.
      0. 4.31910336e-01 1.51255270e-02 4.52611670e-02 0. 3.35490346e-01
      0. 0. 0. 4.31910336e-01 4.31910336e-01 0. 0. 0. 0. 0. 0. 0.
      4.31910336e-01 2.93347955e-01 2.63387002e-02 1.46190515e-02
      1.32207545e-02 8.79731774e-02 4.60006222e-02 2.93347955e-01
      9.37712714e-02 2.93347955e-01 2.93347955e-01 3.24536972e-02
      4.89664637e-02 4.63476125e-03 1.98395982e-01 5.19359894e-02
      2.11056590e-01 6.04821853e-02 2.93347955e-01 7.01343417e-02
      9.39554721e-03 2.43650842e-03 5.28830104e-03 2.46768638e-01
      8.03020298e-02 2.93347955e-01 1.88902736e-01 5.88532239e-02
      8.47900286e-02 4.90918271e-02 1.44666523e-01 8.81383428e-04
      2.93347955e-01 1.00020744e-01 2.93347955e-01 1.93103880e-01
      7.63291866e-02 2.43420467e-01 9.20743421e-02 2.75520802e-01
      1.37285674e-02 3.02626759e-01 3.03790700e-02 6.09864220e-02
      4.51978110e-02 2.43420467e-01 3.02626759e-01 7.42319748e-02
      2.22129628e-01 1.02964249e-02 3.02626759e-01 4.21297643e-03
      8.06909241e-03 7.06816977e-03 3.02626759e-01 6.07817434e-02
      1.14920191e-01 3.02626759e-01 0. 3.02626759e-01 3.39682549e-02
      1.47604644e-01 5.76632544e-02 6.07817434e-02 7.07076937e-02
      5.20000458e-02 1.77317619e-01 0. 3.02626759e-01 3.15973163e-03
      3.22763645e-03 2.82726786e-03 7.07076937e-02 4.39629227e-01
      1.21118408e-02 3.62431034e-02 0. 9.18435603e-02 0. 0. 0.
      4.39629227e-01 4.39629227e-01 0. 0. 0. 0. 0. 0. 0. 4.39629227e-01
      2.08980069e-01 3.21003422e-03 9.60560888e-03 0. 1.53636932e-02 0.
      0. 0. 2.08980069e-01 2.49933690e-01 0. 0. 0. 0. 0. 0. 0.
      2.49933690e-01</_>
    <_>
      3.22187006e-01 1.42579690e-01 2.89048523e-01 4.40425761e-02
      3.32647592e-01 0. 4.71525230e-02 1.07434414e-01 2.47362241e-01
      3.32647592e-01 3.32647592e-01 3.32647592e-01 3.30319293e-02
      2.13925466e-01 0. 3.53643969e-02 8.05758089e-02 3.32647592e-01
      8.26258659e-02 3.53120267e-02 5.08003943e-02 7.34042935e-03
      9.09613743e-02 0. 1.88610088e-02 4.29737605e-02 8.03965554e-02
      1.66534632e-01 8.97537172e-02 1.19933322e-01 5.50532108e-03
      4.09999043e-02 0. 1.41457561e-02 3.22303176e-02 1.53158799e-01
      2.51344919e-01 1.31157845e-01 3.40484619e-01 2.23243460e-02
      1.86684266e-01 0. 2.61110943e-02 1.16770659e-02 2.18764201e-01
      1.00408614e-01 8.06618109e-02 3.81810129e-01 5.58108650e-02
      4.04743284e-01 1.29654258e-02 1.18468024e-01 4.72040959e-02
      1.00408614e-01 2.82447673e-02 1.49381757e-02 5.94238751e-02
      3.49199362e-02 4.04743284e-01 0. 0. 0. 2.57148556e-02
      2.00786488e-03 1.48566999e-02 1.33775443e-01 8.72998461e-02
      4.04743284e-01 0. 0. 0. 2.00786488e-03 3.85998487e-02
      1.23547718e-01 4.97502446e-01 4.46477570e-02 5.67303777e-01
      3.25240120e-02 1.83818653e-01 6.11945540e-02 3.85998487e-02 0. 0.
      0. 0. 8.15605372e-02 0. 0. 0. 0. 0. 3.51620018e-02 1.77578777e-01
      6.98383972e-02 5.67303777e-01 0. 0. 0. 0. 0. 0. 0. 0.
      5.46517968e-03 0. 0. 0. 0. 1.88182667e-01 1.89990306e-03
      5.68523491e-03 0. 0. 0. 0. 0. 1.88182667e-01 2.26977602e-01 0. 0.
      0. 0. 0. 0. 0. 2.26977602e-01 4.52674061e-01 1.13994144e-02
      3.41113918e-02 0. 4.44197748e-03 0. 2.09017973e-02 6.98501430e-03
      4.52674061e-01 4.52674061e-01 0. 0. 0. 4.64896625e-03 0.
      9.65062808e-03 3.22507066e-03 4.52674061e-01 8.53755027e-02
      6.08921703e-03 1.82212610e-02 5.47924126e-03 3.60528678e-01 0. 0.
      0. 8.53755027e-02 5.71523160e-02 8.11895449e-03 2.42950097e-02
      1.36981020e-02 3.60528678e-01 0. 2.94454359e-02 9.84017272e-03
      5.71523160e-02 3.60528678e-01 1.72824841e-02 5.03955521e-02 0.
      2.52158999e-01 0. 2.18927041e-02 7.31615676e-03 3.60528678e-01
      3.60528678e-01 6.81661218e-02 1.15687527e-01 0. 3.60528678e-01 0.
      9.00331289e-02 3.00875511e-02 3.14957052e-01 1.06515005e-01
      1.46781385e-03 4.39225882e-03 4.38530231e-03 3.90078157e-01 0.
      2.95592677e-02 9.87821352e-03 1.06515005e-01 1.72298998e-01 0. 0.
      0. 0. 0. 0. 0. 1.58908755e-01 3.90078157e-01 8.83972421e-02
      8.64691064e-02 0. 3.66816908e-01 0. 7.38981739e-02 2.46955324e-02
      3.90078157e-01 3.90078157e-01 2.14006249e-02 1.67965349e-02 0. 0.
      0. 0. 0. 3.90078157e-01 4.38825041e-01 5.91667928e-03
      1.77049600e-02 0. 4.08263132e-03 0. 3.40185426e-02 1.13684004e-02
      4.38825041e-01 4.38825041e-01 0. 0. 0. 5.93728125e-02 0.
      2.78135203e-02 9.29478928e-03 4.38825041e-01 1.98831692e-01 0. 0.
      0. 0. 0. 5.66975679e-03 1.89473305e-03 1.98831692e-01
      2.34460384e-01 1.74449608e-02 5.22019826e-02 0. 1.63246498e-01 0.
      2.29287073e-02 7.66237173e-03 2.34460384e-01 3.27905804e-01
      8.63458309e-03 3.02487016e-02 4.03747486e-04 3.27905804e-01 0.
      5.53443842e-02 1.84951220e-02 3.27905804e-01 3.27905804e-01
      8.42399076e-02 1.41771883e-01 1.00936892e-03 3.27905804e-01 0.
      6.04343042e-02 2.01960988e-02 2.15589985e-01 6.69369474e-02
      5.31424582e-02 1.96481243e-01 1.32731171e-02 3.27905804e-01 0.
      4.56244051e-02 1.52468747e-02 6.51227012e-02 5.20334579e-02
      7.94993341e-02 3.11317086e-01 3.31827998e-02 3.27905804e-01 0.
      3.42183001e-02 1.14351558e-02 3.07926461e-02 3.88115913e-01
      1.98062673e-01 2.07033992e-01 5.00179944e-04 3.38392794e-01 0.
      2.94084419e-02 9.82780941e-03 3.88115913e-01 3.88115913e-01
      4.72900309e-02 3.71161439e-02 0. 0. 0. 0. 0. 3.88115913e-01
      8.29250365e-02 5.31585999e-02 1.40291467e-01 1.64433140e-02
      3.88115913e-01 0. 0. 0. 5.72823174e-02 6.61038384e-02
      7.88167119e-03 6.18602382e-03 0. 0. 0. 0. 0. 6.61038384e-02</_>
    <_>
      4.28645372e-01 2.07664147e-01 2.50043809e-01 0. 9.80785768e-03 0.
      0. 0. 3.98865074e-01 2.68055320e-01 5.73253110e-02 1.42942563e-01
      0. 4.28645372e-01 8.98858085e-02 1.03020802e-01 2.52588186e-02
      2.47005031e-01 1.21288374e-02 0. 0. 0. 0. 0. 0. 0. 1.21288374e-02
      0. 0. 1.60819441e-02 5.04332930e-02 4.28645372e-01 2.44878158e-02
      7.80860754e-03 0. 0. 4.58586477e-02 8.60439613e-03 2.57475339e-02
      0. 5.10694444e-01 2.02924833e-01 1.18565284e-01 1.85302142e-02
      4.58586477e-02 0. 0. 0. 0. 3.51647615e-01 8.00048336e-02
      2.52463538e-02 0. 0. 0. 0. 3.69949527e-02 1.16016895e-01
      5.10694444e-01 5.63318469e-02 1.79629456e-02 0. 0. 0. 0.
      1.47979800e-02 4.64067571e-02 5.10694444e-01 2.25327369e-02
      7.18517788e-03 0. 0. 0. 0. 0. 0. 0. 0. 0. 0. 0. 0. 0. 0. 0. 0. 0.
      0. 0. 0. 0. 0. 0. 0. 0. 0. 0. 0. 0. 0. 0. 0. 0. 0. 0. 0. 0. 0.
      1.36299893e-01 0. 0. 0. 4.54721227e-03 0. 1.36852246e-02
      1.25272740e-02 1.39224276e-01 5.86225986e-02 6.78838510e-03
      3.90886776e-02 5.88795245e-02 3.63101810e-01 0. 3.51842977e-02
      2.47984249e-02 7.61688277e-02 3.63101810e-01 0. 0. 0.
      3.80452089e-02 0. 1.53101370e-01 1.10263288e-01 3.63101810e-01
      3.63101810e-01 5.00082932e-02 1.97733819e-01 2.48157103e-02
      3.63101810e-01 0. 2.11105719e-01 1.64408758e-01 3.63101810e-01
      2.43729390e-02 5.50136948e-03 6.41740635e-02 1.49625361e-01
      3.72096121e-01 0. 2.54855435e-02 1.13960179e-02 3.24030221e-02
      5.85504696e-02 0. 1.90847479e-02 5.98501451e-02 2.35298857e-01 0.
      7.67599931e-03 2.56519066e-03 5.85504696e-02 2.48415202e-01
      5.65855652e-02 2.17546463e-01 4.91144061e-02 3.72096121e-01 0.
      2.32325390e-01 1.04513340e-01 3.25889826e-01 3.72096121e-01
      9.43094213e-03 3.36524360e-02 1.70335043e-02 1.40728921e-01 0.
      1.89152047e-01 6.64798096e-02 3.72096121e-01 6.64318576e-02 0. 0.
      0. 0. 0. 0. 0. 6.64318576e-02 7.53677934e-02 0. 0. 0. 0. 0. 0. 0.
      7.53677934e-02 4.92449135e-01 0. 0. 0. 0. 0. 3.38246860e-02
      1.18440678e-02 4.92449135e-01 4.92449135e-01 0. 0. 0. 0. 0.
      5.67921810e-02 1.89789981e-02 4.92449135e-01 3.55741143e-01 0. 0.
      0. 6.58856481e-02 0. 8.75742137e-02 5.93621880e-02 3.55741143e-01
      3.00121933e-01 4.44894023e-02 2.70260692e-01 2.25801822e-02
      3.55741143e-01 0. 8.89587253e-02 8.33370164e-02 3.55741143e-01
      3.63215655e-02 4.34186682e-03 2.61006784e-02 1.67595595e-02
      1.13517046e-01 0. 0. 5.73265599e-04 3.85510959e-02 2.39910763e-02
      7.39364475e-02 3.55741143e-01 1.30446002e-01 3.55741143e-01 0. 0.
      3.43959220e-03 3.73682454e-02 1.83405608e-01 6.48727044e-02
      3.24786991e-01 2.00651307e-02 3.56477708e-01 0. 1.64766893e-01
      7.44833201e-02 2.40813315e-01 3.56477708e-01 1.56286936e-02
      5.54014854e-02 8.66585295e-04 1.39575347e-01 0. 2.02824786e-01
      7.19820037e-02 3.56477708e-01 2.18024813e-02 7.19565600e-02
      3.50955993e-01 8.19129720e-02 3.56477708e-01 0. 1.70135554e-02
      7.74217909e-03 2.80785616e-02 1.14784025e-01 9.35895555e-03
      3.95183340e-02 5.19951014e-03 1.35622010e-01 0. 3.06574181e-02
      1.09454207e-02 1.16706192e-01 4.59266961e-01 0. 0. 0. 0. 0.
      4.33344916e-02 1.51740257e-02 4.59266961e-01 4.59266961e-01 0. 0.
      0. 0. 0. 4.10884954e-02 1.37310894e-02 4.59266961e-01
      1.73284024e-01 0. 0. 0. 0. 0. 7.22241541e-03 2.52900389e-03
      1.74277306e-01 2.08966464e-01 0. 0. 0. 0. 0. 0. 0. 2.08800912e-01</_>
    <_>
      3.27874154e-01 3.27874154e-01 3.27874154e-01 0. 5.05101606e-02 0.
      0. 0. 3.27874154e-01 3.27874154e-01 2.78010875e-01 3.27874154e-01
      0. 9.27049741e-02 0. 1.92959514e-02 6.44836854e-03 3.27874154e-01
      1.92555428e-01 8.34599286e-02 1.87942624e-01 0. 2.85986848e-02 0.
      0. 0. 1.66024789e-01 9.67092514e-02 3.09138726e-02 8.45100507e-02
      0. 1.49207160e-01 0. 0. 0. 8.89028832e-02 1.92623124e-01
      8.54720399e-02 2.02372015e-01 0. 4.64374125e-01 0. 5.67664057e-02
      1.89703442e-02 1.77200466e-01 2.83412095e-02 1.70320291e-02
      3.53191271e-02 0. 4.64374125e-01 0. 5.61199225e-02 1.87543109e-02
      2.83412095e-02 1.42984139e-02 2.68713874e-03 1.80254728e-02
      2.47247312e-02 4.64374125e-01 0. 0. 0. 1.42984139e-02
      7.92894221e-04 0. 2.49614064e-02 6.18118271e-02 4.64374125e-01 0.
      0. 0. 7.92894221e-04 0. 0. 0. 0. 6.99137926e-01 0. 3.44822817e-02
      1.15234023e-02 0. 0. 0. 0. 0. 0. 0. 0. 0. 0. 0. 0. 4.44815680e-02
      1.10149533e-01 6.99137926e-01 0. 0. 0. 0. 0. 0. 0. 0. 0. 0. 0. 0.
      0. 2.43887946e-01 1.11667737e-02 1.19934557e-03 0. 0. 0.
      8.85559653e-04 2.16220375e-02 2.56495655e-01 2.15031162e-01
      2.97363894e-03 8.89826193e-03 0. 9.94232148e-02 0. 1.03679243e-02
      9.65324864e-02 2.15031162e-01 3.72540116e-01 2.79169343e-02
      2.99836393e-03 0. 0. 0. 1.67367999e-02 7.31107742e-02
      3.72540116e-01 3.72540116e-01 1.29004344e-02 3.86030152e-02
      9.63644590e-03 1.34335116e-01 0. 1.95950538e-01 3.72540116e-01
      3.72540116e-01 7.08380118e-02 8.25492106e-03 4.85411473e-02
      5.32742068e-02 3.19962502e-01 9.21525806e-03 7.74849951e-03
      3.74949984e-02 7.08380118e-02 8.94773155e-02 6.19118987e-03
      7.81245977e-02 1.33185521e-01 3.19962502e-01 2.30381507e-02
      9.30351578e-03 0. 8.94773155e-02 3.19962502e-01 5.24620749e-02
      1.71693012e-01 4.38465551e-02 3.19962502e-01 2.30381507e-02
      8.54143053e-02 1.45879477e-01 3.19962502e-01 3.19962502e-01
      5.77445850e-02 2.09560245e-01 7.78920501e-02 3.19962502e-01
      5.75953759e-02 2.32587904e-02 0. 3.19962502e-01 1.53423414e-01 0.
      2.07146499e-02 4.62915301e-02 2.75370985e-01 8.00741091e-03
      3.23363976e-03 0. 1.53423414e-01 1.81374356e-01 0. 0. 0. 0. 0.
      7.43814418e-03 2.48570344e-03 1.81374356e-01 4.44957107e-01
      1.01623088e-02 4.31885161e-02 2.49728020e-02 8.11017901e-02
      2.00185291e-02 8.08410067e-03 0. 4.44957107e-01 4.44957107e-01
      1.87101699e-02 0. 0. 0. 0. 4.46288437e-02 1.49142137e-02
      4.44957107e-01 3.60980451e-01 1.04226423e-02 1.11942366e-03 0. 0.
      0. 1.78285465e-02 4.01822180e-02 3.60980451e-01 3.60980451e-01
      2.28423495e-02 6.83530197e-02 2.41705738e-02 3.60980451e-01 0.
      2.08732471e-01 2.47256994e-01 3.60980451e-01 0. 0. 0. 0. 0. 0. 0.
      0. 0. 1.78654138e-02 8.06823894e-02 3.01858425e-01 3.99082825e-02
      3.60980451e-01 0. 4.41531837e-02 1.47552174e-02 1.78654138e-02
      1.97576508e-01 6.28748313e-02 1.89520821e-01 2.50534452e-02
      3.36855918e-01 5.57257142e-03 5.47779985e-02 6.22223392e-02
      2.33154222e-01 3.36855918e-01 7.24174604e-02 2.20139444e-01
      1.44119337e-02 3.36855918e-01 1.39314281e-02 5.62594086e-03 0.
      3.36855918e-01 8.47246218e-03 8.29934925e-02 2.90483743e-01
      2.94100121e-02 3.36855918e-01 0. 2.53249127e-02 8.46314151e-03
      8.47246218e-03 1.81120299e-02 4.88757677e-02 1.57285392e-01
      8.39663669e-03 3.36855918e-01 0. 4.22081864e-03 1.41052355e-03
      1.81120299e-02 4.87457484e-01 2.70398930e-02 8.30275938e-02
      3.62364203e-03 4.87673283e-02 8.56364239e-03 3.45826289e-03 0.
      4.87457484e-01 4.87457484e-01 2.50980929e-02 0. 0. 0. 0.
      3.38072889e-02 1.12978313e-02 4.87457484e-01 6.74891397e-02
      6.06154557e-03 1.81383863e-02 0. 9.57891643e-02 0. 0. 0.
      6.74891397e-02 8.37236047e-02 0. 0. 0. 0. 0. 0. 0. 8.37236047e-02</_>
    <_>
      1.58880636e-01 3.18004489e-01 3.18004489e-01 0. 0. 0.
      3.79788573e-03 1.26918673e-03 1.28097787e-01 2.62707084e-01
      3.18004489e-01 3.18004489e-01 0. 1.28568441e-01 4.01648507e-03
      1.31544512e-04 0. 1.86532706e-01 1.89266875e-01 3.18004489e-01
      3.18004489e-01 0. 0. 0. 2.27873083e-02 7.61511782e-03
      1.37973070e-01 8.95281434e-02 1.87005639e-01 3.00297916e-01 0.
      1.92037627e-01 0. 0. 0. 5.05788513e-02 2.28165746e-01
      2.23650560e-01 4.09388125e-01 0. 4.09388125e-01 2.55922712e-02
      8.38176406e-04 0. 1.49309829e-01 3.66001204e-02 1.22937085e-02
      3.67873423e-02 0. 4.09388125e-01 1.91942044e-02 6.28632260e-04 0.
      3.04445922e-02 4.11036462e-02 6.50324523e-02 1.46652758e-01 0.
      4.09388125e-01 0. 0. 0. 1.53603284e-02 0. 7.46196602e-03
      3.21211629e-02 0. 4.09388125e-01 0. 0. 0. 0. 0. 0. 0. 0.
      7.04615593e-01 0. 0. 0. 0. 0. 0. 0. 0. 0. 0. 0. 0. 0. 0. 0. 0. 0.
      7.04615593e-01 0. 0. 0. 0. 0. 0. 0. 0. 0. 0. 0. 0. 0.
      2.36696437e-01 1.95301816e-01 4.46418911e-01 0. 0. 0.
      3.87994647e-02 1.29661001e-02 1.84463263e-01 2.39368789e-02
      8.57217088e-02 3.20833862e-01 1.60972215e-02 5.16703486e-01 0. 0.
      0. 1.60105191e-02 1.96146611e-02 0. 0. 0. 0. 0. 0. 0.
      1.96146611e-02 0. 3.60108651e-02 1.33487090e-01 2.14629602e-02
      5.16703486e-01 0. 0. 0. 0. 3.57740093e-04 4.07670960e-02
      1.66840777e-01 1.12241572e-02 4.86254454e-01 0. 0. 0.
      3.57740093e-04 0. 1.63068380e-02 6.67363033e-02 4.48966259e-03
      4.86254454e-01 0. 0. 0. 0. 5.54785179e-03 2.51094047e-02
      9.30769444e-02 1.49655426e-02 4.86254454e-01 0. 1.27407061e-02
      4.25773114e-03 5.54785179e-03 4.12464626e-02 1.00437598e-02
      3.72307710e-02 5.98621601e-03 4.86254454e-01 0. 1.69876050e-02
      5.67697454e-03 4.12464626e-02 0. 0. 0. 0. 3.63461822e-01 0. 0. 0.
      0. 0. 0. 0. 0. 0. 0. 0. 0. 0. 3.63461822e-01 1.01522997e-01
      4.32558507e-02 0. 3.63461822e-01 0. 2.41623912e-02 8.07466824e-03
      3.63461822e-01 3.63461822e-01 3.63461822e-01 2.27192804e-01 0. 0.
      0. 8.04417133e-02 2.68822759e-02 3.63461822e-01 2.29744837e-01
      7.15727219e-03 9.06540640e-03 0. 0. 0. 4.94188666e-02
      3.73481400e-02 2.29744837e-01 2.57138520e-01 1.33141782e-02
      3.51387262e-02 6.98595482e-04 3.47280711e-01 0. 0. 0.
      2.55754501e-01 3.47280711e-01 9.54302773e-03 1.20872054e-02 0. 0.
      0. 8.29942822e-02 5.55128567e-02 3.47280711e-01 3.47280711e-01
      3.47493924e-02 7.57690892e-02 0. 3.47280711e-01 0. 1.09266460e-01
      3.65149342e-02 3.47280711e-01 1.27421066e-01 2.50405278e-02
      4.52663228e-02 1.30784372e-03 3.04966152e-01 0. 3.43294293e-02
      1.14723220e-02 1.22832932e-01 2.98625261e-01 2.15569027e-02
      1.76258758e-02 5.23137394e-04 3.04966152e-01 0. 4.57725674e-02
      1.52964266e-02 2.95184135e-01 3.04966152e-01 1.18469864e-01
      1.76519871e-01 0. 3.04966152e-01 0. 1.00696281e-01 3.36509496e-02
      2.89544404e-01 3.04966152e-01 1.36638850e-01 1.27591878e-01 0.
      2.17572138e-01 0. 3.80489491e-02 1.27153192e-02 3.04966152e-01
      3.38568211e-01 3.73407155e-02 1.62190367e-02 0. 3.07238922e-02 0.
      7.86536653e-03 2.62847426e-03 3.38568211e-01 3.38568211e-01
      1.52838096e-01 1.05810881e-01 0. 0. 0. 2.61854678e-02
      8.75074603e-03 3.38568211e-01 3.38568211e-01 5.05429767e-02
      2.33905949e-02 0. 4.62083006e-03 0. 5.89902420e-03 1.97135541e-03
      3.38568211e-01 3.38568211e-01 1.40564382e-01 1.35104150e-01 0. 0.
      0. 1.96391009e-02 6.56305859e-03 3.38568211e-01</_>
    <_>
      2.76036054e-01 1.84698015e-01 2.76036054e-01 0. 1.64787099e-02 0.
      8.86154268e-03 2.96137226e-03 2.76036054e-01 2.76036054e-01
      2.59391796e-02 6.41306490e-02 0. 1.73161954e-01 0. 2.76036054e-01
      1.09700136e-01 2.76036054e-01 1.56114250e-01 1.57354280e-01
      2.76036054e-01 0. 2.76036054e-01 0. 1.18153887e-02 3.94849572e-03
      1.42462552e-01 1.85262859e-01 1.87080055e-02 5.05856536e-02 0.
      2.76036054e-01 0. 2.76036054e-01 1.17077596e-01 1.82987586e-01
      1.63739964e-01 0. 0. 0. 4.02427435e-01 0. 4.02427435e-01
      1.75014004e-01 1.63739964e-01 0. 0. 0. 0. 1.54454544e-01 0.
      7.78577030e-02 2.60187443e-02 0. 5.32011986e-02 0. 0. 0.
      4.02427435e-01 0. 4.02427435e-01 2.06121907e-01 5.32011986e-02 0.
      0. 0. 0. 4.02427435e-01 0. 1.44608513e-01 4.83257435e-02 0. 0. 0.
      4.07323427e-03 2.01930525e-03 1.15007227e-02 0. 0. 0. 0.
      4.01028879e-02 1.33773580e-01 4.16655511e-01 7.06235617e-02
      4.16655511e-01 0. 0. 0. 4.01028879e-02 0. 1.47003932e-02
      8.14128891e-02 4.57291305e-02 1.43073723e-01 0. 0. 0. 0.
      4.90624364e-03 2.68556625e-01 4.16655511e-01 4.16655511e-01
      4.16655511e-01 0. 0. 0. 4.90624364e-03 1.50386337e-02
      4.94749621e-02 1.48047417e-01 0. 4.48031753e-01 0. 3.09120188e-03
      1.03302544e-03 1.50386337e-02 2.00515110e-02 4.69829328e-03
      1.40590305e-02 0. 4.48031753e-01 0. 3.13987315e-01 1.04929104e-01
      2.00515110e-02 0. 0. 0. 0. 4.48031753e-01 0. 0. 0. 0. 0. 0. 0. 0.
      4.48031753e-01 0. 2.26723447e-01 7.57670254e-02 0. 1.58564223e-03
      0. 0. 0. 3.90368789e-01 4.95598826e-04 2.90630162e-01
      9.71236154e-02 1.58564223e-03 0. 9.58823657e-04 2.86916597e-03 0.
      3.90368789e-01 6.60798221e-04 1.16598174e-01 3.89651433e-02 0.
      1.46556180e-03 0. 0. 0. 3.90368789e-01 2.97359121e-03
      3.75925809e-01 1.28600985e-01 3.44567117e-03 1.37931006e-02
      5.07680587e-02 1.52718514e-01 3.81201599e-03 3.90368789e-01
      3.96478828e-03 2.86776811e-01 1.05309308e-01 1.37436409e-02 0.
      3.19181941e-02 1.50739461e-01 5.55507764e-02 1.58662930e-01
      9.45178108e-05 0. 0. 0. 0. 1.54746935e-01 3.52238387e-01
      2.50146210e-01 3.52238387e-01 0. 0. 0. 0. 7.91496504e-03
      1.88309640e-01 3.52238387e-01 7.36687779e-02 3.13741803e-01
      5.67106646e-04 3.26899886e-02 1.35810729e-02 5.19783609e-03 0.
      2.75575429e-01 3.52238387e-01 1.44893438e-01 3.52238387e-01 0. 0.
      0. 0. 0. 0. 0. 0. 5.44712365e-01 0. 0. 0. 0. 0. 0. 0. 0.
      5.44712365e-01 0. 2.23519504e-01 7.46963024e-02 0. 1.82864368e-02
      5.78838363e-02 1.16991855e-01 0. 5.44712365e-01 0. 0. 0.
      1.32218469e-02 0. 0. 0. 0. 1.53729558e-01 0. 8.32546502e-02
      2.78222449e-02 0. 1.61105525e-02 0. 0. 0. 2.79139429e-01
      1.98807521e-03 2.79139429e-01 1.45211384e-01 2.50637680e-02
      1.00999989e-01 1.28241539e-01 2.71999568e-01 2.10130904e-02
      2.79139429e-01 2.65076640e-03 2.79139429e-01 1.96735978e-01
      1.02243774e-01 5.33445366e-02 0. 0. 0. 2.28331015e-01
      9.45904467e-04 2.44431064e-01 9.62661207e-02 6.10764995e-02
      2.40017861e-01 1.67705134e-01 2.62240201e-01 2.43271384e-02
      2.45675787e-01 1.26120576e-03 2.79139429e-01 1.81472525e-01
      2.43493333e-01 6.88980669e-02 3.18340331e-01 3.30551088e-01
      7.57111236e-02 3.16487998e-01 4.61467775e-04 1.02045991e-01
      4.89422418e-02 5.53636849e-02 0. 2.25411668e-01 3.30551088e-01
      6.53154477e-02 3.30551088e-01 0. 0. 0. 0. 1.55251384e-01
      2.70932972e-01 3.30551088e-01 4.59800325e-02 1.27955511e-01
      2.19561349e-04 1.34204835e-01 5.62984422e-02 1.45884439e-01
      2.02065241e-03 8.13189223e-02 3.28591317e-01 1.27241025e-02
      5.91087528e-02 0. 0. 0. 2.02065241e-03</_>
    <_>
